<?xml version="1.0"?>
<opencv_storage>
<opencv_ml_svm>
  <format>3</format>
  <svmType>C_SVC</svmType>
  <kernel>
    <type>LINEAR</type></kernel>
  <C>1.</C>
  <term_criteria><epsilon>1.0000000000000000e-03</epsilon>
    <iterations>10000</iterations></term_criteria>
  <var_count>108</var_count>
  <class_count>34</class_count>
  <class_labels type_id="opencv-matrix">
    <rows>34</rows>
    <cols>1</cols>
    <dt>i</dt>
    <data>
      0 1 2 3 4 5 6 7 8 9 65 66 67 68 69 70 71 72 74 75 76 77 78 80 81
      82 83 84 85 86 87 88 89 90</data></class_labels>
  <sv_total>561</sv_total>
  <support_vectors>
    <_>
      -2.78279901e-01 2.17669636e-01 9.05950725e-01 -3.22268577e-03
      8.79503071e-01 0. -7.03528970e-02 -7.98532590e-02 -2.78279901e-01
      -1.49412483e-01 6.51605576e-02 2.90441304e-01 -2.14845742e-04
      2.00206086e-01 0. -2.88759828e-01 -1.76076874e-01 -1.49412483e-01
      -2.05629587e-01 -2.43808731e-01 -2.87741393e-01 -4.72561456e-03
      7.39966154e-01 0. 1.04490423e+00 5.36434352e-01 -1.34067699e-01
      -1.94600910e-01 -9.38997120e-02 -2.10801158e-02 -3.15040990e-04
      2.17334643e-01 0. 1.46934986e-01 3.26445587e-02 -1.94600910e-01
      4.99346703e-02 2.46004369e-02 8.12528804e-02 0. -2.04604074e-01 0.
      -2.42761448e-01 -1.10187255e-01 4.99346703e-02 4.14737314e-02
      -4.86008674e-02 2.30169445e-02 0. -2.13273346e-01 0.
      -2.27217227e-01 -8.58203694e-02 4.14737314e-02 4.14737314e-02
      2.29431093e-02 1.90666005e-01 0. -1.08946815e-01 0.
      -1.79120407e-01 -7.89700225e-02 4.14737314e-02 4.14737314e-02
      9.72808897e-02 3.17626566e-01 0. -1.06209159e-01 0.
      -1.12555921e-01 -9.15316567e-02 4.14737314e-02 -1.46778256e-01
      -1.06075525e-01 -9.51349437e-02 0. 7.31647164e-02 0.
      -7.49307796e-02 -2.50408184e-02 -1.46778256e-01 -1.64607495e-01
      2.53324918e-02 1.84476018e-01 0. 6.97200179e-01 0. 6.03683472e-01
      3.69554311e-01 -1.64607495e-01 -2.14281380e-01 1.65860280e-01
      3.96124125e-01 0. 1.78703859e-01 0. -2.87198335e-01
      -1.64627686e-01 -2.14281380e-01 -2.51930833e-01 7.55887389e-01
      1.11385071e+00 0. 6.10133052e-01 0. -3.31211835e-01
      -1.66781306e-01 -2.51930833e-01</_>
    <_>
      2.61734426e-01 1.06283076e-01 -4.36181687e-02 0. -4.64570940e-01
      0. -7.04584062e-01 -2.34898821e-01 2.61734426e-01 4.52485234e-01
      2.29108967e-02 -1.79397594e-02 0. -6.97211325e-01 0.
      -2.87327260e-01 -9.60199833e-02 4.52485234e-01 -3.33024204e-01
      1.60637394e-01 1.50708497e-01 0. 2.55220622e-01 0. -3.44518334e-01
      -2.77283370e-01 -3.33024204e-01 5.55860624e-02 -1.96353659e-01
      -2.89628476e-01 0. 2.70485375e-02 0. 4.98940125e-02 1.66737661e-02
      5.55860624e-02 7.66066194e-01 -6.46894425e-02 -1.70469671e-01 0.
      -2.01060474e-02 0. 9.37769935e-02 3.13386172e-02 7.66066194e-01
      2.88967431e-01 -5.08063018e-01 -4.46634173e-01 0. 6.52630627e-02
      0. 2.59891748e-01 8.68512541e-02 2.88967431e-01 2.64117736e-02
      -6.37139618e-01 -4.06513274e-01 0. 1.55419891e-03 0.
      2.15944782e-01 7.21651316e-02 2.64117736e-02 3.51817422e-02
      -8.94833744e-01 -2.65405953e-01 0. 2.28085369e-02 0.
      1.14933327e-01 3.84087898e-02 3.51817422e-02 4.21601757e-02
      -6.17931604e-01 -4.82357293e-01 0. -4.41814587e-02 0.
      3.01434010e-01 1.00733966e-01 4.21601757e-02 -3.70857805e-01
      -3.95607725e-02 -1.06378682e-01 0. 1.69098541e-01 0.
      5.08196235e-01 2.89456964e-01 -3.70857805e-01 1.53663889e-01
      -2.97171384e-01 -1.70618415e-01 0. -1.73978761e-01 0.
      9.02347192e-02 3.01549546e-02 1.53663889e-01 4.83972460e-01
      7.59172082e-01 4.03869331e-01 0. -7.87482083e-01 0.
      -2.84796625e-01 -8.75788480e-02 4.83972460e-01</_>
    <_>
      1.75225690e-01 3.19740549e-02 -5.16476110e-02 0. -1.72162473e-01
      0. -5.77806830e-02 -1.64957680e-02 1.75225690e-01 8.22077394e-02
      -1.89300060e-01 -4.57690418e-01 0. -1.43327594e-01 0.
      -1.23018980e-01 -4.45196629e-02 8.22077394e-02 -3.40405703e-02
      -3.76479298e-01 -5.60489178e-01 0. 2.12156624e-01 0.
      4.82868552e-01 3.53611767e-01 -3.40405703e-02 8.34639221e-02
      -2.83632070e-01 -4.11555678e-01 0. -5.82882576e-03 0.
      -2.41093621e-01 -1.97053537e-01 8.34639221e-02 1.75699160e-01
      4.76386473e-02 1.42552167e-01 0. -6.05208814e-01 0.
      -5.01679599e-01 -1.71751276e-01 1.75699160e-01 4.29807305e-01
      1.23074636e-01 3.58215719e-01 0. -6.53208137e-01 0.
      -3.56219500e-01 -2.22723275e-01 4.29807305e-01 1.70469537e-01
      7.25154504e-02 2.04288960e-01 0. -5.06054044e-01 0.
      -5.13378024e-01 -5.31524241e-01 1.70469537e-01 1.03986092e-01
      1.64631858e-01 4.21271294e-01 0. -3.49025935e-01 0.
      -5.49205661e-01 -4.34718639e-01 1.03986092e-01 2.10362241e-01
      1.61756612e-02 6.65834844e-02 0. -2.73422927e-01 0.
      -3.11490744e-01 -1.47517771e-01 2.10362241e-01 -4.60424721e-02
      -3.27619025e-03 -1.04688302e-01 0. -3.17201354e-02 0.
      -2.25555003e-01 -7.16422722e-02 -4.60424721e-02 -1.31851891e-02
      1.26514643e-01 1.35390759e-01 0. 1.44642502e-01 0. -2.61073738e-01
      -8.90572667e-02 -1.31851891e-02 -1.16305515e-01 3.37778442e-02
      -3.82356942e-02 0. 1.48553252e-01 0. 6.72960058e-02 6.05548508e-02
      -1.16305515e-01</_>
    <_>
      -1.75678030e-01 2.95200169e-01 -1.00989804e-01 0. 9.44933772e-01
      0. 2.27150157e-01 7.87234083e-02 -1.75678030e-01 -4.84400652e-02
      -3.16420376e-01 -6.47852540e-01 0. 2.41287127e-02 0.
      1.48017406e-01 4.94648628e-02 -4.84400652e-02 -4.50720817e-01
      -4.22516689e-02 -2.34050795e-01 0. 8.60889077e-01 0.
      7.26884305e-01 4.32630301e-01 -4.50720817e-01 -4.84400652e-02
      -2.92654261e-02 -6.61138296e-02 0. -1.89260412e-02 0.
      1.61691513e-02 5.40390424e-03 -4.84400652e-02 1.85326621e-01
      -2.82675892e-01 -6.26839995e-01 0. -2.66056836e-01 0.
      1.12571456e-01 3.76193374e-02 1.85326621e-01 4.18424644e-02
      -5.18103719e-01 -9.06591237e-01 0. -3.52035135e-01 0.
      1.06449105e-01 3.55733149e-02 4.18424644e-02 4.18424644e-02
      1.47338465e-01 4.24867094e-01 0. -4.43399549e-01 0.
      -9.75964442e-02 -3.26148346e-02 4.18424644e-02 4.18424644e-02
      1.15515858e-01 2.35548362e-01 0. -4.50300157e-01 0.
      -2.64004558e-01 -8.82256329e-02 4.18424644e-02 7.92661868e-03
      -3.34615231e-01 -7.23866463e-01 0. -7.76314914e-01 0.
      -1.25106990e-01 -4.18086983e-02 7.92661868e-03 2.73404658e-01
      2.54763037e-01 4.70347404e-01 0. -1.71258628e-01 0.
      -3.18633057e-02 2.19369486e-01 2.73404658e-01 1.39696745e-03
      1.15930207e-01 4.67324145e-02 0. -5.89209855e-01 0.
      -6.11082435e-01 -2.04213023e-01 1.39696745e-03 5.88753968e-02
      8.08789134e-01 4.67383564e-01 0. -5.00449479e-01 0.
      -7.86397099e-01 -2.30082244e-01 5.88753968e-02</_>
    <_>
      7.33867511e-02 3.66082788e-02 8.92600939e-02 0. 1.04246572e-01 0.
      2.45898366e-01 8.47361162e-02 7.33867511e-02 2.78021961e-01
      2.35947818e-02 6.22017272e-02 0. -6.45074546e-01 0.
      -3.46634477e-01 -1.51275709e-01 2.78021961e-01 2.00017635e-02
      -1.57621682e-01 -4.85491395e-01 0. -1.18846238e-01 0.
      4.02436346e-01 3.10225844e-01 2.00017635e-02 4.10782129e-01
      3.67293209e-02 1.05518460e-01 0. -4.80214894e-01 0.
      -2.27361053e-01 -1.78976119e-01 4.10782129e-01 4.27349895e-01
      -2.51541063e-02 -7.52703547e-02 0. -7.19848514e-01 0.
      -3.95676345e-01 -2.00542837e-01 4.27349895e-01 4.53253359e-01
      2.52790470e-02 6.55748174e-02 0. -5.15544295e-01 0.
      -2.87820667e-01 -1.38873160e-01 4.53253359e-01 3.12281817e-01
      -1.57886650e-02 -4.87939231e-02 0. -5.83908796e-01 0.
      -5.13111830e-01 -3.02350789e-01 3.12281817e-01 1.16091110e-01
      -1.40202604e-03 7.08834454e-02 0. -4.15280759e-01 0.
      -4.15371895e-01 -2.33375132e-01 1.16091110e-01 1.80761933e-01
      1.83615610e-02 5.49441874e-02 0. -4.57368046e-01 0.
      -9.07476097e-02 -3.21731232e-02 1.80761933e-01 -4.71321829e-02
      -1.66355539e-02 -6.13462627e-02 0. -1.74138203e-01 0.
      2.31564820e-01 2.09252819e-01 -4.71321829e-02 3.76036689e-02
      5.92555441e-02 2.71552964e-03 0. 2.71922238e-02 0. -8.21319073e-02
      -2.74469499e-02 3.76036689e-02 -1.13187440e-01 1.64121792e-01
      1.60555765e-01 0. 6.09972067e-02 0. 9.14729536e-02 6.52165562e-02
      -1.13187440e-01</_>
    <_>
      5.35129048e-02 -8.53848085e-02 -2.35235512e-01 0. 5.90096891e-01
      0. 2.63838381e-01 9.09840092e-02 5.35129048e-02 -4.48734919e-03
      -2.59076029e-01 -4.54410821e-01 0. -2.54573345e-01 0.
      -1.63899526e-01 -5.47722913e-02 -4.48734919e-03 -4.91750613e-02
      -3.16079199e-01 -4.12478358e-01 0. 3.43767971e-01 0.
      5.82146168e-01 3.83793443e-01 -4.91750613e-02 2.22942203e-01
      -1.71992943e-01 -1.65658712e-01 0. -6.51362956e-01 0.
      -7.21272379e-02 -5.61576486e-02 2.22942203e-01 1.51559100e-01
      -6.25838339e-02 -1.10190257e-01 0. -2.72912353e-01 0.
      -3.27854842e-01 -1.09563366e-01 1.51559100e-01 2.06876144e-01
      -1.34095326e-01 -6.29859939e-02 0. -4.57194090e-01 0.
      -3.16176832e-01 -1.14442289e-01 2.06876144e-01 4.37995672e-01
      6.49057180e-02 1.80394784e-01 0. -7.92614579e-01 0.
      -5.54446518e-01 -3.41980278e-01 4.37995672e-01 1.78821772e-01
      7.37103224e-02 1.07823059e-01 0. -8.03832471e-01 0.
      -6.40248299e-01 -4.73070145e-01 1.78821772e-01 1.94286183e-01
      -5.91098703e-02 -6.72917217e-02 0. -5.35320520e-01 0.
      -2.52930045e-01 -1.21676758e-01 1.94286183e-01 -6.56685382e-02
      1.13208912e-01 1.01472989e-01 0. 9.44164023e-02 0. -7.45626166e-02
      1.86877102e-01 -6.56685382e-02 2.75956571e-01 4.79547270e-02
      -8.42873305e-02 0. -5.15397072e-01 0. -4.60580200e-01
      -2.09493726e-01 2.75956571e-01 1.95956349e-01 1.87636107e-01
      2.21481640e-02 0. -1.11832291e-01 0. 6.30332008e-02 5.91302589e-02
      1.95956349e-01</_>
    <_>
      7.21876562e-01 6.21873856e-01 9.89770174e-01 0. -6.77836835e-01 0.
      -2.31298268e-01 -7.58489147e-02 7.21876562e-01 8.18465799e-02
      -6.28534518e-03 -1.46226898e-01 0. -3.99483532e-01 0.
      -8.63560140e-02 -2.88587790e-02 8.18465799e-02 -2.46279299e-01
      -1.92758188e-01 -6.71175778e-01 0. -2.61551142e-01 0.
      7.59064674e-01 4.09276247e-01 -2.46279299e-01 -9.81174037e-02
      -6.71695769e-01 -8.30834508e-01 0. 5.52849136e-02 0.
      2.50561446e-01 8.37334022e-02 -9.81174037e-02 1.28724769e-01
      -9.52700004e-02 -8.88138190e-02 0. -6.10075053e-03 0.
      -5.47904298e-02 -1.83100943e-02 1.28724769e-01 2.77188420e-02
      -1.75677136e-01 -2.14218602e-01 0. 3.39574665e-02 0.
      5.89460023e-02 1.96987055e-02 2.77188420e-02 2.77188420e-02
      -2.88316518e-01 -5.22141159e-01 0. 6.55535012e-02 0.
      1.96420085e-02 6.56400528e-03 2.77188420e-02 5.97915277e-02
      -7.11196959e-02 -1.96789801e-01 0. 4.85428497e-02 0.
      7.48709887e-02 2.50206646e-02 5.97915277e-02 -2.34675959e-01
      -7.97234923e-02 3.00583355e-02 0. 8.69396105e-02 0. 1.87435821e-01
      6.26377761e-02 -2.34675959e-01 -6.82746410e-01 2.08412603e-01
      4.33578670e-01 0. 1.10460186e+00 0. 4.55889791e-01 2.38662168e-01
      -6.82746410e-01 -1.60166353e-01 1.78473011e-01 3.55079234e-01 0.
      1.56373139e-02 0. -8.90458971e-02 -2.97575165e-02 -1.60166353e-01
      -2.13397011e-01 7.63215125e-01 6.49802446e-01 0. 5.85563242e-01 0.
      -3.08498532e-01 -8.35166201e-02 -2.13397011e-01</_>
    <_>
      -4.05623205e-02 1.52184412e-01 1.33264288e-01 0. 2.84468353e-01 0.
      -1.57306805e-01 -4.97555695e-02 -4.05623205e-02 9.92480069e-02
      -1.62590388e-02 -2.06393376e-02 0. -4.80615467e-01 0.
      -7.57153273e-01 -2.61180848e-01 9.92480069e-02 -1.62451565e-01
      2.60594022e-02 -7.03565925e-02 0. 3.37643027e-01 0. 2.12054357e-01
      2.02086896e-01 -1.62451565e-01 6.55036718e-02 -1.48860201e-01
      -3.35344553e-01 0. -3.55459541e-01 0. 5.47873154e-02
      -7.66161457e-02 6.55036718e-02 4.60153490e-01 -1.09341592e-01
      -3.14280510e-01 0. -8.40711296e-01 0. -6.05427206e-01
      -2.17502147e-01 4.60153490e-01 3.13930422e-01 -2.98228055e-01
      -5.32012939e-01 0. -8.29126537e-01 0. -1.77841783e-01
      -6.53811321e-02 3.13930422e-01 2.95625299e-01 -1.25403926e-01
      -2.44558930e-01 0. -9.14118290e-01 0. -4.72200185e-01
      -1.69454172e-01 2.95625299e-01 2.59885609e-01 8.51919502e-02
      1.55785441e-01 0. -8.29728067e-01 0. -8.18553507e-01
      -4.17257547e-01 2.59885609e-01 1.34213828e-02 -6.20358177e-02
      -1.34584785e-01 0. -2.35523328e-01 0. -9.42001194e-02
      -3.14802565e-02 1.34213828e-02 -3.24361235e-01 1.28300801e-01
      1.67939365e-01 0. 7.85301104e-02 0. -2.33309418e-01 5.78009114e-02
      -3.24361235e-01 6.25509918e-02 1.92980245e-01 2.62387961e-01 0.
      -7.47055486e-02 0. -4.82598603e-01 -2.23551884e-01 6.25509918e-02
      -1.06290996e-01 8.86012539e-02 -5.76327071e-02 0. -2.83338409e-02
      0. -3.61289494e-02 2.59919576e-02 -1.06290996e-01</_>
    <_>
      8.65545422e-02 8.47109929e-02 6.73079565e-02 0. -9.93721634e-02 0.
      -1.14160635e-01 -3.69187742e-02 8.65545422e-02 7.62535632e-02
      -1.42150475e-02 -8.48676860e-02 0. -3.60261530e-01 0.
      -5.43219566e-01 -1.88193247e-01 7.62535632e-02 -6.82459548e-02
      1.19671792e-01 1.65348575e-01 0. -1.14836536e-01 0.
      -4.41760086e-02 3.42660919e-02 -6.82459548e-02 8.19287077e-02
      -2.16911156e-02 -1.14277340e-01 0. -3.50917697e-01 0.
      -1.94218576e-01 -1.35594666e-01 8.19287077e-02 2.32547104e-01
      3.55641469e-02 1.06420487e-01 0. -6.24471724e-01 0.
      -7.17280328e-01 -3.52303207e-01 2.32547104e-01 5.25305629e-01
      1.16937384e-01 3.39850128e-01 0. -7.94884503e-01 0.
      -4.86094266e-01 -3.24651450e-01 5.25305629e-01 1.71157375e-01
      -1.30512178e-01 -2.91231245e-01 0. -6.76485538e-01 0.
      -1.41380057e-01 -4.72466424e-02 1.71157375e-01 1.55928254e-01
      -5.50664850e-02 -1.32201090e-01 0. -7.57943511e-01 0.
      -2.10998267e-01 -7.05120340e-02 1.55928254e-01 3.45565617e-01
      -4.53537591e-02 -8.51842910e-02 0. -5.25826395e-01 0.
      -2.17201095e-02 -7.25882035e-03 3.45565617e-01 -1.61854893e-01
      -2.80977815e-01 -3.95631939e-01 0. 3.22305679e-01 0.
      5.90389729e-01 4.37196374e-01 -1.61854893e-01 -3.34106013e-02
      -8.98299143e-02 -1.84836701e-01 0. -2.56939083e-01 0.
      -1.09539106e-02 -3.66066024e-03 -3.34106013e-02 -1.40781879e-01
      -3.55895683e-02 -2.92842742e-02 0. 2.63461679e-01 0.
      3.73512328e-01 1.59697980e-01 -1.40781879e-01</_>
    <_>
      -2.46565863e-01 3.29966456e-01 4.43695337e-01 -1.94677114e-01
      9.90047812e-01 -7.77202547e-02 5.95566072e-02 -5.07893860e-02
      -2.46565863e-01 -1.04267314e-01 -1.23980694e-01 -2.47245148e-01
      -4.69201840e-02 3.75124514e-02 -1.22160181e-01 1.24806814e-01
      -4.79946509e-02 -1.04267314e-01 -4.96934712e-01 1.55294817e-02
      -1.70079410e-01 -1.33581264e-02 9.07291174e-01 -7.96215534e-02
      6.51738465e-01 3.52476269e-01 -4.96934712e-01 -1.16906837e-01
      8.43828246e-02 1.39648527e-01 -1.26258424e-03 -8.47291294e-03
      -1.81269363e-01 -1.96878403e-01 -2.42182985e-01 -1.16906837e-01
      1.04947574e-01 -1.14561506e-01 -2.19827101e-01 -1.66795198e-02
      -2.07348123e-01 -6.38707578e-02 1.30485728e-01 1.63107999e-02
      1.04947574e-01 3.33821289e-02 -2.04233602e-01 -5.00410557e-01
      -6.10430054e-02 -2.72098184e-01 -1.05474673e-01 -7.66976029e-02
      -4.51245122e-02 3.33821289e-02 3.33821289e-02 1.22715302e-01
      3.56584996e-01 -3.69259389e-04 -4.29478467e-01 -5.69646508e-02
      -3.07714164e-01 -1.54028088e-01 3.33821289e-02 3.33821289e-02
      1.15799382e-01 2.62524158e-01 -1.15347458e-02 -5.58594406e-01
      -1.13401204e-01 -8.61377180e-01 -3.01324725e-01 3.33821289e-02
      2.46346160e-03 -2.28617385e-01 -5.15299380e-01 -1.78180948e-01
      -4.06672359e-01 -1.31989896e-01 -8.46115798e-02 -3.11348978e-02
      2.46346160e-03 -1.15801014e-01 -1.28103852e-01 -2.82895386e-01
      -1.46053746e-01 2.77509987e-01 -1.12070099e-01 7.05409884e-01
      5.01866817e-01 -1.61331907e-01 2.29565930e-02 1.63293824e-01
      2.20426783e-01 -4.95701805e-02 -4.59693551e-01 -1.56600296e-01
      -9.00017202e-01 -3.50625634e-01 2.29565930e-02 -4.07672208e-03
      7.16862798e-01 6.46272123e-01 -3.74346673e-02 -2.18317449e-01
      -8.79233778e-02 -7.04599440e-01 -3.01599473e-01 -4.07672208e-03</_>
    <_>
      -1.33993655e-01 2.07127258e-01 4.41379577e-01 0. -6.20224839e-03
      0. -3.15939426e-01 -1.02768019e-01 -1.33993655e-01 1.28597841e-01
      1.86272711e-02 -1.81647260e-02 0. -7.77329564e-01 0.
      -5.14102995e-01 -1.85667261e-01 1.28597841e-01 -2.87506226e-02
      2.30694860e-02 -5.25986664e-02 0. 5.66274300e-02 0.
      -1.34476200e-02 3.15473694e-03 -2.87506226e-02 2.11355731e-01
      -2.04341829e-01 -5.27049005e-01 0. -6.63212657e-01 0.
      1.72106549e-01 5.75153120e-02 2.11355731e-01 3.93909603e-01
      -6.64513111e-02 -1.98847234e-01 0. -1.03265107e+00 0.
      -2.88753808e-01 -9.64966789e-02 3.93909603e-01 1.98272958e-01
      -3.82316932e-02 -5.95684126e-02 0. -5.25358796e-01 0.
      -1.55561745e-01 -5.19863963e-02 1.98272958e-01 4.12182719e-01
      -1.14182413e-01 -3.55297893e-01 0. -1.10141933e+00 0.
      -5.52695036e-01 -1.88699290e-01 4.12182719e-01 1.98272958e-01
      7.53939673e-02 1.49089634e-01 0. -6.77989185e-01 0.
      -8.00529301e-01 -4.37556058e-01 1.98272958e-01 -4.48128581e-02
      5.26038855e-02 1.57410309e-01 0. 9.27732661e-02 0. -1.38224214e-01
      -4.61922623e-02 -4.48128581e-02 -2.93143034e-01 3.83421965e-02
      1.30040459e-02 0. -3.42240036e-02 0. 7.68660232e-02 2.55242348e-01
      -2.93143034e-01 5.89372218e-03 1.36303261e-01 1.34200588e-01 0.
      1.25531301e-01 0. -3.01835567e-01 -1.00868240e-01 5.89372218e-03
      -4.58189659e-02 2.96792518e-02 -1.40872419e-01 0. -1.18459068e-01
      0. 6.04944527e-02 5.82819320e-02 -4.58189659e-02</_>
    <_>
      -3.91286314e-01 3.15140523e-02 -1.70783952e-01 0. 5.42412221e-01
      0. -3.71395588e-01 -1.21300556e-01 -3.91286314e-01 2.68645752e-02
      7.88052455e-02 2.79326320e-01 0. 3.43763113e-01 0. -4.10910815e-01
      -1.37319326e-01 2.68645752e-02 2.50850320e-01 -1.45104066e-01
      -4.34386432e-01 0. -6.32864535e-02 0. -6.51798919e-02
      -4.08975303e-01 2.50850320e-01 7.16853678e-01 5.40977158e-02
      8.46962258e-02 0. -9.19757605e-01 0. -6.27229929e-01
      -3.62415522e-01 7.16853678e-01 -4.78688598e-01 6.10156991e-02
      1.82581663e-01 0. 1.39714375e-01 0. -2.88321525e-01
      -9.63521823e-02 -4.78688598e-01 -4.78688598e-01 1.08649798e-01
      3.15050960e-01 0. 1.78371280e-01 0. 3.59010808e-02 -1.85885523e-02
      -4.78688598e-01 1.17546630e+00 1.18369594e-01 3.54186743e-01 0.
      -3.86526853e-01 0. -8.43001306e-02 -3.06543633e-02 1.17546630e+00
      5.35232902e-01 -2.89868623e-01 -8.16275299e-01 0. -1.05807400e+00
      0. -1.66067213e-01 -5.54964952e-02 5.35232902e-01 -3.09662917e-03
      1.42932624e-01 4.27707285e-01 0. 3.12625527e-01 0. -2.36933991e-01
      -9.83385593e-02 -3.09662917e-03 -2.66572505e-01 1.28277704e-01
      3.83703411e-01 0. 2.69449621e-01 0. -2.45461762e-01
      -3.40717584e-02 -2.66572505e-01 2.84184366e-01 -2.73871928e-01
      -7.25611866e-01 0. -3.32136750e-01 0. -4.46489602e-01
      -1.59539476e-01 2.84184366e-01 1.43687651e-01 1.34337977e-01
      1.19723022e-01 0. -6.07004464e-02 0. -7.07557321e-01
      -2.27469727e-01 1.43687651e-01</_>
    <_>
      -2.34288990e-01 6.62773728e-01 1.01960707e+00 0. 1.55784905e-01 0.
      -8.29255879e-01 -2.74309784e-01 -2.34288990e-01 -1.10752165e-01
      3.42581987e-01 9.95583594e-01 0. 8.95994753e-02 0. -1.86806038e-01
      -6.24275133e-02 -1.10752165e-01 -3.58360291e-01 1.91426501e-01
      5.72819591e-01 0. 2.27613986e-01 0. -2.71315843e-01
      -4.36402619e-01 -3.58360291e-01 -1.10752165e-01 2.26038948e-01
      5.99265277e-01 0. 2.45469883e-01 0. -4.16194409e-01
      -1.39085114e-01 -1.10752165e-01 -1.60918057e-01 1.95750162e-01
      5.85757256e-01 0. 1.57932177e-01 0. 3.78328413e-02 1.26430150e-02
      -1.60918057e-01 -1.60918057e-01 1.03425905e-01 2.99419731e-01 0.
      1.72962382e-01 0. -6.15855083e-02 -2.05808636e-02 -1.60918057e-01
      -1.60918057e-01 2.53911942e-01 7.57090509e-01 0. 1.12337813e-01 0.
      -2.00890929e-01 -6.71343952e-02 -1.60918057e-01 -1.60918057e-01
      3.55884463e-01 1.06494129e+00 0. 1.14152297e-01 0. -1.30623370e-01
      -4.36521284e-02 -1.60918057e-01 -6.47657365e-02 1.11771196e-01
      3.34460884e-01 0. 1.21395372e-01 0. 4.71780449e-02 1.57660693e-02
      -6.47657365e-02 -2.42098540e-01 4.77539971e-02 1.36676803e-01 0.
      -3.73787656e-02 0. -1.83967277e-02 2.84785509e-01 -2.42098540e-01
      -3.27185690e-02 2.12775439e-01 4.73517209e-01 0. 3.49274635e-01 0.
      1.16084062e-01 3.87933888e-02 -3.27185690e-02 -2.15689421e-01
      -7.25620985e-03 -2.02120215e-01 0. -5.69042005e-02 0.
      -3.65249217e-01 -8.39941576e-02 -2.15689421e-01</_>
    <_>
      -1.62659094e-01 7.95866083e-03 2.30368935e-02 0. -1.90688595e-02
      0. 1.38117019e-02 4.61568078e-03 -1.62659094e-01 -4.76211794e-02
      2.46417709e-02 7.25108162e-02 0. -3.50370347e-01 0.
      -1.98246300e-01 -6.62504062e-02 -4.76211794e-02 2.03868479e-01
      -6.10226542e-02 -1.82602227e-01 0. -4.76211794e-02 0.
      5.08127809e-01 2.31406420e-01 2.03868479e-01 3.31454039e-01
      3.14605981e-02 9.41421464e-02 0. -3.93485010e-01 0. 7.64841586e-02
      2.07848679e-02 3.31454039e-01 1.82478309e-01 -1.54107111e-02
      -4.61146832e-02 0. -5.25877774e-01 0. -9.57400128e-02
      -3.19946632e-02 1.82478309e-01 1.62467733e-02 -2.13311817e-02
      -7.39000514e-02 0. -4.76137549e-01 0. 1.38490200e-01
      4.62809168e-02 1.62467733e-02 3.32427770e-01 -5.99486083e-02
      -1.79500639e-01 0. -6.68074667e-01 0. -1.81125656e-01
      -6.05288930e-02 3.32427770e-01 3.79239023e-01 -5.17769866e-02
      -1.48881048e-01 0. -6.49806440e-01 0. -6.55061007e-02
      -2.18910165e-02 3.79239023e-01 -1.68037638e-01 1.13056758e-02
      3.38307880e-02 0. -1.21300653e-01 0. 1.26782224e-01 4.23683859e-02
      -1.68037638e-01 -2.12281331e-01 9.39035509e-03 2.78412178e-02 0.
      -4.75114211e-02 0. -5.32891788e-02 6.76418319e-02 -2.12281331e-01
      3.75276059e-01 1.24811508e-01 2.11592570e-01 0. -3.00014853e-01 0.
      2.24416777e-02 7.49966549e-03 3.75276059e-01 2.50380725e-01
      2.36474276e-01 2.87534863e-01 0. -1.04467861e-01 0.
      -2.72307843e-01 -9.10004452e-02 2.50380725e-01</_>
    <_>
      -7.77273476e-02 7.62017071e-02 2.17867821e-01 0. -1.01926021e-01
      0. 6.01156689e-02 2.00896375e-02 -7.77273476e-02 -9.78633612e-02
      2.64690500e-02 7.49982521e-02 0. -3.93983394e-01 0.
      -1.00312836e-01 -3.95549089e-02 -9.78633612e-02 1.61783159e-01
      -8.57896060e-02 -2.63637990e-01 0. -1.10330902e-01 0.
      5.59218049e-01 2.43937731e-01 1.61783159e-01 3.21914732e-01
      4.91307266e-02 1.44820035e-01 0. -4.46680456e-01 0. 2.38615662e-01
      7.97414929e-02 3.21914732e-01 9.32889804e-02 2.20682323e-02
      6.60362914e-02 0. -4.24864203e-01 0. -1.18385576e-01
      -3.95624265e-02 9.32889804e-02 2.30066990e-03 -6.33744942e-03
      -2.89950501e-02 0. -5.14748812e-01 0. -3.38472612e-02
      -1.13112293e-02 2.30066990e-03 4.53250736e-01 7.19346572e-03
      2.07504742e-02 0. -6.27428770e-01 0. -8.22061375e-02
      -2.74717025e-02 4.53250736e-01 4.19447809e-01 -4.68708798e-02
      -1.28690034e-01 0. -6.41462922e-01 0. -2.82148004e-01
      -1.43327683e-01 4.19447809e-01 -1.04005828e-01 1.41719880e-03
      4.24079131e-03 0. -1.95974439e-01 0. 9.24787521e-02 3.09047308e-02
      -1.04005828e-01 -2.81083554e-01 -1.12863490e-03 -9.16785561e-03 0.
      3.14784765e-01 0. 1.50230050e-01 1.32094860e-01 -2.81083554e-01
      2.21803829e-01 6.28051460e-02 2.03019734e-02 0. -3.10935616e-01 0.
      -1.32312834e-01 -4.42165770e-02 2.21803829e-01 1.63033158e-02
      2.38714904e-01 2.93477297e-01 0. 3.32271248e-01 0. 6.53461143e-02
      2.18375865e-02 1.63033158e-02</_>
    <_>
      -1.95764005e-01 -3.97477858e-02 -2.32725263e-01 0. 3.62232655e-01
      0. -7.65203014e-02 -2.27582082e-02 -1.95764005e-01 -2.08969600e-02
      -5.19265123e-02 -1.62468120e-01 0. -6.86612964e-01 0.
      1.60632189e-02 5.36793331e-03 -2.08969600e-02 2.09152877e-01
      -9.45909247e-02 -3.03370208e-01 0. -8.26333091e-02 0.
      2.76360139e-02 5.01649491e-02 2.09152877e-01 6.29019558e-01
      1.08887935e-02 -4.04026508e-02 0. -9.91726160e-01 0.
      -2.12357581e-01 -7.54072592e-02 6.29019558e-01 1.25039622e-01
      -3.88609618e-02 -1.16287440e-01 0. -8.67744923e-01 0.
      -1.85225606e-01 -6.18995242e-02 1.25039622e-01 1.25039622e-01
      1.28477916e-01 3.74384016e-01 0. -3.94085020e-01 0.
      -1.63016051e-01 -5.44774979e-02 1.25039622e-01 4.94011164e-01
      2.11026898e-04 6.31224597e-04 0. -1.51265275e+00 0.
      -5.95237195e-01 -1.98918074e-01 4.94011164e-01 1.25039622e-01
      8.38573352e-02 2.47482553e-01 0. -9.12137091e-01 0.
      -5.76678157e-01 -1.92815244e-01 1.25039622e-01 -4.17068861e-02
      8.78800079e-02 2.62969136e-01 0. 1.94695909e-02 0. -4.11120117e-01
      -1.48843437e-01 -4.17068861e-02 2.02224646e-02 2.16494165e-02
      4.67091203e-02 0. 1.55545369e-01 0. -2.06570446e-01
      -7.32255727e-02 2.02224646e-02 -1.66397002e-02 -7.81786162e-04
      2.89558563e-02 0. 1.78412095e-01 0. -1.44943923e-01
      -4.84376773e-02 -1.66397002e-02 3.46529447e-02 -6.71484619e-02
      -2.00182870e-01 0. 1.00997806e-01 0. -1.56398073e-01
      -1.41997980e-02 3.46529447e-02</_>
    <_>
      -3.29948902e-01 2.21716717e-01 4.66310740e-01 0. 6.14166260e-01 0.
      1.90798491e-02 9.18999221e-03 -3.29948902e-01 -1.17454655e-01
      7.37165958e-02 1.45560309e-01 0. -1.46843955e-01 0.
      -1.96747392e-01 -6.57494813e-02 -1.17454655e-01 -1.34196132e-01
      5.45790382e-02 3.98400016e-02 0. 4.26424205e-01 0. 5.48812628e-01
      3.34427893e-01 -1.34196132e-01 -9.43729505e-02 -3.85812484e-02
      -1.54648021e-01 0. -2.38230675e-01 0. 1.65695161e-01
      5.53726181e-02 -9.43729505e-02 1.30123347e-01 1.63194761e-02
      4.88338880e-02 0. -7.64587045e-01 0. -2.33786032e-01
      -7.81272128e-02 1.30123347e-01 1.68175653e-01 -1.91109944e-02
      -5.71869090e-02 0. -8.38951886e-01 0. -5.92055439e-04
      -1.97889109e-04 1.68175653e-01 2.05199838e-01 -2.32402049e-02
      -8.33725557e-02 0. -7.80407310e-01 0. -7.05078766e-02
      -2.35624593e-02 2.05199838e-01 1.20761938e-01 4.41282727e-02
      5.43664135e-02 0. -7.66880631e-01 0. -1.67091846e-01
      -5.58392592e-02 1.20761938e-01 -7.03981370e-02 1.84085779e-02
      5.50857261e-02 0. -1.97055519e-01 0. 1.79138988e-01 5.98650798e-02
      -7.03981370e-02 -3.26857448e-01 5.00133447e-02 4.63823937e-02 0.
      4.58806783e-01 0. 1.80631489e-01 2.24978790e-01 -3.26857448e-01
      -1.12278730e-01 1.22386560e-01 2.52748102e-01 0. -2.55755305e-01
      0. -6.95030764e-02 -2.32267827e-02 -1.12278730e-01 -1.92949921e-01
      3.16604763e-01 5.16144335e-01 0. 4.88628805e-01 0. -1.02807201e-01
      3.70908715e-03 -1.92949921e-01</_>
    <_>
      9.75217447e-02 4.56246704e-01 1.02809179e+00 0. 1.18569934e+00 0.
      2.00890765e-01 6.99479058e-02 9.75217447e-02 1.46710798e-01
      8.03559050e-02 1.65427119e-01 0. 1.51333436e-01 0. 6.65910691e-02
      2.22535413e-02 1.46710798e-01 -6.53620183e-01 8.95518959e-02
      1.44491509e-01 0. 1.07853496e+00 0. 4.07729298e-01 2.97772408e-01
      -6.53620183e-01 -5.54011345e-01 2.89418604e-02 4.74068671e-02 0.
      1.94452897e-01 0. -4.70345281e-02 -1.57180522e-02 -5.54011345e-01
      5.21881402e-01 -4.99552749e-02 -5.06900325e-02 0. -4.03791629e-02
      0. 8.72273222e-02 2.91498043e-02 5.21881402e-01 3.52900863e-01
      -7.58299008e-02 -1.92814097e-02 0. -2.98366427e-01 0.
      7.19998553e-02 2.40610670e-02 3.52900863e-01 -3.57378155e-01
      6.53248560e-03 5.71900420e-03 0. -6.51713321e-03 0.
      -5.65060340e-02 -1.88833792e-02 -3.57378155e-01 -3.57378155e-01
      9.11324397e-02 1.95020601e-01 0. 3.53141911e-02 0. 4.53533530e-02
      1.51563101e-02 -3.57378155e-01 4.16972965e-01 -4.47479002e-02
      -1.33902907e-01 0. -5.00989020e-01 0. -5.58733821e-01
      -1.93775043e-01 4.16972965e-01 2.60904521e-01 2.69857235e-02
      -2.25256197e-02 0. -1.98965326e-01 0. -4.78952944e-01
      -2.21805289e-01 2.60904521e-01 -3.54862660e-02 1.40734643e-01
      2.59566128e-01 0. 4.54355255e-02 0. -2.05162056e-02
      -6.85610017e-03 -3.54862660e-02 -1.86753809e-01 6.86118677e-02
      -1.29888698e-01 0. -8.44303370e-02 0. 2.67839488e-02
      4.70164083e-02 -1.86753809e-01</_>
    <_>
      -1.76827699e-01 3.25992346e-01 3.20449024e-01 0. 4.57332164e-01 0.
      7.92123824e-02 2.92852260e-02 -1.76827699e-01 -3.56522501e-02
      -6.95154592e-02 -2.05692530e-01 0. -1.89916447e-01 0.
      4.57965545e-02 1.53044602e-02 -3.56522501e-02 -1.79198444e-01
      -2.74599373e-01 -5.12925863e-01 0. 3.81284356e-01 0.
      7.88586080e-01 4.33798164e-01 -1.79198444e-01 -3.56522501e-02
      -3.37033272e-01 -3.46105397e-01 0. 1.46361366e-02 0.
      3.14087778e-01 1.04962930e-01 -3.56522501e-02 1.16452552e-01
      -8.57227966e-02 -2.56516278e-01 0. -5.29608130e-01 0.
      -3.35940197e-02 -1.12265125e-02 1.16452552e-01 8.21276754e-02
      -4.32158671e-02 -1.29317492e-01 0. -5.48998296e-01 0.
      -2.82957256e-02 -9.45599284e-03 8.21276754e-02 8.21276754e-02
      -1.25474393e-01 -1.66670799e-01 0. -2.09057197e-01 0.
      -2.64778435e-01 -8.84841755e-02 8.21276754e-02 8.21276754e-02
      1.38834134e-01 3.11826706e-01 0. -4.14838433e-01 0.
      -5.26703477e-01 -1.81399778e-01 8.21276754e-02 -9.83918905e-02
      -6.56123385e-02 -1.96335435e-01 0. -1.22521698e-01 0.
      3.60794626e-02 1.20569887e-02 -9.83918905e-02 -4.43134457e-01
      1.08523250e-01 8.80860612e-02 0. 6.96260154e-01 0. 4.91500556e-01
      3.32064778e-01 -4.43134457e-01 -9.93163660e-02 2.20180705e-01
      4.96601284e-01 0. -1.74057230e-01 0. -5.22351623e-01
      -1.74560934e-01 -9.93163660e-02 -1.80931777e-01 6.46654367e-01
      8.49931538e-01 0. 3.38989288e-01 0. -5.33384562e-01
      -1.78448826e-01 -1.80931777e-01</_>
    <_>
      -5.83317935e-01 2.09496751e-01 4.79422182e-01 0. 7.78325260e-01 0.
      1.26613483e-01 4.42267582e-02 -5.83317935e-01 -3.80156249e-01
      5.04654422e-02 8.99286047e-02 0. 2.30957687e-01 0. 6.99563101e-02
      2.33781897e-02 -3.80156249e-01 5.08741215e-02 9.63521227e-02
      1.87791213e-01 0. 6.32004142e-01 0. 9.17562246e-01 4.18800443e-01
      5.08741215e-02 1.32931322e-01 6.95996508e-02 1.76355869e-01 0.
      1.56261757e-01 0. 3.89210016e-01 1.30067438e-01 1.32931322e-01
      -2.47287154e-01 4.92383987e-02 1.47339642e-01 0. 1.41299646e-02 0.
      -4.58994769e-02 -1.53388027e-02 -2.47287154e-01 -2.47287154e-01
      4.57821563e-02 1.36997521e-01 0. 2.90671624e-02 0. -1.77231148e-01
      -5.92275336e-02 -2.47287154e-01 4.04648006e-01 7.03533441e-02
      1.99265078e-01 0. -1.44123584e-02 0. 1.34387508e-01 4.49100360e-02
      4.04648006e-01 1.55751944e-01 1.25344703e-02 1.04778372e-01 0.
      2.88034603e-02 0. 6.25924096e-02 2.09174138e-02 1.55751944e-01
      -1.86513454e-01 2.69743558e-02 8.07177648e-02 0. 6.94407821e-02 0.
      -1.41713902e-01 -4.73582931e-02 -1.86513454e-01 -3.85584503e-01
      7.75645301e-02 1.48020744e-01 0. -3.46892893e-01 0. 1.52368680e-01
      1.65112779e-01 -3.85584503e-01 3.57869148e-01 1.48222789e-01
      3.51150870e-01 0. -4.20712292e-01 0. -1.07491314e-01
      -3.59216742e-02 3.57869148e-01 5.80108464e-01 4.01556671e-01
      7.94836998e-01 0. -3.69511664e-01 0. -3.32081079e-01
      -8.50728825e-02 5.80108464e-01</_>
    <_>
      -4.17757258e-02 2.43546993e-01 4.21453506e-01 0. 4.20791298e-01 0.
      -4.20275509e-01 -2.06956282e-01 -4.17757258e-02 1.57206982e-01
      5.84235601e-02 9.97976288e-02 0. -8.37319672e-01 0.
      -3.52423042e-01 -1.17773943e-01 1.57206982e-01 -8.11399221e-02
      -1.68192402e-01 -4.93368387e-01 0. 2.26745501e-01 0.
      5.28990388e-01 3.83559883e-01 -8.11399221e-02 3.31606679e-02
      -8.37649181e-02 -2.75755733e-01 0. -7.90335596e-01 0.
      2.79992204e-02 9.35690198e-03 3.31606679e-02 2.12093502e-01
      -7.06645772e-02 -2.11454362e-01 0. -7.84377277e-01 0.
      -3.40891093e-01 -1.13920256e-01 2.12093502e-01 9.60296839e-02
      -9.39774141e-02 -2.81215131e-01 0. -2.82214791e-01 0.
      -1.81609377e-01 -6.32586032e-02 9.60296839e-02 9.60296839e-02
      -3.75233889e-02 -1.26111433e-01 0. -8.47960889e-01 0.
      -3.12481999e-01 -1.04426302e-01 9.60296839e-02 9.60296839e-02
      2.46596131e-02 5.74204624e-02 0. -4.14486915e-01 0.
      -3.16939205e-02 -3.63196582e-02 9.60296839e-02 -1.68080196e-01
      -1.79626662e-02 -5.37506975e-02 0. 2.65468538e-01 0.
      9.40623879e-02 3.14339995e-02 -1.68080196e-01 -3.99502307e-01
      9.02053043e-02 1.66652933e-01 0. 8.49566996e-01 0. 2.73382545e-01
      2.59173721e-01 -3.99502307e-01 -1.68080196e-01 1.12574868e-01
      2.47570932e-01 0. 1.75975800e-01 0. 7.03024268e-02 2.34938990e-02
      -1.68080196e-01 -3.09694499e-01 4.97124642e-01 8.53578091e-01 0.
      5.22591114e-01 0. -2.52143741e-01 -4.61967401e-02 -3.09694499e-01</_>
    <_>
      -2.89126873e-01 2.91857511e-01 7.31768429e-01 0. 8.45053494e-01 0.
      -4.01431441e-01 -1.45509973e-01 -2.89126873e-01 -5.12959398e-02
      9.24957693e-02 2.23743707e-01 0. 2.33990233e-02 0. -4.70252156e-01
      -1.57150090e-01 -5.12959398e-02 -2.10952342e-01 -2.92534642e-02
      -1.74828187e-01 0. 3.63528043e-01 0. 1.98800892e-01 2.30505511e-01
      -2.10952342e-01 -9.80258454e-03 2.21385323e-02 3.85373197e-02 0.
      -2.92988181e-01 0. -9.72760022e-02 -3.48674208e-02 -9.80258454e-03
      6.16805181e-02 -2.93231406e-03 -8.77513457e-03 0. -2.86621690e-01
      0. -3.73139441e-01 -1.24696881e-01 6.16805181e-02 6.16805181e-02
      1.40134785e-02 3.35804336e-02 0. -2.58095473e-01 0.
      -2.50130206e-01 -9.09493715e-02 6.16805181e-02 1.62195399e-01
      -4.40268070e-02 -1.41520441e-01 0. -5.97867668e-01 0.
      -1.51224375e-01 -5.05363457e-02 1.62195399e-01 6.16805181e-02
      1.22595824e-01 3.11938554e-01 0. -5.07790029e-01 0.
      -1.56080768e-01 -5.75043149e-02 6.16805181e-02 -1.08983047e-01
      1.49836503e-02 4.48367298e-02 0. 4.86009717e-02 0. -2.80639946e-01
      -9.37854573e-02 -1.08983047e-01 -3.77958834e-01 3.20845172e-02
      2.30018124e-02 0. 5.60490310e-01 0. -1.76513895e-01 1.63333490e-01
      -3.77958834e-01 2.14834288e-01 2.28927195e-01 4.70522821e-01 0.
      1.40298948e-01 0. -4.04716015e-01 -1.35617763e-01 2.14834288e-01
      -2.38618121e-01 4.59746093e-01 7.12282121e-01 0. 5.29621303e-01 0.
      -6.61601424e-01 -2.25243524e-01 -2.38618121e-01</_>
    <_>
      -3.29798553e-03 1.50408164e-01 3.65977287e-01 0. 2.98274904e-02 0.
      -1.80189207e-01 -6.01840429e-02 -3.29798553e-03 3.33359390e-02
      6.16073497e-02 1.57466978e-01 0. -2.15350851e-01 0.
      -3.66725534e-01 -1.22553311e-01 3.33359390e-02 -1.40847415e-01
      4.98368107e-02 1.04882747e-01 0. 7.69937411e-02 0. -3.15452181e-02
      -5.91268092e-02 -1.40847415e-01 3.33359390e-02 4.94906632e-03
      7.63344520e-04 0. -2.25272954e-01 0. -8.24182257e-02
      -2.75426395e-02 3.33359390e-02 1.06702149e-01 3.77172083e-02
      1.12863719e-01 0. -5.47299206e-01 0. -2.18769968e-01
      -7.31091127e-02 1.06702149e-01 1.51878849e-01 -1.76835041e-02
      -6.21150546e-02 0. -5.30036747e-01 0. 7.65309334e-02
      2.55752187e-02 1.51878849e-01 1.24440186e-01 -1.33440301e-01
      -3.06867808e-01 0. -6.68719530e-01 0. 4.85723913e-02
      1.62321795e-02 1.24440186e-01 4.75582123e-01 -2.09897965e-01
      -2.76141018e-01 0. -6.44912362e-01 0. -3.40522826e-02
      -1.13796918e-02 4.75582123e-01 -2.03384742e-01 -4.96949293e-02
      -1.48705274e-01 0. -2.47423768e-01 0. 8.99427906e-02
      3.00572179e-02 -2.03384742e-01 -3.12287748e-01 6.09331578e-02
      1.45327583e-01 0. 6.74890518e-01 0. 1.91888124e-01 1.52185947e-01
      -3.12287748e-01 2.02843115e-01 6.98314933e-03 -1.44099981e-01 0.
      -4.80409890e-01 0. 1.21606821e-02 4.06391360e-03 2.02843115e-01
      -6.94733188e-02 3.69802356e-01 5.49950361e-01 0. 5.75747788e-01 0.
      1.19219311e-01 4.02759053e-02 -6.94733188e-02</_>
    <_>
      -2.82248288e-01 9.41957012e-02 3.45067158e-02 0. 5.52061975e-01 0.
      -5.58972895e-01 -1.83985770e-01 -2.82248288e-01 -4.68166992e-02
      9.23741087e-02 2.01390281e-01 0. 4.57410097e-01 0. -3.08746397e-01
      -1.03177823e-01 -4.68166992e-02 -3.61472607e-01 5.98544143e-02
      5.56266755e-02 0. 8.20825994e-01 0. -2.97033042e-01
      -3.45085412e-01 -3.61472607e-01 -4.68166992e-02 7.96180815e-02
      1.35193408e-01 0. 5.89116454e-01 0. -4.68910754e-01
      -1.56701937e-01 -4.68166992e-02 -9.68831778e-03 8.55605081e-02
      2.56028622e-01 0. 1.60016287e-02 0. -9.51143280e-02
      -3.17856558e-02 -9.68831778e-03 -6.31359220e-03 3.93394083e-02
      1.07647277e-01 0. -8.21780205e-01 0. -3.34400415e-01
      -1.11750878e-01 -6.31359220e-03 -9.68831778e-03 7.48266950e-02
      2.10081026e-01 0. -6.14374760e-04 0. -1.11928262e-01
      -3.74044962e-02 -9.68831778e-03 -9.68831778e-03 -2.51948368e-02
      -1.53075442e-01 0. -1.14267516e+00 0. -3.43445927e-01
      -1.14773512e-01 -9.68831778e-03 1.60845950e-01 -9.52735916e-02
      -2.85096556e-01 0. -9.92681146e-01 0. -1.04946554e+00
      -3.71700525e-01 1.60845950e-01 -1.26360729e-01 2.11026147e-01
      5.28193295e-01 0. 6.83467984e-01 0. -3.43683749e-01
      -3.10577899e-01 -1.26360729e-01 2.20240336e-02 -1.05010020e-02
      -2.17259228e-01 0. -1.40384126e+00 0. -5.75487852e-01
      -2.08185509e-01 2.20240336e-02 5.25512956e-02 1.02720559e+00
      8.12051535e-01 0. 4.52325642e-01 0. -6.30381942e-01
      -1.99003696e-01 5.25512956e-02</_>
    <_>
      -1.04916908e-01 1.26085103e-01 1.95189133e-01 0. 1.37383401e-01 0.
      -1.55292645e-01 -4.90825884e-02 -1.04916908e-01 4.02813256e-02
      -2.90869409e-03 -7.80321956e-02 0. -2.51979768e-01 0.
      -3.69099826e-01 -1.27453193e-01 4.02813256e-02 -9.14192423e-02
      1.01951092e-01 1.90976098e-01 0. 1.12413742e-01 0. -1.27025291e-01
      -1.82834789e-02 -9.14192423e-02 4.02813256e-02 -1.41403556e-01
      -3.93968046e-01 0. -1.97700813e-01 0. 1.10581860e-01
      3.69546935e-02 4.02813256e-02 1.72556847e-01 -3.79571244e-02
      -1.13582991e-01 0. -5.57952404e-01 0. -3.40490848e-01
      -1.13786086e-01 1.72556847e-01 1.58834741e-01 1.03910146e-02
      2.10246425e-02 0. -5.78380227e-01 0. -1.65311411e-01
      -5.59060052e-02 1.58834741e-01 1.75902039e-01 -3.89256418e-01
      -4.26794499e-01 0. -5.52135825e-01 0. 1.99936762e-01
      6.68156147e-02 1.75902039e-01 1.58834741e-01 -1.06322221e-01
      -2.25982949e-01 0. -3.37131292e-01 0. -2.86969095e-01
      -1.24587625e-01 1.58834741e-01 -1.12526923e-01 3.15170810e-02
      9.43112150e-02 0. -1.05538607e-01 0. -1.38480544e-01
      -4.62781675e-02 -1.12526923e-01 -2.70604730e-01 8.93087089e-02
      1.71815246e-01 0. 6.55227840e-01 0. -5.35554960e-02 2.36059681e-01
      -2.70604730e-01 -6.18203394e-02 2.41496816e-01 4.55901116e-01 0.
      1.00251555e-01 0. -6.49457633e-01 -2.81732172e-01 -6.18203394e-02
      -1.69480905e-01 5.58543146e-01 8.41621757e-01 0. 5.75333953e-01 0.
      -5.35259008e-01 -2.85209805e-01 -1.69480905e-01</_>
    <_>
      6.17979094e-02 -6.31585494e-02 -1.20661698e-01 0. 1.33288756e-01
      0. 9.10832733e-02 3.32521647e-02 6.17979094e-02 1.00914948e-01
      -1.16568670e-01 -2.08834141e-01 0. -1.89302638e-01 0.
      -3.88277858e-01 -2.36089662e-01 1.00914948e-01 -3.88330258e-02
      -7.19637573e-02 -2.44252577e-01 0. -1.28174677e-01 0.
      5.71625456e-02 1.41703159e-01 -3.88330258e-02 2.43482620e-01
      -9.33072492e-02 -9.69517604e-02 0. -4.61170882e-01 0.
      3.72301564e-02 -9.25087333e-02 2.43482620e-01 3.85117799e-01
      8.08556937e-03 2.41949726e-02 0. -3.67856055e-01 0.
      -4.50725704e-01 -3.35991025e-01 3.85117799e-01 4.35350537e-01
      7.18988627e-02 2.05078691e-01 0. -3.88121814e-01 0.
      -2.36239538e-01 -1.74467295e-01 4.35350537e-01 5.12549222e-01
      -6.44211611e-03 -2.03346703e-02 0. -5.06813645e-01 0.
      -2.74918288e-01 -3.11721265e-01 5.12549222e-01 1.62292883e-01
      9.83456895e-02 2.85039693e-01 0. -3.85172099e-01 0.
      -3.08871686e-01 -4.06591713e-01 1.62292883e-01 1.59630522e-01
      -3.59450579e-02 -1.02112308e-01 0. -3.56956244e-01 0.
      -9.61419716e-02 -7.78153166e-02 1.59630522e-01 2.44654045e-02
      -8.71815458e-02 -1.88807979e-01 0. -7.48034120e-02 0.
      -2.22257338e-02 1.42472148e-01 2.44654045e-02 4.25495720e-03
      7.18186051e-02 7.82695934e-02 0. -7.09601212e-03 0.
      -2.33263746e-01 -1.51810139e-01 4.25495720e-03 -5.31917550e-02
      3.91948186e-02 1.35073131e-02 0. 1.90327510e-01 0. 1.75495997e-01
      9.67133418e-02 -5.31917550e-02</_>
    <_>
      -3.80188346e-01 4.32471454e-01 1.02149868e+00 0. 1.47082627e-01 0.
      -3.29481393e-01 -1.07293561e-01 -3.80188346e-01 -1.30572647e-01
      1.39765769e-01 3.43204200e-01 0. 9.83865783e-02 0. -1.65922269e-01
      -5.54484501e-02 -1.30572647e-01 -1.30959839e-01 -2.77732313e-01
      -8.85697842e-01 0. -5.65118790e-02 0. 1.19617426e+00
      6.09770358e-01 -1.30959839e-01 -1.30572647e-01 1.40639050e-02
      2.88721267e-03 0. 1.76043838e-01 0. 2.79146701e-01 9.32862535e-02
      -1.30572647e-01 -3.81926820e-02 2.96014734e-02 8.85785818e-02 0.
      -6.25180895e-04 0. -1.05095736e-03 -3.51275085e-04 -3.81926820e-02
      -3.81926820e-02 2.56492384e-02 7.67520443e-02 0. -2.05573253e-02
      0. -2.01205745e-01 -6.72396868e-02 -3.81926820e-02 -3.81926820e-02
      8.75076056e-02 2.48027503e-01 0. -1.09759964e-01 0. 9.67840254e-02
      3.23436409e-02 -3.81926820e-02 -3.81926820e-02 9.53709483e-02
      2.07704544e-01 0. -1.64670393e-01 0. 6.42796513e-03 2.14825501e-03
      -3.81926820e-02 -2.32411116e-01 3.96190211e-02 1.18555069e-01 0.
      2.97655523e-01 0. -4.38841879e-02 -1.46655152e-02 -2.32411116e-01
      -4.49762046e-01 9.26994085e-02 1.74116090e-01 0. 9.26881731e-01 0.
      2.90971458e-01 2.65051335e-01 -4.49762046e-01 -2.32411116e-01
      1.92786530e-01 4.63411868e-01 0. 2.75247663e-01 0. -1.24363072e-01
      -4.15599085e-02 -2.32411116e-01 -3.47457141e-01 5.92863739e-01
      9.49098349e-01 0. 9.07815218e-01 0. -6.70982152e-02 1.56424250e-02
      -3.47457141e-01</_>
    <_>
      -5.69241941e-01 6.24891102e-01 1.43006837e+00 0. 1.71912086e+00 0.
      -3.98380488e-01 -1.30317971e-01 -5.69241941e-01 -3.27020913e-01
      1.27036050e-01 2.97564059e-01 0. 3.58173370e-01 0. -3.14017177e-01
      -1.04939036e-01 -3.27020913e-01 -5.07824957e-01 -2.28639375e-02
      -1.91899613e-01 0. 1.55891597e+00 0. 8.62641215e-01 4.70311463e-01
      -5.07824957e-01 -3.27020913e-01 4.25341837e-02 8.80802199e-02 0.
      4.06680524e-01 0. 1.30480170e-01 4.36044000e-02 -3.27020913e-01
      -4.80494797e-02 3.94986793e-02 1.18194878e-01 0. 7.46470923e-03 0.
      -1.88651383e-01 -6.30440116e-02 -4.80494797e-02 3.30583192e-02
      7.80839771e-02 2.26747543e-01 0. -1.38223290e-01 0.
      -1.34049043e-01 -8.39821696e-02 3.30583192e-02 -4.80494797e-02
      3.75929624e-02 9.79713425e-02 0. 3.74551453e-02 0. -1.28627747e-01
      -4.29851115e-02 -4.80494797e-02 -4.80494797e-02 1.01202644e-01
      2.58182079e-01 0. -8.38483945e-02 0. -1.27126068e-01
      -4.24832553e-02 -4.80494797e-02 1.57375038e-01 8.57582614e-02
      2.56620854e-01 0. -7.98030570e-02 0. -5.89331090e-01
      -2.70603657e-01 1.57375038e-01 -6.47133142e-02 1.50463060e-01
      3.45376462e-01 0. 2.72700697e-01 0. -3.82920444e-01
      -1.62491292e-01 -6.47133142e-02 1.34298429e-01 1.06595971e-01
      2.32782677e-01 0. 3.64535511e-03 0. -1.01165146e-01
      -3.38075571e-02 1.34298429e-01 6.79280236e-02 2.74924576e-01
      1.49489827e-02 0. 1.07807070e-01 0. -3.02738011e-01
      -6.31041080e-02 6.79280236e-02</_>
    <_>
      -2.74330795e-01 4.39134866e-01 9.09407735e-01 0. 8.05351853e-01 0.
      -3.26542288e-01 -1.07419290e-01 -2.74330795e-01 -1.33776262e-01
      1.89725220e-01 4.62304473e-01 0. 5.97536936e-02 0. -6.60037994e-01
      -2.25035623e-01 -1.33776262e-01 -2.23190263e-01 -1.22964352e-01
      -4.74804521e-01 0. 8.25653434e-01 0. 7.02318549e-01 4.50200915e-01
      -2.23190263e-01 -1.33776262e-01 -1.91646412e-01 -5.63975811e-01 0.
      1.62469417e-01 0. 2.46357396e-01 8.23286772e-02 -1.33776262e-01
      2.68536787e-02 8.24875832e-02 2.46832550e-01 0. -1.28968239e-01 0.
      -5.43476641e-01 -1.85952961e-01 2.68536787e-02 2.68536787e-02
      2.46283785e-02 7.16571733e-02 0. -3.79974425e-01 0.
      -3.49267095e-01 -1.21196553e-01 2.68536787e-02 2.68536787e-02
      -1.12684004e-01 -3.48260313e-01 0. -1.08974591e-01 0.
      4.83309068e-02 1.61514990e-02 2.68536787e-02 2.68536787e-02
      -5.70409074e-02 -2.38190755e-01 0. -2.19688773e-01 0.
      1.95088491e-01 6.51953667e-02 2.68536787e-02 -7.78056458e-02
      3.79242711e-02 1.13484174e-01 0. -1.67815909e-01 0.
      -3.54792625e-01 -1.30489066e-01 -7.78056458e-02 -3.28009844e-01
      1.50244191e-01 3.39913636e-01 0. 8.26730907e-01 0. -9.37174410e-02
      1.12790413e-01 -3.28009844e-01 -6.75349012e-02 -4.34216894e-02
      -1.79264575e-01 0. -6.48160428e-02 0. 9.31510851e-02
      3.11294999e-02 -6.75349012e-02 -1.66521922e-01 4.32739764e-01
      1.64230749e-01 0. 5.79829931e-01 0. 2.19752416e-02 3.89948599e-02
      -1.66521922e-01</_>
    <_>
      -6.51308239e-01 4.28406626e-01 8.32993031e-01 0. 3.04512024e-01 0.
      -9.17340875e-01 -3.70164931e-01 -6.51308239e-01 2.02215746e-01
      2.63031930e-01 6.97796941e-01 0. -3.90881807e-01 0.
      -5.65572269e-02 -1.89004764e-02 2.02215746e-01 -4.07787025e-01
      -2.27532431e-01 -8.04346323e-01 0. 2.56793767e-01 0.
      7.99181044e-01 4.59129095e-01 -4.07787025e-01 8.03141892e-02
      8.63777325e-02 2.19276503e-01 0. -3.67700934e-01 0. 6.42649591e-01
      2.14762852e-01 8.03141892e-02 2.63518840e-01 1.41779304e-01
      4.24256563e-01 0. -4.39913720e-01 0. -3.73852998e-01
      -1.24935575e-01 2.63518840e-01 -1.31536141e-01 4.16886210e-02
      1.20834708e-01 0. -3.69617343e-01 0. -6.23895526e-01
      -2.08495677e-01 -1.31536141e-01 7.41806477e-02 3.39596309e-02
      8.64844397e-02 0. -4.76232946e-01 0. 2.87988931e-01 9.62410420e-02
      7.41806477e-02 -1.12725899e-01 -2.04715710e-02 -1.38938397e-01 0.
      -3.08715999e-01 0. 1.11235470e-01 3.71730030e-02 -1.12725899e-01
      -4.69072051e-02 -1.28945205e-02 -3.85842100e-02 0. -6.41599006e-04
      0. -7.95052499e-02 -2.65696999e-02 -4.69072051e-02 -5.77431142e-01
      -1.11390896e-01 -4.39598769e-01 0. 9.79491353e-01 0.
      1.59331888e-01 2.82732636e-01 -5.77431142e-01 -1.49270400e-01
      1.83948800e-01 3.74045163e-01 0. -6.53570611e-03 0.
      -1.86200470e-01 -6.22251779e-02 -1.49270400e-01 -4.60383952e-01
      7.71007359e-01 8.01783144e-01 0. 7.14974999e-01 0. -1.06770933e+00
      -3.60045254e-01 -4.60383952e-01</_>
    <_>
      -1.39933720e-01 2.53040016e-01 4.34448481e-01 0. 2.76016772e-01 0.
      -5.68625450e-01 -3.58844489e-01 -1.39933720e-01 3.11603714e-02
      1.61304533e-01 4.07655954e-01 0. -1.20348968e-01 0.
      -7.45316327e-01 -3.12862217e-01 3.11603714e-02 -6.20684549e-02
      -2.30868533e-01 -4.31711286e-01 0. 2.46740520e-01 0.
      3.76316339e-01 3.19784164e-01 -6.20684549e-02 2.95486320e-02
      -1.46044657e-01 -4.14337575e-01 0. -5.01879416e-02 0.
      2.91045606e-01 9.72625911e-02 2.95486320e-02 1.94950029e-02
      9.58894268e-02 2.86937088e-01 0. 1.29052084e-02 0. -5.67435503e-01
      -1.89627543e-01 1.94950029e-02 1.94950029e-02 -3.45307216e-02
      -1.03587739e-01 0. 1.23789366e-02 0. 1.10133504e-02 3.68042081e-03
      1.94950029e-02 1.94950029e-02 -4.78410833e-02 -1.54149428e-01 0.
      8.59606173e-03 0. 4.00474072e-02 1.33832144e-02 1.94950029e-02
      1.94950029e-02 1.22897983e-01 2.90075392e-01 0. 6.36262819e-02 0.
      -6.73643231e-01 -2.51590580e-01 1.94950029e-02 5.71597256e-02
      -1.23650119e-01 -3.70008618e-01 0. -5.24539351e-02 0.
      1.71437204e-01 5.72913066e-02 5.71597256e-02 -1.39120981e-01
      -1.92961320e-01 -3.42814773e-01 0. 3.39659929e-01 0.
      2.37846896e-01 2.49504775e-01 -1.39120981e-01 3.63824442e-02
      1.70868203e-01 3.92904311e-01 0. -1.06734946e-01 0.
      -7.18774378e-01 -2.97745913e-01 3.63824442e-02 -5.87636940e-02
      3.47578853e-01 3.71112376e-01 0. 8.76878873e-02 0. -6.29389882e-01
      -3.76744837e-01 -5.87636940e-02</_>
    <_>
      -1.54895052e-01 2.25986585e-01 4.96195108e-01 0. 4.02722925e-01 0.
      -6.00612760e-01 -3.51865232e-01 -1.54895052e-01 5.76333851e-02
      7.68392980e-02 2.70935386e-01 0. -7.27315620e-02 0.
      -7.13440120e-01 -3.93103808e-01 5.76333851e-02 -7.49216601e-02
      -4.55122769e-01 -6.31461501e-01 0. 4.32832360e-01 0.
      6.46819055e-01 4.42261964e-01 -7.49216601e-02 6.80819899e-02
      -3.22147995e-01 -5.94084561e-01 0. 6.00738041e-02 0.
      3.05444449e-01 1.02074392e-01 6.80819899e-02 -5.81062473e-02
      -1.66913904e-02 -4.99465130e-02 0. 1.21329501e-02 0.
      -5.70984900e-01 -1.90813705e-01 -5.81062473e-02 -5.81062473e-02
      5.89495525e-02 1.76398873e-01 0. 2.28999928e-02 0. -1.14338651e-01
      -3.82101759e-02 -5.81062473e-02 8.80933404e-02 -1.20611027e-01
      -3.73302430e-01 0. 1.74926687e-02 0. 3.14506851e-02 1.05102630e-02
      8.80933404e-02 5.53212129e-02 1.29795462e-01 3.10715407e-01 0.
      6.99520111e-02 0. 3.74279544e-02 1.25078987e-02 5.53212129e-02
      -2.71360636e-01 8.08091685e-02 2.41811007e-01 0. 1.30602241e-01 0.
      5.54031283e-02 1.85146518e-02 -2.71360636e-01 -4.68355566e-01
      1.20132945e-01 2.56207496e-01 0. 7.62372077e-01 0. 2.31793970e-01
      2.45275229e-01 -4.68355566e-01 -1.08008943e-01 2.04934523e-01
      4.98592854e-01 0. 1.49853691e-01 0. -7.10399672e-02
      -2.37402543e-02 -1.08008943e-01 -2.23755822e-01 4.59505290e-01
      5.73712468e-01 0. 5.92660844e-01 0. 4.17328142e-02 5.20119108e-02
      -2.23755822e-01</_>
    <_>
      5.54349959e-01 5.69860876e-01 7.71676600e-01 0. -6.65496647e-01 0.
      -3.08659881e-01 -1.02618076e-01 5.54349959e-01 2.84297969e-02
      -6.06620833e-02 -2.02630118e-01 0. -2.50699669e-01 0.
      -5.19047538e-03 -1.73458410e-03 2.84297969e-02 -4.10393298e-01
      -8.88560116e-02 -3.11880469e-01 0. 1.96040452e-01 0.
      5.73740840e-01 2.69663393e-01 -4.10393298e-01 -6.75205141e-02
      -6.26793742e-01 -5.08809865e-01 0. 1.25032440e-01 0.
      3.23101103e-01 1.07974969e-01 -6.75205141e-02 1.74873352e-01
      -2.70050555e-01 -4.36433762e-01 0. 6.49708062e-02 0.
      6.36613593e-02 2.12745108e-02 1.74873352e-01 1.58263505e-01
      -5.00413120e-01 -5.43982327e-01 0. 4.14863005e-02 0.
      1.22770064e-01 4.10276018e-02 1.58263505e-01 1.58263505e-01
      -4.03903276e-01 -3.09654295e-01 0. 6.89686388e-02 0.
      1.33779556e-01 4.47068810e-02 1.58263505e-01 1.58263505e-01
      -1.86324328e-01 -2.02319503e-01 0. -1.63492635e-01 0.
      1.62332077e-02 5.42492187e-03 1.58263505e-01 -1.21710338e-01
      -4.50726151e-01 -4.97461528e-01 0. -6.26146048e-02 0.
      1.47830755e-01 4.94024307e-02 -1.21710338e-01 -5.87463558e-01
      8.02300721e-02 2.89733186e-02 0. -3.92013118e-02 0. 4.24883038e-01
      2.16395184e-01 -5.87463558e-01 1.80826828e-01 1.27961487e-01
      1.53205141e-01 0. -2.37309694e-01 0. -1.70964658e-01
      -7.32653961e-02 1.80826828e-01 5.54265141e-01 9.27829623e-01
      8.63036513e-01 0. -7.45846272e-01 0. -4.45791155e-01
      -1.41792983e-01 5.54265141e-01</_>
    <_>
      1.83327310e-02 -2.12678045e-01 -5.18435538e-01 0. -3.00488442e-01
      0. -2.37278223e-01 -6.53899685e-02 1.83327310e-02 2.95022219e-01
      -7.78267831e-02 -2.32886717e-01 0. -3.89863372e-01 0.
      -2.86815576e-02 1.75505839e-02 2.95022219e-01 8.08112472e-02
      6.38041273e-02 -2.24014744e-02 0. 1.12329409e-01 0.
      -3.96888047e-01 -3.05148125e-01 8.08112472e-02 1.22998133e-01
      -1.25676602e-01 -3.40056509e-01 0. 9.57934409e-02 0.
      -7.81307220e-02 -2.04977468e-02 1.22998133e-01 4.29939300e-01
      -1.02235295e-01 -3.13566744e-01 0. 1.07382517e-02 0.
      1.26671314e-01 5.22407927e-02 4.29939300e-01 2.20634848e-01
      -2.48409569e-01 -4.30097133e-01 0. 1.29030403e-02 0.
      1.19271316e-01 4.32302356e-02 2.20634848e-01 4.07562777e-02
      -3.94892603e-01 -4.63436157e-01 0. 9.50815082e-02 0.
      1.07790537e-01 4.25385013e-02 4.07562777e-02 3.35078798e-02
      -5.48166037e-01 -5.00987530e-01 0. 1.56928271e-01 0.
      1.02813736e-01 5.27440459e-02 3.35078798e-02 1.13334604e-01
      -2.67164856e-01 -4.43420589e-01 0. -3.77563499e-02 0.
      7.05399886e-02 2.35733036e-02 1.13334604e-01 6.79496676e-02
      -5.69975004e-02 -3.02891314e-01 0. -2.05519404e-02 0.
      -1.02894925e-01 -3.43856439e-02 6.79496676e-02 1.68303862e-01
      -3.16037089e-01 -4.79657203e-01 0. -3.22632156e-02 0.
      8.29325467e-02 5.11240996e-02 1.68303862e-01 2.40106359e-01
      -7.34354034e-02 -1.53224498e-01 0. -3.46744061e-01 0.
      -1.53695732e-01 -2.17887778e-02 2.40106359e-01</_>
    <_>
      1.78160995e-01 -1.49031237e-01 -4.40876454e-01 0. -4.74820256e-01
      0. -2.38693859e-02 4.05724570e-02 1.78160995e-01 1.24826998e-01
      -1.64127469e-01 -3.88323963e-01 0. -1.26678944e-01 0.
      4.58802693e-02 1.10079125e-01 1.24826998e-01 8.63886178e-02
      -2.83163011e-01 -4.02642697e-01 0. 8.53651017e-03 0.
      3.06599922e-02 1.02458764e-02 8.63886178e-02 1.18568458e-01
      -1.74272820e-01 -3.92135680e-01 0. 2.45920625e-02 0.
      -3.63238126e-01 -1.88001230e-01 1.18568458e-01 1.29646450e-01
      5.81262521e-02 1.66554883e-01 0. -3.67445469e-01 0.
      -3.38882506e-01 -7.86491185e-02 1.29646450e-01 4.03260976e-01
      1.07349358e-01 1.52780533e-01 0. -5.09144425e-01 0.
      -2.22098485e-01 -1.60583407e-01 4.03260976e-01 7.55703747e-02
      1.15933768e-01 2.10371777e-01 0. -3.22421819e-01 0.
      -4.76599485e-01 -4.97675866e-01 7.55703747e-02 1.47287577e-01
      1.00385055e-01 1.93777382e-01 0. -2.06256881e-01 0.
      -4.78682220e-01 -3.15821469e-01 1.47287577e-01 2.51667351e-01
      8.38027596e-02 4.66665775e-02 0. -2.08937258e-01 0.
      -3.55842859e-01 -1.55827790e-01 2.51667351e-01 -2.47221291e-02
      8.41168314e-02 2.55429763e-02 0. -1.94962621e-01 0.
      -6.02438569e-01 -4.17754889e-01 -2.47221291e-02 1.48708433e-01
      -2.14040615e-02 -8.22658390e-02 0. 6.67385431e-03 0.
      -1.48977488e-01 3.06473523e-02 1.48708433e-01 1.77802686e-02
      -2.76614994e-01 -3.60009283e-01 0. -1.50324985e-01 0.
      -4.83078770e-02 3.40896435e-02 1.77802686e-02</_>
    <_>
      -9.44210663e-02 -2.68678278e-01 -8.03987801e-01 0. 3.80658507e-01
      0. 2.77734011e-01 1.41363248e-01 -9.44210663e-02 1.67226158e-02
      -3.85745972e-01 -1.06680405e+00 0. -9.64150354e-02 0.
      2.45519981e-01 1.76795304e-01 1.67226158e-02 -6.37301803e-02
      1.67836510e-02 -4.28286530e-02 0. 4.27919537e-01 0. 8.43302533e-02
      2.81816926e-02 -6.37301803e-02 6.19110428e-02 1.02842219e-01
      2.61996947e-02 0. -6.62443042e-02 0. -1.29676878e-01
      -2.37395540e-02 6.19110428e-02 5.60666136e-02 -2.87064254e-01
      -8.27118754e-01 0. -8.38962421e-02 0. 2.91708857e-01
      1.32083863e-01 5.60666136e-02 4.00234275e-02 -3.67969126e-01
      -9.09448981e-01 0. -3.06333434e-02 0. 3.24868619e-01
      1.20338641e-01 4.00234275e-02 4.00234275e-02 8.41636583e-02
      1.15303554e-01 0. -1.54419705e-01 0. -2.39613965e-01
      -5.73207960e-02 4.00234275e-02 4.00234275e-02 -4.26189043e-02
      -2.34143227e-01 0. -5.69408089e-02 0. -7.86131322e-02
      3.79237831e-02 4.00234275e-02 5.18954657e-02 -1.81525707e-01
      -6.26690209e-01 0. -4.80063200e-01 0. 1.20725697e-02
      4.03482048e-03 5.18954657e-02 5.47133148e-01 1.52688116e-01
      2.30734140e-01 0. -7.81293333e-01 0. -5.57033837e-01
      -1.86151206e-01 5.47133148e-01 1.33565381e-01 -1.17390797e-01
      -3.69494170e-01 0. -5.33400238e-01 0. -1.24589160e-01
      4.01013680e-02 1.33565381e-01 2.54102767e-01 -1.20876089e-01
      -3.61706853e-01 0. -8.29099059e-01 0. -4.39470500e-01
      -4.89513651e-02 2.54102767e-01</_>
    <_>
      6.66803569e-02 -8.15699175e-02 -2.44086802e-01 0. -1.65316105e-01
      0. 2.46003166e-01 1.30759373e-01 6.66803569e-02 2.61623502e-01
      5.50207384e-02 1.64643303e-01 0. -6.82871461e-01 0.
      -2.62518585e-01 -2.84188148e-02 2.61623502e-01 1.23834781e-01
      1.42196389e-02 -1.70776054e-01 0. -2.23544464e-01 0.
      -1.24252565e-01 -5.18357642e-02 1.23834781e-01 3.90054822e-01
      1.72514305e-01 2.24442542e-01 0. -4.06851679e-01 0.
      -4.54370350e-01 -2.28474468e-01 3.90054822e-01 2.80686051e-01
      1.99953206e-02 5.21945618e-02 0. -5.28407991e-01 0.
      -3.20222706e-01 -1.40727654e-01 2.80686051e-01 3.07395101e-01
      7.64361843e-02 6.02768511e-02 0. -3.35010439e-01 0.
      -2.95535862e-01 -1.26127958e-01 3.07395101e-01 2.32599035e-01
      7.90504068e-02 1.00003205e-01 0. -2.50989914e-01 0.
      -5.04034340e-01 -2.68428892e-01 2.32599035e-01 2.20766831e-02
      3.36530060e-02 6.01955540e-02 0. -1.75138310e-01 0.
      -3.69100332e-01 -1.45671964e-01 2.20766831e-02 1.75556302e-01
      1.25520542e-01 1.53321460e-01 0. -4.50834453e-01 0.
      -1.37832925e-01 -4.61648442e-02 1.75556302e-01 -4.89709862e-02
      9.77623314e-02 6.63756505e-02 0. -2.62584746e-01 0.
      -3.03632468e-01 -1.69954062e-01 -4.89709862e-02 9.88214910e-02
      -9.57551040e-03 -4.68699299e-02 0. -9.64599624e-02 0.
      1.43187456e-02 8.65218043e-02 9.88214910e-02 1.38202421e-02
      -1.22522548e-01 -2.18587771e-01 0. -1.25768587e-01 0.
      8.80286172e-02 1.32677108e-01 1.38202421e-02</_>
    <_>
      1.73738282e-02 -3.71424973e-01 -7.44908035e-01 6.07401540e-04
      2.62128800e-01 0. 2.97980279e-01 1.51593372e-01 1.73738282e-02
      6.75586909e-02 -2.47251600e-01 -5.32490730e-01 4.04934399e-05
      -1.89327955e-01 0. -1.84556916e-02 8.85792971e-02 6.75586909e-02
      9.78720859e-02 -2.14370072e-01 -4.44470495e-01 8.90668773e-04
      2.01677412e-01 0. 1.37119070e-01 5.37055880e-02 8.43843296e-02
      2.21480548e-01 -2.47172471e-02 -1.63390577e-01 5.93779223e-05
      -4.10063297e-01 0. -2.24936873e-01 -8.76281485e-02 2.21480548e-01
      1.27118826e-01 -5.84362969e-02 -1.57123446e-01 0. -2.06699297e-01
      0. -1.39796704e-01 -1.21177630e-02 1.27118826e-01 1.49245203e-01
      -1.20402746e-01 -3.00313413e-01 0. -3.41855973e-01 0.
      -5.26454523e-02 -8.64904560e-03 1.49245203e-01 3.34914118e-01
      9.99563262e-02 1.62561446e-01 0. -4.72363234e-01 0.
      -4.36030984e-01 -2.91470706e-01 3.34914118e-01 1.21056639e-01
      -1.84468203e-03 -1.12131916e-01 0. -4.73177820e-01 0.
      -4.54936773e-01 -2.77211696e-01 1.21056639e-01 2.00577199e-01
      3.91462399e-03 -1.27941534e-01 0. -2.77966917e-01 0.
      -1.78693503e-01 -9.68677774e-02 2.00577199e-01 4.14752178e-02
      8.85167494e-02 7.50504434e-02 0. -1.22124642e-01 0.
      -4.77344930e-01 -2.38209173e-01 4.14752178e-02 2.46325254e-01
      -1.23662226e-01 -2.76472151e-01 0. -3.10594529e-01 0.
      -3.43839347e-01 -8.60458612e-02 2.46325254e-01 1.61219165e-01
      -3.35425019e-01 -5.25966823e-01 0. -2.35631958e-01 0.
      -4.50151525e-02 8.82162228e-02 1.61219165e-01</_>
    <_>
      9.23963130e-01 3.82677093e-02 1.14511676e-01 0. -1.51946008e+00 0.
      -2.66730189e-01 -8.91369730e-02 9.23963130e-01 2.57488042e-01
      -8.63429904e-02 -2.40082666e-01 0. -3.01454306e-01 0.
      1.69456720e-01 5.66295236e-02 2.57488042e-01 8.66377056e-02
      -5.68837635e-02 -2.90799439e-01 0. -8.46030951e-01 0.
      -1.27884775e-01 -4.27374355e-02 8.66377056e-02 9.17144716e-02
      -5.90206802e-01 -1.01458442e+00 0. -6.84298426e-02 0.
      2.19098523e-01 7.32188672e-02 9.17144716e-02 3.16691458e-01
      -1.10278137e-01 -2.70584404e-01 0. 3.66057605e-02 0.
      2.43862569e-01 8.14947635e-02 3.16691458e-01 4.24183607e-02
      -4.39889841e-02 -1.97678283e-01 0. 1.31647617e-01 0.
      1.53545022e-01 5.13121672e-02 4.24183607e-02 4.24183607e-02
      -4.59608495e-01 -1.17459583e+00 0. -4.53403778e-02 0.
      2.72828847e-01 9.11747217e-02 4.24183607e-02 5.54144457e-02
      -1.86436057e-01 -6.61652803e-01 0. 1.49667680e-01 0.
      1.69944867e-01 5.67926541e-02 5.54144457e-02 -4.80728075e-02
      -1.48279974e-02 -1.84920996e-01 0. 2.17270508e-01 0.
      1.87638998e-02 6.27058093e-03 -4.80728075e-02 -1.62137002e-01
      1.11790866e-01 1.10192977e-01 0. 7.02306032e-01 0. -1.59545224e-02
      -5.33173326e-03 -1.62137002e-01 -3.82040031e-02 -1.05087489e-01
      -3.32677513e-01 0. 8.02982077e-02 0. 7.84461759e-03 2.62154010e-03
      -3.82040031e-02 -1.46429449e-01 2.43484676e-02 7.28593022e-02 0.
      4.29277182e-01 0. -1.47136420e-01 -4.91704829e-02 -1.46429449e-01</_>
    <_>
      1.07187852e-02 -2.34060824e-01 -6.00832820e-01 0. -1.40805274e-01
      0. -6.26518726e-02 2.76120268e-02 1.07187852e-02 1.27889454e-01
      -5.16536050e-02 -1.54567078e-01 0. -5.96810699e-01 0.
      -4.75600809e-01 -8.14684108e-02 1.27889454e-01 4.06008922e-02
      -1.80494711e-02 -1.65813312e-01 0. 2.04972252e-02 0.
      -3.39113623e-01 -1.83461815e-01 4.06008922e-02 1.73077881e-01
      -1.30475713e-02 -2.97014147e-01 0. -3.38106960e-01 0.
      8.38246197e-03 2.06689909e-02 1.73077881e-01 3.31323057e-01
      -1.04774684e-01 -3.08253497e-01 0. -6.56541884e-01 0.
      -3.32967013e-01 -8.73919874e-02 3.31323057e-01 2.14185983e-01
      -2.56981939e-01 -7.21680760e-01 0. -5.41763306e-01 0.
      2.64511127e-02 2.06123721e-02 2.14185983e-01 1.96385354e-01
      -3.21357064e-02 -1.73049897e-01 0. -5.53042293e-01 0.
      -2.44732067e-01 -6.66138753e-02 1.96385354e-01 1.98980629e-01
      -1.56995058e-02 -1.50205210e-01 0. -4.36530650e-01 0.
      -5.85039377e-01 -3.24419260e-01 1.98980629e-01 1.13046683e-01
      9.38246772e-03 -1.94206327e-01 0. -2.53343225e-01 0.
      -6.51722252e-02 -2.17792578e-02 1.13046683e-01 -2.78176274e-02
      1.06829584e-01 9.35082808e-02 0. -4.38252926e-01 0.
      -6.38348699e-01 -2.95388639e-01 -2.78176274e-02 1.94716588e-01
      -4.43254970e-02 -1.50855020e-01 0. -1.51002780e-01 0.
      -2.65714496e-01 -4.94187362e-02 1.94716588e-01 1.02607585e-01
      -4.50736165e-01 -6.49641633e-01 0. -3.48047853e-01 0.
      1.88442856e-01 1.66233838e-01 1.02607585e-01</_>
    <_>
      4.10621390e-02 -1.55910000e-01 -3.88416708e-01 0. -3.54708195e-01
      0. 9.10767838e-02 7.89855570e-02 4.10621390e-02 9.83593166e-02
      -3.95957567e-02 -9.21619907e-02 0. -4.37481433e-01 0.
      -2.42143124e-01 1.38267027e-02 9.83593166e-02 7.81347156e-02
      9.77599695e-02 7.92073831e-02 0. -3.08765024e-01 0.
      -4.03925538e-01 -2.03639835e-01 7.81347156e-02 1.64149120e-01
      5.25788106e-02 -1.34450302e-01 0. -3.46582115e-01 0.
      -2.01865792e-01 -8.32694024e-02 1.64149120e-01 1.86007306e-01
      2.82507706e-02 7.68971965e-02 0. -5.16709685e-01 0.
      -4.70001757e-01 -2.13389605e-01 1.86007306e-01 4.52255249e-01
      9.05733109e-02 1.02579840e-01 0. -5.95880032e-01 0.
      -3.36161613e-01 -2.12094054e-01 4.52255249e-01 1.10429563e-01
      -5.90637699e-02 -2.48820022e-01 0. -4.75671172e-01 0.
      -8.13587233e-02 -4.43472806e-03 1.10429563e-01 8.99771228e-02
      -1.07209183e-01 -3.11024100e-01 0. -4.77551311e-01 0.
      -7.84000754e-02 3.79946977e-02 8.99771228e-02 3.64045858e-01
      1.88421737e-02 -1.03057355e-01 0. -3.58789206e-01 0.
      3.02188676e-02 1.00986520e-02 3.64045858e-01 -1.01393677e-01
      -2.00290680e-01 -3.63266677e-01 0. 4.65905406e-02 0.
      2.35789374e-01 7.87968636e-02 -1.01393677e-01 8.27206671e-02
      -2.22499743e-01 -4.12251323e-01 0. -2.24048451e-01 0.
      1.58468947e-01 1.34694189e-01 8.27206671e-02 -1.46339964e-02
      -4.23472732e-01 -5.57615459e-01 0. -2.09575966e-02 0.
      3.63953859e-01 2.24886522e-01 -1.46339964e-02</_>
    <_>
      5.86223826e-02 -2.34551340e-01 -5.35205066e-01 -1.94677114e-01
      4.68872875e-01 -7.77202547e-02 1.01452827e-01 8.94728769e-03
      5.86223826e-02 9.47166607e-02 -3.01491648e-01 -7.49864995e-01
      -4.69201840e-02 -3.26598793e-01 -1.22160181e-01 1.95336476e-01
      7.03219771e-02 9.47166607e-02 -8.38220678e-03 4.55828421e-02
      -8.35886821e-02 -1.33581264e-02 5.19877970e-01 -7.96215534e-02
      -5.69568276e-01 -2.73385197e-01 -8.38220678e-03 1.27265573e-01
      1.08634219e-01 3.52616124e-02 -1.26258424e-03 -2.73914784e-01
      -1.81269363e-01 -8.69975448e-01 -4.52373117e-01 1.27265573e-01
      1.17067948e-01 -1.79769337e-01 -4.22591925e-01 -1.66795198e-02
      -2.59775132e-01 -6.38707578e-02 2.58626223e-01 9.37329978e-02
      1.17067948e-01 5.39634414e-02 -2.00142801e-01 -6.47995710e-01
      -6.10430054e-02 -1.92476004e-01 -1.05474673e-01 2.16756448e-01
      6.47161081e-02 5.39634414e-02 5.39634414e-02 1.31863371e-01
      2.62798011e-01 -3.69259389e-04 -3.22157741e-01 -5.69646508e-02
      -5.73027492e-01 -2.19937414e-01 5.39634414e-02 5.39634414e-02
      -2.67222505e-02 -1.78212613e-01 -1.15347458e-02 -3.71476978e-01
      -1.13401204e-01 -7.87280798e-01 -2.31330767e-01 5.39634414e-02
      2.55381852e-01 -1.65660128e-01 -5.49317837e-01 -1.78180948e-01
      -5.91519356e-01 -1.31989896e-01 -7.61791365e-03 -5.40434103e-03
      2.55381852e-01 3.14629912e-01 -2.24735171e-01 -5.92351496e-01
      -1.46053746e-01 -8.39532912e-01 -1.12070099e-01 3.82685661e-02
      2.49629244e-02 2.69098997e-01 3.37051779e-01 -1.48449779e-01
      -4.27491963e-01 -4.95701805e-02 -8.65606785e-01 -1.56600296e-01
      -5.65466166e-01 -1.73313439e-01 3.37051779e-01 2.89880961e-01
      -1.45128354e-01 -2.61458188e-01 -3.74346673e-02 -1.14809787e+00
      -8.79233778e-02 -6.49644852e-01 -2.30144024e-01 2.89880961e-01</_>
    <_>
      -8.24098196e-03 -6.99914098e-02 -2.09439769e-01 0. -3.27684879e-01
      0. -1.15608603e-01 8.27319175e-03 -8.24098196e-03 1.68908030e-01
      -2.40223762e-02 -7.18840957e-02 0. -8.61916900e-01 0.
      -1.73475727e-01 3.60720232e-02 1.68908030e-01 8.59752521e-02
      1.03038654e-01 9.50027853e-02 0. -1.29814312e-01 0.
      -5.29826999e-01 -3.82240266e-01 8.59752521e-02 2.16509461e-01
      -9.71260592e-02 -4.85448331e-01 0. -6.72829866e-01 0.
      3.32642794e-02 2.96586342e-02 2.16509461e-01 3.15123200e-01
      -3.54709886e-02 -1.13781735e-01 0. -8.24151993e-01 0.
      -1.30937025e-01 -9.15722363e-03 3.15123200e-01 1.46653101e-01
      5.81977842e-03 -1.09289467e-01 0. -4.89442468e-01 0.
      -1.87599346e-01 -5.09196930e-02 1.46653101e-01 2.20183760e-01
      -5.40131517e-02 -2.94859260e-01 0. -7.87136972e-01 0.
      -3.77235979e-01 -1.05883434e-01 2.20183760e-01 1.46653101e-01
      7.14923069e-02 1.07319921e-01 0. -4.22924638e-01 0.
      -6.66247487e-01 -3.58207643e-01 1.46653101e-01 4.42578550e-03
      1.56564802e-01 2.46217906e-01 0. -3.17420885e-02 0.
      -9.96718034e-02 -3.33084464e-02 4.42578550e-03 -1.35197595e-01
      1.29003465e-01 1.59860536e-01 0. -2.62427390e-01 0.
      -3.02370697e-01 -1.10384606e-01 -1.35197595e-01 8.60956982e-02
      2.54691653e-02 5.79963997e-02 0. 5.27299345e-02 0. -1.70247823e-01
      2.48426739e-02 8.60956982e-02 7.55233085e-03 -3.93889934e-01
      -7.68505275e-01 0. -3.18096161e-01 0. 1.75442845e-01
      1.61889508e-01 7.55233085e-03</_>
    <_>
      -5.97150810e-02 -2.75148571e-01 -6.73983812e-01 0. -8.01171958e-02
      0. -8.42764154e-02 1.61783174e-02 -5.97150810e-02 9.03114304e-02
      -8.05750489e-03 -2.41100322e-02 0. -8.29202682e-03 0.
      -5.36060520e-03 9.29553881e-02 9.03114304e-02 2.85445631e-01
      5.40142134e-02 -5.16961291e-02 0. -4.53294069e-01 0.
      -7.84632623e-01 -6.00701630e-01 2.85445631e-01 3.53997529e-01
      9.83129367e-02 2.40469445e-03 0. -6.53552592e-01 0.
      -5.71677327e-01 -2.77342260e-01 3.53997529e-01 -2.45847136e-01
      3.17859761e-02 8.74766558e-02 0. 2.34124586e-01 0. -9.29760747e-03
      3.14926431e-02 -2.45847136e-01 -2.37386197e-01 6.05200343e-02
      1.26498882e-02 0. 2.32886121e-01 0. -3.83854657e-02
      -1.72967389e-02 -2.37386197e-01 4.31457758e-01 9.69509482e-02
      1.53568357e-01 0. -7.36491662e-03 0. -1.10962950e-02
      1.90457031e-02 4.31457758e-01 1.41220242e-01 -1.73108876e-01
      -5.73383689e-01 0. -5.03657997e-01 0. -1.07213324e-02
      6.06120266e-02 1.41220242e-01 8.96917060e-02 1.45878568e-01
      2.14240283e-01 0. 1.03062510e-01 0. -3.26577485e-01
      -1.19497418e-01 8.96917060e-02 -4.60765958e-02 1.26027673e-01
      1.50955617e-01 0. -5.19971214e-02 0. -8.88519168e-01
      -4.85017210e-01 -4.60765958e-02 2.53373057e-01 -2.79804856e-01
      -6.12956822e-01 0. -4.06531155e-01 0. -2.15124227e-02
      6.90618381e-02 2.53373057e-01 2.61759847e-01 -3.71908516e-01
      -4.97352928e-01 0. -4.01155710e-01 0. -2.58656770e-01
      7.98130035e-03 2.61759847e-01</_>
    <_>
      1.29731074e-01 -2.07940936e-01 -6.22234762e-01 0. -1.07422602e+00
      0. -2.73191184e-01 -4.27469723e-02 1.29731074e-01 9.65861157e-02
      1.83413774e-02 5.48851006e-02 0. -3.02422307e-02 0. 1.43640935e-01
      1.42749101e-01 9.65861157e-02 6.07177839e-02 1.76700175e-01
      3.26899469e-01 0. -6.34613097e-01 0. -1.47371733e+00
      -8.15967858e-01 6.07177839e-02 1.39344171e-01 2.08556905e-01
      3.47988427e-01 0. 8.90267789e-02 0. -5.95280230e-01
      -1.79336771e-01 1.39344171e-01 -1.57341719e-01 8.23501125e-02
      2.39193961e-01 0. 2.35550582e-01 0. 1.00853272e-01 6.83032796e-02
      -1.57341719e-01 -1.49335831e-01 1.40180379e-01 2.60082871e-01 0.
      2.39083201e-01 0. 7.01770633e-02 3.52250151e-02 -1.49335831e-01
      -1.49335831e-01 1.41564220e-01 2.94411570e-01 0. 2.33532533e-01 0.
      9.46313366e-02 5.43780960e-02 -1.49335831e-01 -1.49335831e-01
      1.00760534e-01 2.00635061e-01 0. 2.39265859e-01 0. 5.27609251e-02
      8.18264708e-02 -1.49335831e-01 1.94355905e-01 1.47870183e-01
      2.32154936e-01 0. 4.47405018e-02 0. -1.63770333e-01
      -5.47289960e-02 1.94355905e-01 -6.34118244e-02 1.62480921e-02
      -1.65383145e-01 0. -1.15426445e+00 0. -9.17091906e-01
      -3.37143600e-01 -6.34118244e-02 2.76025832e-01 -1.15218639e-01
      -3.62015545e-01 0. -1.86481923e-02 0. 2.44032279e-01
      1.63287923e-01 2.76025832e-01 2.42358521e-01 -9.03863072e-01
      -1.54932880e+00 0. -1.12118769e+00 0. 2.47421995e-01
      1.93377286e-01 2.42358521e-01</_>
    <_>
      -2.18636543e-01 -9.39744860e-02 -2.80935913e-01 0. -2.88450807e-01
      0. 2.54897863e-01 1.32426396e-01 -2.18636543e-01 -6.82071820e-02
      4.35971096e-02 1.30459383e-01 0. -4.41518694e-01 0.
      -1.37544155e-01 4.62343879e-02 -6.82071820e-02 2.76807755e-01
      8.26367065e-02 6.51449040e-02 0. -3.31944853e-01 0. 2.18891755e-01
      7.31497779e-02 2.76807755e-01 3.35882902e-01 1.49448663e-01
      1.98085085e-01 0. -4.76244628e-01 0. -8.89687240e-02
      -1.47758760e-02 3.35882902e-01 8.67249444e-02 2.15950981e-02
      5.80985695e-02 0. -4.53800559e-01 0. -5.72907925e-02
      1.45238908e-02 8.67249444e-02 -7.35780075e-02 1.43804150e-02
      -1.00786917e-01 0. -4.31546062e-01 0. 1.91918314e-01
      7.55922049e-02 -7.35780075e-02 2.65813380e-01 1.64606664e-02
      -6.73233494e-02 0. -4.54624653e-01 0. -1.47845745e-01
      -2.72652581e-02 2.65813380e-01 2.91077346e-01 -2.85190139e-02
      -1.72723636e-01 0. -4.53880101e-01 0. 1.44405276e-01
      1.10726446e-01 2.91077346e-01 -1.48519471e-01 8.82900357e-02
      7.44155645e-02 0. -1.90878078e-01 0. 1.01377442e-01 3.38787623e-02
      -1.48519471e-01 -2.34273508e-01 1.12689003e-01 1.44110948e-01 0.
      -3.31698060e-01 0. -5.01378059e-01 -1.67968452e-01 -2.34273508e-01
      4.16996121e-01 5.77501431e-02 1.57257184e-01 0. -3.93915236e-01 0.
      2.36831039e-01 1.58683717e-01 4.16996121e-01 3.16826969e-01
      2.51870863e-02 7.53687918e-02 0. -2.89581537e-01 0.
      -1.18607819e-01 6.08463027e-02 3.16826969e-01</_>
    <_>
      -1.81977943e-01 -7.31434822e-02 -2.38280639e-01 9.91447814e-05
      -3.94393474e-01 0. 2.67363638e-01 1.38463110e-01 -1.81977943e-01
      -1.19169675e-01 5.68080097e-02 1.64358094e-01 6.60965316e-06
      -5.47774255e-01 0. -1.40576540e-02 8.18877295e-02 -1.19169675e-01
      3.35241646e-01 6.34007603e-02 -3.48721668e-02 1.45381855e-04
      -4.03473377e-01 0. 2.11990416e-01 7.21301734e-02 3.33040059e-01
      3.85387897e-01 1.78594172e-01 2.41339684e-01 9.69212397e-06
      -5.74103594e-01 0. 6.59457296e-02 4.16341238e-02 3.85387897e-01
      2.23405082e-02 7.06926882e-02 2.03899890e-01 0. -4.10134226e-01 0.
      -6.57122061e-02 1.26399444e-02 2.23405082e-02 -7.68931881e-02
      3.55810039e-02 -6.19770028e-02 0. -4.84480768e-01 0.
      -7.01402500e-03 9.42903198e-03 -7.68931881e-02 4.23018157e-01
      8.33302736e-02 1.12810269e-01 0. -4.84198391e-01 0.
      -9.60169733e-02 -9.33315884e-03 4.23018157e-01 3.44248444e-01
      -6.11502267e-02 -2.52520651e-01 0. -4.98856992e-01 0.
      -9.71285999e-02 -8.13946407e-03 3.44248444e-01 -1.12182796e-01
      1.00043371e-01 7.70846233e-02 0. -2.61730492e-01 0. 8.43414292e-02
      2.81855594e-02 -1.12182796e-01 -3.16640615e-01 1.27161846e-01
      1.54350370e-01 0. 1.88909143e-01 0. -1.34739354e-01
      -4.70170155e-02 -3.16640615e-01 2.32208595e-01 -1.02963075e-02
      -4.90265079e-02 0. -5.04135251e-01 0. 1.16884366e-01
      1.20797440e-01 2.32208595e-01 -1.82503574e-02 2.82498635e-02
      8.45340416e-02 0. 2.36689523e-01 0. 2.67676383e-01 1.92712247e-01
      -1.82503574e-02</_>
    <_>
      -3.76613736e-02 -2.72863716e-01 -7.03916728e-01 0. 1.29899621e-01
      0. -8.19318295e-02 -1.25526227e-02 -3.76613736e-02 3.87717746e-02
      -8.16302374e-02 -2.44267717e-01 0. -5.64828217e-01 0.
      5.25920093e-02 1.12322092e-01 3.87717746e-02 2.59276837e-01
      2.63419822e-02 -1.34501502e-01 0. -2.22431257e-01 0.
      -5.08299887e-01 -3.42161059e-01 2.59276837e-01 5.05207837e-01
      6.58506602e-02 -9.47354138e-02 0. -8.31749618e-01 0.
      -3.55054468e-01 -1.01914585e-01 5.05207837e-01 1.33681642e-02
      -2.38640532e-02 -7.90497437e-02 0. -4.63343590e-01 0.
      -1.86685529e-02 2.83609405e-02 1.33681642e-02 2.18291022e-02
      1.29598290e-01 2.19357640e-01 0. -1.48797974e-01 0.
      -1.22163169e-01 -2.90519390e-02 2.18291022e-02 2.91267067e-01
      5.17084859e-02 1.81851964e-02 0. -8.66332769e-01 0.
      -3.90125841e-01 -1.07619509e-01 2.91267067e-01 2.18291022e-02
      1.01063207e-01 1.95806772e-01 0. -4.94768679e-01 0.
      -4.58059520e-01 -8.88810530e-02 2.18291022e-02 1.45832375e-02
      1.73532575e-01 2.96991587e-01 0. 3.19958329e-02 0. -3.69230747e-01
      -1.36902332e-01 1.45832375e-02 3.62163340e-03 1.37585521e-01
      1.85541302e-01 0. -5.34287607e-03 0. -7.13496149e-01
      -4.78305221e-01 3.62163340e-03 9.62531492e-02 4.76197945e-03
      -3.96745140e-03 0. 3.23109664e-02 0. -7.06345215e-02
      5.81317879e-02 9.62531492e-02 5.42265847e-02 -3.21325451e-01
      -6.01130605e-01 0. -1.31456494e-01 0. -1.25772297e-01
      4.86900434e-02 5.42265847e-02</_>
    <_>
      -2.10524485e-01 -2.23870724e-02 -6.69902936e-02 0. 1.98601410e-01
      0. 4.85751592e-02 6.47824481e-02 -2.10524485e-01 -2.81237587e-02
      1.01784766e-02 3.04581821e-02 0. -4.90885943e-01 0.
      -3.13565701e-01 -1.00412248e-02 -2.81237587e-02 -9.79005918e-02
      6.31831288e-02 -2.42608096e-02 0. 1.26494050e-01 0. 1.37916327e-01
      4.60891090e-02 -9.79005918e-02 4.26242761e-02 5.07214293e-02
      -1.40009120e-01 0. -5.15050292e-01 0. 7.78112039e-02
      4.55993153e-02 4.26242761e-02 2.80086845e-01 1.79037396e-02
      4.59352322e-02 0. -1.31365514e+00 0. -2.32027635e-01
      -4.29395325e-02 2.80086845e-01 3.54670256e-01 -1.49152242e-02
      -2.13079602e-01 0. -1.41444838e+00 0. 8.35708901e-02
      3.97009887e-02 3.54670256e-01 3.45926523e-01 4.69928281e-03
      -1.22485399e-01 0. -1.36707413e+00 0. 4.27914895e-02
      3.70541736e-02 3.45926523e-01 2.54048467e-01 1.87574662e-02
      -5.04830554e-02 0. -1.46833396e+00 0. -2.14036241e-01
      -5.21839373e-02 2.54048467e-01 2.97128782e-02 3.02757528e-02
      -1.31685555e-01 0. -6.91607654e-01 0. 1.66121274e-01
      5.55149429e-02 2.97128782e-02 -1.98804304e-01 6.80425167e-02
      -2.25569773e-02 0. -7.73202337e-04 0. -6.95446879e-02
      -2.67830454e-02 -1.98804304e-01 2.25034095e-02 3.02162506e-02
      7.22020790e-02 0. -6.76716805e-01 0. -4.97919470e-02
      6.50966987e-02 2.25034095e-02 -7.48512521e-02 -4.00560535e-03
      -1.19869160e-02 0. 6.59633055e-02 0. -5.88166378e-02
      8.36037472e-02 -7.48512521e-02</_>
    <_>
      3.41775775e-01 6.73442334e-02 2.01519638e-01 0. 5.09234190e-01 0.
      1.66821182e-01 7.70939738e-02 3.41775775e-01 2.50144452e-01
      2.74555702e-02 8.21575969e-02 0. -1.95249971e-02 0. 1.63962498e-01
      9.64499637e-02 2.50144452e-01 -4.90249097e-01 1.38761222e-01
      2.01897770e-01 0. 6.13721728e-01 0. -2.20111400e-01
      -7.35575780e-02 -4.90249097e-01 -4.19020742e-01 1.26421481e-01
      8.65151808e-02 0. 8.49010646e-02 0. -2.86036134e-02
      -9.43199208e-04 -4.19020742e-01 4.81468201e-01 -3.05761918e-02
      -3.39658902e-04 0. 8.37726891e-02 0. 1.36563420e-01 6.08493239e-02
      4.81468201e-01 3.74377400e-01 -2.49026921e-02 -3.23461294e-02 0.
      -1.79206774e-01 0. 6.80529773e-02 2.79183034e-02 3.74377400e-01
      -3.91368508e-01 7.95428082e-02 1.01476550e-01 0. 8.35772157e-02 0.
      -7.40078045e-03 7.53076514e-03 -3.91368508e-01 -3.91368508e-01
      6.97821751e-02 1.02202252e-01 0. 1.16571315e-01 0. -2.52003521e-02
      1.98023058e-02 -3.91368508e-01 5.73903620e-01 3.25746126e-02
      -1.24807961e-01 0. -7.18669415e-01 0. -6.02731109e-01
      -2.01421931e-01 5.73903620e-01 5.38301051e-01 3.30626257e-02
      -1.22599065e-01 0. -7.74062872e-01 0. -8.81109238e-01
      -5.64207971e-01 5.38301051e-01 1.21411502e-01 -6.55542314e-02
      -2.12720200e-01 0. -1.54550016e-01 0. 2.01095939e-01
      1.03139274e-01 1.21411502e-01 5.90787232e-02 -5.32186389e-01
      -7.86768019e-01 0. -7.24589646e-01 0. 2.54868537e-01
      1.31056979e-01 5.90787232e-02</_>
    <_>
      -1.77201200e-02 -2.72300616e-02 -7.12365746e-01 3.22268577e-03
      8.61829668e-02 0. 1.41877979e-01 1.14342272e-01 -1.77201200e-02
      1.46224961e-01 -1.92927152e-01 -6.37163997e-01 2.14845742e-04
      -4.44260448e-01 0. 5.06517012e-04 9.49162021e-02 1.46224961e-01
      1.14720277e-01 -5.64048529e-01 -1.36795592e+00 4.72561456e-03
      1.60060778e-01 0. 4.60732430e-01 1.95792526e-01 4.31583859e-02
      1.91413388e-01 -2.90893793e-01 -7.90765405e-01 3.15040990e-04
      1.12133985e-02 0. 1.54545546e-01 7.12427050e-02 1.91413388e-01
      2.88559794e-01 -7.45150968e-02 -2.30617046e-01 0. -6.25039756e-01
      0. 1.60563245e-01 8.82574022e-02 2.88559794e-01 1.58348650e-01
      -9.56391469e-02 -4.54634547e-01 0. -6.00568116e-01 0.
      1.40854761e-01 5.88442534e-02 1.58348650e-01 9.67314169e-02
      3.54152992e-02 1.36992289e-02 0. -1.68867320e-01 0.
      -6.27741754e-01 -1.87026128e-01 9.67314169e-02 9.67314169e-02
      2.26016808e-02 -3.89781035e-02 0. -4.95175034e-01 0.
      -1.09066486e+00 -4.83818710e-01 9.67314169e-02 7.43589997e-02
      -9.81351659e-02 -5.15937984e-01 0. -1.42395526e-01 0.
      1.96951374e-01 6.58177957e-02 7.43589997e-02 -1.32092685e-01
      5.27789369e-02 -6.82304278e-02 0. 1.69531256e-01 0.
      -6.48849532e-02 -2.16834415e-02 -1.32092685e-01 1.23839572e-01
      -1.86972891e-03 -2.38105543e-02 0. -7.53103867e-02 0.
      -7.84568846e-01 -2.02310100e-01 1.23839572e-01 2.64849048e-02
      6.38240948e-02 1.90985397e-01 0. 7.44751170e-02 0. -1.07652724e+00
      -3.08287352e-01 2.64849048e-02</_>
    <_>
      -4.23188150e-01 -2.87150349e-02 -8.59256759e-02 0. 5.10631979e-01
      0. 7.04061538e-02 4.46915366e-02 -4.23188150e-01 -3.60392481e-01
      -6.39589950e-02 -1.91389084e-01 0. 8.12830627e-02 0.
      1.05555333e-01 7.65755624e-02 -3.60392481e-01 2.63546020e-01
      9.52697322e-02 2.09462672e-01 0. 5.24981737e-01 0. 2.60679454e-01
      8.71144980e-02 2.63546020e-01 2.41569340e-01 5.93291000e-02
      7.41032511e-02 0. 1.11983217e-01 0. 1.89730823e-01 7.19468445e-02
      2.41569340e-01 -2.96029627e-01 7.25986576e-03 1.90161914e-02 0.
      9.79820341e-02 0. 8.82589594e-02 4.45769057e-02 -2.96029627e-01
      -2.93030411e-01 2.96514966e-02 2.90167984e-02 0. 9.73995626e-02 0.
      -1.06900796e-01 -3.05923857e-02 -2.93030411e-01 4.13559049e-01
      3.25228646e-02 4.89180274e-02 0. 7.97987059e-02 0. 1.13760740e-01
      4.79355045e-02 4.13559049e-01 1.74551591e-01 -2.19643172e-02
      -1.60130579e-02 0. 6.49919659e-02 0. 4.36507352e-02 4.25703377e-02
      1.74551591e-01 -1.23195000e-01 1.70311518e-02 -2.78307814e-02 0.
      -1.80887014e-01 0. -1.15371473e-01 -3.85549180e-02 -1.23195000e-01
      -2.63444871e-01 6.71335757e-02 1.20717689e-01 0. -1.06096601e+00
      0. -3.16922128e-01 -1.05909467e-01 -2.63444871e-01 5.91398597e-01
      2.02457737e-02 5.41255139e-02 0. -8.08330417e-01 0. 8.25487897e-02
      6.32160529e-02 5.91398597e-01 9.88680065e-01 1.14771679e-01
      3.43438953e-01 0. -1.09402812e+00 0. -1.38791949e-01
      -1.37007295e-03 9.88680065e-01</_>
    <_>
      2.16153741e-01 6.85269609e-02 -2.66284615e-01 2.41933949e-03
      -4.33489859e-01 0. -7.13602543e-01 -2.38725990e-01 2.16153741e-01
      4.02411193e-01 1.93051882e-02 -7.97013342e-02 1.61289310e-04
      -1.77736878e+00 0. -5.32741904e-01 -8.32864493e-02 4.02411193e-01
      1.78398624e-01 -9.55554396e-02 -7.05983102e-01 3.54762026e-03
      -4.93293792e-01 0. 9.63380411e-02 6.49575517e-02 1.24675587e-01
      2.93363899e-01 1.38929412e-02 -2.67451644e-01 2.36508029e-04
      -1.78930581e+00 0. -2.34623998e-01 -5.88113032e-02 2.93363899e-01
      1.97077259e-01 -3.88612971e-02 -1.23925112e-01 0. -1.04420221e+00
      0. -3.89651626e-01 -9.56154764e-02 1.97077259e-01 4.83871922e-02
      1.73999090e-02 -1.16380416e-01 0. -3.94963235e-01 0.
      -1.59700200e-01 -4.39167097e-02 4.83871922e-02 4.83871922e-02
      -7.31745586e-02 -3.55509400e-01 0. -1.15837526e+00 0.
      -1.77556619e-01 -3.65827493e-02 4.83871922e-02 4.83871922e-02
      -6.64068013e-02 -2.79919475e-01 0. -5.09067178e-01 0.
      -5.51398704e-03 3.91012914e-02 4.83871922e-02 -1.26208782e-01
      1.08766071e-01 1.03186473e-01 0. 6.43008202e-02 0. 8.63830522e-02
      2.88678575e-02 -1.26208782e-01 -3.38392973e-01 1.18993595e-01
      1.29908010e-01 0. 3.96480769e-01 0. 9.31600947e-03 3.11332219e-03
      -3.38392973e-01 -4.45388705e-02 3.54869962e-02 9.81733203e-02 0.
      -3.03854663e-02 0. 1.77765250e-01 1.41142726e-01 -4.45388705e-02
      -1.41893536e-01 2.42674444e-02 7.26170987e-02 0. 2.44324237e-01 0.
      -2.25912899e-01 2.77629159e-02 -1.41893536e-01</_>
    <_>
      1.37302771e-01 -2.30156705e-02 -6.88716620e-02 0. 1.51157632e-01
      0. -9.80096996e-01 -2.78981686e-01 1.37302771e-01 1.48950279e-01
      4.35588732e-02 1.30344257e-01 0. -4.56900865e-01 0.
      -8.92609060e-01 -2.03547239e-01 1.48950279e-01 4.32385206e-02
      -1.31119460e-01 -4.37689245e-01 0. -9.28005576e-02 0.
      -1.86591938e-01 -6.51379675e-02 4.32385206e-02 1.58203781e-01
      3.10637020e-02 3.09514478e-02 0. -2.18579277e-01 0.
      -7.79698670e-01 -2.61757880e-01 1.58203781e-01 2.37495035e-01
      4.29036394e-02 1.26760110e-01 0. -7.92489588e-01 0.
      -7.41281211e-01 -2.13123500e-01 2.37495035e-01 2.22711265e-01
      2.19515292e-03 -2.92236730e-02 0. -6.94330633e-01 0.
      -7.56677449e-01 -2.41095915e-01 2.22711265e-01 2.22711265e-01
      9.24498141e-02 2.47628272e-01 0. -6.75797939e-01 0.
      -9.85710204e-01 -3.06653142e-01 2.22711265e-01 2.22711265e-01
      5.30611835e-02 1.36124983e-01 0. -1.14627826e+00 0.
      -7.08128572e-01 -1.72449842e-01 2.22711265e-01 9.98281911e-02
      1.21422922e-02 -1.08974315e-02 0. -1.44125879e-01 0.
      -7.38674760e-01 -2.46852815e-01 9.98281911e-02 -3.08719166e-02
      1.69241335e-02 2.58659851e-03 0. -2.52871327e-02 0.
      -6.15868986e-01 -2.05813155e-01 -3.08719166e-02 2.39445716e-01
      5.95446117e-02 1.74309358e-01 0. -3.55749547e-01 0.
      -7.08871365e-01 -1.55156866e-01 2.39445716e-01 1.60811201e-01
      6.20310120e-02 1.85620323e-01 0. 7.61837363e-02 0. -1.28108478e+00
      -3.63145500e-01 1.60811201e-01</_>
    <_>
      -6.65254295e-02 -6.16901293e-02 -1.84599265e-01 0. -3.47656101e-01
      0. -2.75388788e-02 3.93462181e-02 -6.65254295e-02 6.73977882e-02
      3.87841091e-02 1.16056941e-01 0. -3.52550834e-01 0.
      -2.04824924e-01 2.62979046e-02 6.73977882e-02 8.85433424e-03
      1.75696850e-01 3.12423348e-01 0. -2.77302355e-01 0.
      -4.36398387e-01 -2.89359063e-01 8.85433424e-03 1.12586215e-01
      5.86582273e-02 -4.61867824e-02 0. -3.12430054e-01 0.
      -1.92636266e-01 -4.47797216e-02 1.12586215e-01 6.74929321e-02
      4.53781150e-02 1.28148884e-01 0. -5.44404209e-01 0.
      -2.12741904e-02 2.74904519e-02 6.74929321e-02 1.10684313e-01
      -1.86372213e-02 -2.03500301e-01 0. -5.76369703e-01 0.
      1.21972725e-01 5.25341965e-02 1.10684313e-01 1.29780322e-01
      -1.76266447e-01 -2.83206701e-01 0. -5.60482144e-01 0.
      1.52889565e-01 7.38470778e-02 1.29780322e-01 5.59174061e-01
      -3.10554743e-01 -4.76423681e-01 0. -5.72375298e-01 0.
      1.81743413e-01 1.24930345e-01 5.59174061e-01 -1.51888713e-01
      1.92690396e-03 -2.16515854e-01 0. -3.37991506e-01 0.
      -4.02149931e-02 -1.34390360e-02 -1.51888713e-01 -2.91526526e-01
      1.24667458e-01 1.46886274e-01 0. 3.21325988e-01 0. -1.71489239e-01
      -5.73087856e-02 -2.91526526e-01 3.51943493e-01 -1.12088449e-01
      -3.53626102e-01 0. -6.95196509e-01 0. 1.84315145e-01
      1.43331617e-01 3.51943493e-01 -5.53746223e-02 5.91969788e-02
      1.77139267e-01 0. 3.42309296e-01 0. 2.93396205e-01 2.01307356e-01
      -5.53746223e-02</_>
    <_>
      5.60633950e-02 -4.19219613e-01 -1.07271469e+00 0. -4.95373935e-01
      0. -1.73857048e-01 -9.55110602e-03 5.60633950e-02 1.19210385e-01
      -2.14291010e-02 -6.41232356e-02 0. 2.48694550e-02 0.
      2.01402381e-01 1.62051961e-01 1.19210385e-01 9.03845504e-02
      9.97359231e-02 8.51200223e-02 0. -2.52609164e-01 0.
      -1.40005827e+00 -6.81468070e-01 9.03845504e-02 1.64398819e-01
      1.33780286e-01 1.08534738e-01 0. 1.49649069e-01 0. -6.95136845e-01
      -2.12707043e-01 1.64398819e-01 -2.32040212e-02 6.98321089e-02
      2.01324254e-01 0. 6.48061233e-03 0. 2.46249735e-01 1.16892226e-01
      -2.32040212e-02 -1.07037202e-02 7.60085508e-02 5.89966550e-02 0.
      -9.32151139e-01 0. -1.28954738e-01 -3.13211158e-02 -1.07037202e-02
      -1.47430813e-02 1.29440263e-01 2.50787318e-01 0. 5.17441332e-02 0.
      -1.52468741e-01 -2.81986427e-02 -1.47430813e-02 -1.47430813e-02
      -6.04493245e-02 -2.87500501e-01 0. -9.04074728e-01 0.
      -2.63896793e-01 -3.06631494e-02 -1.47430813e-02 4.34391111e-01
      1.18586794e-01 1.32572785e-01 0. -9.25236702e-01 0.
      -7.69431472e-01 -3.19806427e-01 4.34391111e-01 5.01806326e-02
      2.45650798e-01 5.08913457e-01 0. -3.87702525e-01 0.
      -1.16523123e+00 -8.11413467e-01 5.01806326e-02 2.50481665e-01
      -1.23758480e-01 -3.88549417e-01 0. -1.12369776e+00 0.
      -1.74116150e-01 1.06762061e-02 2.50481665e-01 2.21029550e-01
      -1.48791477e-01 -4.09414381e-01 0. -3.13669443e-01 0.
      -2.43302375e-01 2.77176555e-02 2.21029550e-01</_>
    <_>
      1.77790560e-02 -1.55900732e-01 -4.52940017e-01 0. -4.97099251e-01
      0. -2.40015149e-01 -3.16598490e-02 1.77790560e-02 1.94110706e-01
      -4.03742604e-02 -1.20815307e-01 0. -5.26029110e-01 0.
      -3.37540746e-01 -2.21599154e-02 1.94110706e-01 1.24333873e-01
      1.16522811e-01 1.35352656e-01 0. -3.19618076e-01 0.
      -8.22870135e-01 -4.54689205e-01 1.24333873e-01 2.39299133e-01
      -1.44708395e-01 -5.98375916e-01 0. -3.50622565e-01 0.
      -2.02557892e-01 -4.80954051e-02 2.39299133e-01 2.38872275e-01
      -4.13735583e-02 -1.31445438e-01 0. -7.72904098e-01 0.
      -1.76970437e-01 -2.45404858e-02 2.38872275e-01 1.98043957e-01
      3.40455621e-02 -6.65704161e-02 0. -6.18396401e-01 0.
      -1.33365214e-01 -3.28660943e-02 1.98043957e-01 2.59326041e-01
      -4.44890738e-01 -5.21504104e-01 0. -6.08013809e-01 0.
      1.56722501e-01 7.51279816e-02 2.59326041e-01 1.98043957e-01
      -2.26857588e-01 -6.12888873e-01 0. -2.45802626e-01 0.
      -3.42651695e-01 -1.35559022e-01 1.98043957e-01 1.20654022e-02
      1.11490957e-01 1.11340679e-01 0. -4.18581292e-02 0.
      -1.13766670e-01 -3.80189195e-02 1.20654022e-02 -1.27572402e-01
      1.28456756e-01 1.58225656e-01 0. 2.92054683e-01 0. -3.23927641e-01
      -1.08251125e-01 -1.27572402e-01 9.37353149e-02 6.84645623e-02
      1.86655551e-01 0. 1.26849234e-01 0. -5.31043649e-01
      -2.03899071e-01 9.37353149e-02 -3.61935166e-03 9.06836912e-02
      2.71359414e-01 0. 2.68089950e-01 0. -7.47095227e-01
      -2.90451854e-01 -3.61935166e-03</_>
    <_>
      -1.35557353e-02 -1.50144830e-01 -3.59754682e-01 0. -1.52326301e-01
      0. 7.75949359e-02 7.44802058e-02 -1.35557353e-02 6.68177083e-02
      -6.37255982e-02 -2.97806431e-02 0. -1.71769127e-01 0.
      -2.03391954e-01 -3.66731770e-02 6.68177083e-02 1.95801109e-02
      6.13981858e-02 -1.43031897e-02 0. -1.89449370e-01 0.
      -3.06597501e-01 -1.68531418e-01 1.95801109e-02 2.23626181e-01
      1.61352288e-02 -2.21102629e-02 0. -2.96224415e-01 0.
      -1.55434564e-01 -9.60611477e-02 2.23626181e-01 2.64843017e-01
      4.87153418e-02 1.38683245e-01 0. -3.12376767e-01 0.
      -3.09745461e-01 -2.12071657e-01 2.64843017e-01 3.34437609e-01
      9.87318829e-02 1.39073402e-01 0. -3.14195395e-01 0.
      -2.99828708e-01 -1.56658962e-01 3.34437609e-01 4.25837070e-01
      6.62891641e-02 7.16085657e-02 0. -3.19407463e-01 0.
      -3.03265482e-01 -2.52163231e-01 4.25837070e-01 8.52537975e-02
      1.11284211e-01 2.34037057e-01 0. -2.81839937e-01 0.
      -3.03570867e-01 -3.16335917e-01 8.52537975e-02 1.46244168e-01
      4.92242947e-02 -5.32961041e-02 0. -2.39652663e-01 0.
      -2.21007317e-01 -8.23368728e-02 1.46244168e-01 -5.78999408e-02
      -1.83204049e-03 -1.12784825e-01 0. -1.44752294e-01 0.
      -3.98804784e-01 -2.10706115e-01 -5.78999408e-02 8.41973945e-02
      2.43117474e-02 5.58393188e-02 0. 5.01192659e-02 0. -1.65971071e-01
      -3.68001089e-02 8.41973945e-02 -5.51166991e-03 -2.13121146e-01
      -3.22072297e-01 0. 1.71831145e-03 0. 1.26514733e-01 1.45538434e-01
      -5.51166991e-03</_>
    <_>
      1.00145504e-01 3.75322998e-01 4.92227793e-01 3.22268577e-03
      -2.25155497e+00 0. -1.47319698e+00 -4.35057640e-01 1.00145504e-01
      2.49662980e-01 2.00042933e-01 4.15486127e-01 2.14845742e-04
      -3.39446776e-02 0. -3.03454041e-01 -6.66269008e-03 2.49662980e-01
      1.88359186e-01 -5.69629431e-01 -2.20986438e+00 4.72561456e-03
      -3.20830393e+00 0. 1.01681912e+00 3.87811214e-01 1.16797291e-01
      2.94851393e-01 1.77743852e-01 1.97960109e-01 3.15040990e-04
      -1.16126174e-02 0. 3.50165963e-01 1.36615440e-01 2.94851393e-01
      -7.53359720e-02 5.75503558e-02 1.64572954e-01 0. 2.34233037e-01 0.
      -1.43461302e-01 -1.33427363e-02 -7.53359720e-02 -6.62129745e-02
      6.23109750e-02 1.80087332e-02 0. 2.28274584e-01 0. -2.35346556e-01
      -6.68759346e-02 -6.62129745e-02 -6.62129745e-02 1.17088467e-01
      2.13827521e-01 0. 3.88944745e-02 0. 1.79213732e-01 8.26440603e-02
      -6.62129745e-02 -6.62129745e-02 -5.80051634e-03 -1.23968728e-01 0.
      -4.39096428e-02 0. -2.21539885e-01 -9.83992126e-03 -6.62129745e-02
      -1.42622739e-01 1.41405582e-01 2.00855553e-01 0. 2.95022815e-01 0.
      -2.53107280e-01 -8.45841467e-02 -1.42622739e-01 -4.26208705e-01
      8.41499195e-02 2.56426819e-02 0. 6.02535248e-01 0. -5.02427161e-01
      -1.67902827e-01 -4.26208705e-01 -6.09528273e-02 9.44704115e-02
      2.64474392e-01 0. 1.81169316e-01 0. -1.35922790e-01 3.63135934e-02
      -6.09528273e-02 -1.58307493e-01 1.80084873e-02 5.38880602e-02 0.
      6.63345635e-01 0. 1.32047515e-02 1.15105510e-01 -1.58307493e-01</_>
    <_>
      -1.66218758e-01 8.23506899e-03 2.46434025e-02 0. 6.43888533e-01 0.
      -2.60534048e-01 -3.85164991e-02 -1.66218758e-01 -1.00508593e-01
      3.60045023e-02 1.07739381e-01 0. 1.05437145e-01 0. -2.67786026e-01
      5.25746774e-03 -1.00508593e-01 -2.06528917e-01 4.64091673e-02
      -9.93866590e-04 0. 5.51745653e-01 0. -1.42966852e-01
      -7.21800849e-02 -2.06528917e-01 -7.08811432e-02 1.59078598e-01
      2.84715354e-01 0. 2.07965702e-01 0. -1.88650176e-01
      -4.34477143e-02 -7.08811432e-02 -1.40273243e-01 7.92540014e-02
      2.32148945e-01 0. 1.64435118e-01 0. 5.82950364e-04 3.47946733e-02
      -1.40273243e-01 -1.18901789e-01 1.05479389e-01 2.05192029e-01 0.
      1.46127194e-01 0. 2.79174984e-01 9.74235833e-02 -1.18901789e-01
      -1.34725899e-01 1.40991688e-01 3.32374334e-01 0. 2.01733768e-01 0.
      7.99956694e-02 4.94870804e-02 -1.34725899e-01 -1.34725899e-01
      9.50907990e-02 2.21091479e-01 0. 1.38575450e-01 0. 2.05805972e-01
      1.32971436e-01 -1.34725899e-01 4.28039312e-01 1.12502180e-01
      1.90910593e-01 0. 1.04770899e-01 0. -6.81340337e-01
      -2.42062598e-01 4.28039312e-01 2.77283400e-01 -3.98711599e-02
      -2.67595470e-01 0. -1.03843665e+00 0. -2.01754379e+00
      -1.33231413e+00 2.77283400e-01 4.98419076e-01 -1.56237692e-01
      -4.52471823e-01 0. 6.35005906e-03 0. 4.18490797e-01 2.21588895e-01
      4.98419076e-01 5.09431541e-01 -1.16982985e+00 -2.15503192e+00 0.
      -1.46829438e+00 0. -1.66342815e-03 1.10137478e-01 5.09431541e-01</_>
    <_>
      -7.47050270e-02 3.12921777e-03 9.36366990e-03 0. 2.29927227e-01 0.
      -1.01207340e+00 -2.96251923e-01 -7.47050270e-02 1.03560947e-01
      6.32330477e-02 1.89216524e-01 0. 1.31423920e-01 0. -1.35969770e+00
      -3.90991718e-01 1.03560947e-01 3.37841138e-02 -2.35884562e-01
      -9.02550757e-01 0. 2.92969525e-01 0. 6.92333639e-01 2.31365874e-01
      3.37841138e-02 1.48749381e-01 -2.07457647e-01 -8.15184236e-01 0.
      2.11457804e-01 0. 1.75886065e-01 7.83743858e-02 1.48749381e-01
      9.51242745e-02 1.02219604e-01 2.98239201e-01 0. 2.12366376e-02 0.
      -1.09649825e+00 -3.57565761e-01 9.51242745e-02 1.04247272e-01
      1.98395312e-01 4.25224721e-01 0. -7.20508695e-01 0.
      -7.70230949e-01 -2.70266294e-01 1.04247272e-01 1.04247272e-01
      -1.53214306e-01 -5.89473486e-01 0. -1.96091402e-02 0.
      1.33019701e-01 6.72070831e-02 1.04247272e-01 1.04247272e-01
      -2.82195717e-01 -9.40868914e-01 0. -6.34427607e-01 0.
      5.26659310e-01 2.40195379e-01 1.04247272e-01 1.12611085e-01
      1.57715589e-01 2.49662355e-01 0. -6.00141108e-01 0.
      -1.08714664e+00 -4.27646071e-01 1.12611085e-01 2.20186412e-02
      1.40097469e-01 1.93059862e-01 0. 2.45572940e-01 0. -1.25022686e+00
      -4.54291523e-01 2.20186412e-02 1.94280997e-01 -3.14775974e-01
      -8.89359474e-01 0. -3.90485108e-01 0. 5.74436665e-01
      2.73703247e-01 1.94280997e-01 9.69263315e-02 -2.55149215e-01
      -7.63500273e-01 0. 2.57786304e-01 0. 1.96644783e-01 1.38305917e-01
      9.69263315e-02</_>
    <_>
      -1.50336400e-01 1.83789004e-02 -5.73812425e-01 3.22268577e-03
      -8.67950976e-01 0. -7.81718493e-01 -2.47770756e-01 -1.50336400e-01
      2.98439503e-01 3.04938182e-02 -9.18701366e-02 2.14845742e-04
      -1.23332584e+00 0. 2.12928757e-01 1.65904164e-01 2.98439503e-01
      -6.36467338e-02 -8.63226503e-02 -8.37782800e-01 4.72561456e-03
      -9.12870347e-01 0. -6.20532334e-01 -1.80220619e-01 -1.35208622e-01
      2.65208751e-01 1.19084723e-01 2.24282555e-02 3.15040990e-04
      -1.33075392e+00 0. 9.25994217e-02 5.05414382e-02 2.65208751e-01
      2.31357336e-01 9.46449563e-02 2.75573432e-01 0. -1.44462347e+00 0.
      -2.74025023e-01 -5.69749288e-02 2.31357336e-01 3.38195674e-02
      1.47250876e-01 2.72181690e-01 0. -1.11934340e+00 0.
      -5.13808012e-01 -1.62566319e-01 3.38195674e-02 2.07054064e-01
      1.06141560e-01 1.81069881e-01 0. -1.58468473e+00 0. 2.11460754e-01
      9.34206247e-02 2.07054064e-01 6.83269575e-02 -1.85231008e-02
      -1.62039205e-01 0. -1.36290002e+00 0. 3.39003742e-01
      1.77483872e-01 6.83269575e-02 6.27187341e-02 8.23475569e-02
      2.41333041e-02 0. -5.52235126e-01 0. 3.93272340e-02 1.31423315e-02
      6.27187341e-02 -3.83474350e-01 -1.64976656e-01 -7.19834745e-01 0.
      1.08783253e-01 0. -7.40440071e-01 -2.47442886e-01 -3.83474350e-01
      1.06980048e-01 -1.59359481e-02 -6.59019276e-02 0. -8.12423944e-01
      0. 3.09452176e-01 1.85149714e-01 1.06980048e-01 -1.15573131e-01
      -1.38699248e-01 -4.15038884e-01 0. -2.47076377e-01 0.
      -8.25374603e-01 -1.65726185e-01 -1.15573131e-01</_>
    <_>
      3.94979566e-02 -6.89814538e-02 -2.06418782e-01 0. -1.36699947e-02
      0. -9.57821131e-01 -4.50373977e-01 3.94979566e-02 2.06726938e-01
      4.99521643e-02 1.49475798e-01 0. -2.50047922e-01 0.
      -9.06611621e-01 -3.12739581e-01 2.06726938e-01 1.36950105e-01
      -3.48717958e-01 -9.37026799e-01 0. 2.60836557e-02 0.
      -4.62059267e-02 -1.54412193e-02 1.36950105e-01 2.51915365e-01
      -2.51659691e-01 -7.97602654e-01 0. -1.76308170e-01 0.
      1.50500104e-01 6.98906556e-02 2.51915365e-01 -6.13030884e-03
      7.63676018e-02 2.20881030e-01 0. 1.87139213e-01 0. -6.07514322e-01
      -1.68421581e-01 -6.13030884e-03 2.33062985e-03 -8.68892074e-02
      -4.28455681e-01 0. 1.74790248e-01 0. 2.58973092e-01 9.83173624e-02
      2.33062985e-03 2.33062985e-03 -5.59378676e-02 -3.03931534e-01 0.
      1.82583869e-01 0. 1.77927703e-01 8.22142735e-02 2.33062985e-03
      2.33062985e-03 9.28755626e-02 1.71306193e-01 0. 1.73496872e-01 0.
      -8.27780783e-01 -2.22998649e-01 2.33062985e-03 1.20164976e-01
      -1.36500180e-01 -6.30743802e-01 0. -1.27522171e-01 0.
      3.68013054e-01 1.22983776e-01 1.20164976e-01 -7.20185265e-02
      -3.00040573e-01 -8.05193961e-01 0. 1.29380956e-01 0.
      1.10011391e-01 3.67639177e-02 -7.20185265e-02 2.01834887e-01
      6.50132820e-02 1.76327676e-01 0. -1.87751979e-01 0.
      -6.82766259e-01 -2.08436966e-01 2.01834887e-01 1.04480222e-01
      -3.90083119e-02 -1.16727039e-01 0. -1.10491812e-02 0.
      -6.27621233e-01 -3.61428350e-01 1.04480222e-01</_>
    <_>
      2.30494946e-01 6.51784837e-02 -2.13105381e-01 3.22268577e-03
      -3.89198452e-01 0. -1.31816328e+00 -7.83498108e-01 2.30494946e-01
      4.19369787e-01 3.72934341e-02 4.45096903e-02 2.14845742e-04
      -3.92739385e-01 0. -1.44363022e+00 -6.47724628e-01 4.19369787e-01
      3.33565205e-01 -7.33928680e-01 -1.40100193e+00 4.72561456e-03
      -2.51689941e-01 0. 2.76111275e-01 1.40279904e-01 2.62003332e-01
      4.58979070e-01 -6.12626910e-01 -1.44142246e+00 3.15040990e-04
      -2.63068169e-01 0. 1.10849611e-01 5.66400439e-02 4.58979070e-01
      -2.39508487e-02 3.06241643e-02 8.40011761e-02 0. 2.12424770e-01 0.
      -9.80744541e-01 -2.93148845e-01 -2.39508487e-02 -8.80701914e-02
      1.23243943e-01 2.00343385e-01 0. 2.49923140e-01 0. -1.97294816e-01
      -5.41597642e-02 -8.80701914e-02 5.81293963e-02 -1.94191530e-01
      -7.12808371e-01 0. 2.13365510e-01 0. 1.49106234e-01 7.25825056e-02
      5.81293963e-02 2.53572725e-02 5.95507957e-02 7.15868175e-02 0.
      2.53917605e-01 0. 4.46141213e-02 7.91039839e-02 2.53572725e-02
      -1.56439319e-01 1.37906909e-01 1.90386191e-01 0. 2.02444285e-01 0.
      -1.24678567e-01 -4.16654758e-02 -1.56439319e-01 -4.18664277e-01
      9.01512355e-02 4.36010435e-02 0. 4.58768129e-01 0. -1.88200563e-01
      -6.28934652e-02 -4.18664277e-01 3.15985717e-02 7.92484358e-02
      2.18924507e-01 0. 2.05562592e-01 0. -1.11691199e-01 4.44113277e-02
      3.15985717e-02 -7.42885321e-02 2.50039771e-02 7.48211369e-02 0.
      4.57416892e-01 0. -1.08475335e-01 7.15997070e-02 -7.42885321e-02</_>
    <_>
      4.18300390e-01 -2.43707858e-02 -7.29266703e-02 0. -6.00535035e-01
      0. -1.79989487e-01 -5.23845218e-02 4.18300390e-01 9.72072184e-02
      -2.38688886e-01 -5.59948266e-01 0. -2.44813755e-01 0.
      3.64219025e-02 2.73255669e-02 9.72072184e-02 5.35043515e-02
      -8.66307691e-02 -3.42541337e-01 0. -2.28742249e-02 0.
      -3.05864662e-02 -1.02217058e-02 5.35043515e-02 9.25746858e-02
      -4.20789897e-01 -5.93174398e-01 0. 5.79234548e-02 0.
      6.61165416e-02 2.52292100e-02 9.25746858e-02 1.55926675e-01
      -3.16168368e-01 -6.20281875e-01 0. 1.32135257e-01 0.
      1.24298595e-01 4.70724553e-02 1.55926675e-01 1.64387614e-01
