<?xml version="1.0"?>
<opencv_storage>
<opencv_ml_svm>
  <format>3</format>
  <svmType>C_SVC</svmType>
  <kernel>
    <type>LINEAR</type></kernel>
  <C>1.</C>
  <term_criteria><epsilon>1.0000000000000000e-02</epsilon>
    <iterations>1000</iterations></term_criteria>
  <var_count>108</var_count>
  <class_count>29</class_count>
  <class_labels type_id="opencv-matrix">
    <rows>29</rows>
    <cols>1</cols>
    <dt>i</dt>
    <data>
      0 1 2 3 4 5 6 7 8 9 10 11 12 13 14 15 16 17 18 19 20 21 22 23 24
      25 26 27 28</data></class_labels>
  <sv_total>406</sv_total>
  <support_vectors>
    <_>
      1.15778220e+00 1.02705643e-01 -3.23849767e-01 -5.49090862e-01
      -7.68128216e-01 -2.23291323e-01 -3.17238599e-01 1.68091714e-01
      1.29759407e+00 4.32204247e-01 -2.48383567e-01 -2.19905570e-01
      -7.20843747e-02 -2.48897508e-01 -1.12445898e-01 3.53065342e-01
      3.22727293e-01 7.85523832e-01 1.03720498e+00 1.60940871e-01
      2.28540555e-01 -3.21007103e-01 -5.66906154e-01 -5.34798741e-01
      -2.46631399e-01 1.80263713e-01 1.18349743e+00 1.41540214e-01
      1.98931724e-01 5.89933395e-01 1.59973383e-01 -3.08256477e-01
      -8.37222487e-02 -1.29164293e-01 -1.29403463e-02 1.27623379e-01
      -1.03030242e-01 -7.74017334e-01 -7.52489686e-01 -5.54832816e-02
      4.27966923e-01 -1.30401760e-01 8.68194550e-02 -2.13986598e-02
      1.94499195e-02 1.71044722e-01 -2.70775497e-01 -4.70206857e-01
      3.99600454e-02 5.14390171e-01 -3.69645059e-02 -2.24610955e-01
      -2.02397376e-01 8.86649787e-02 -6.51048064e-01 -1.00177646e-01
      4.77171749e-01 6.19265512e-02 6.08937263e-01 9.33673233e-03
      2.98824877e-01 4.52415971e-03 -5.95418632e-01 2.61604309e-01
      -3.93032163e-01 -3.48991364e-01 -2.52897944e-02 7.99586177e-01
      6.22343123e-02 2.73281932e-01 7.06197396e-02 2.43594185e-01
      2.16168121e-01 -2.70000964e-01 -7.66534591e-03 1.88609362e-01
      5.67635298e-01 8.37436616e-02 2.50540435e-01 1.29293695e-01
      4.07963485e-01 -4.10965830e-03 -1.62504733e-01 4.69914496e-01
      2.35816404e-01 8.00927937e-01 -1.87163323e-01 -1.41132742e-01
      -1.76559412e-03 9.57512856e-02 3.41749132e-01 3.60612348e-02
      1.26302123e-01 1.49842035e-02 -6.25314295e-01 1.75276455e-02
      -6.96316659e-01 -5.77236950e-01 2.64818490e-01 6.92657977e-02
      -3.02429914e-01 3.00692052e-01 -2.12727442e-01 2.18793273e-01
      -2.42977310e-02 -4.49337631e-01 -7.55481362e-01 6.92657977e-02</_>
    <_>
      -1.15816064e-01 -5.66928804e-01 -5.94279051e-01 9.51216668e-02
      9.22107875e-01 2.91336384e-02 -2.96609461e-01 -5.45106120e-02
      -3.51976790e-02 4.55024183e-01 -7.83286214e-01 -1.23178422e+00
      -4.48830239e-02 2.20447853e-01 -2.90610522e-01 -3.29212129e-01
      -2.37954527e-01 5.09364724e-01 3.00036848e-01 -1.85065851e-01
      -1.70600433e-02 1.66754499e-01 1.47501147e+00 4.11663741e-01
      -4.08385843e-01 -8.06405425e-01 1.98202446e-01 4.76977050e-01
      -2.51032799e-01 -2.01478496e-01 -1.70243397e-01 2.02540740e-01
      -8.81747380e-02 -3.79473031e-01 -9.24529254e-01 3.69297236e-01
      4.95621353e-01 -6.59148097e-01 -1.45358276e+00 -1.07052200e-01
      3.46281469e-01 -2.73954928e-01 -4.01747972e-01 -3.82374048e-01
      5.05093157e-01 1.92626879e-01 -7.54638314e-01 -1.13187802e+00
      -1.25776991e-01 3.72072041e-01 7.05408752e-02 3.48464578e-01
      1.58472881e-01 2.73155153e-01 -9.10893738e-01 -2.59050488e-01
      -2.28530422e-01 -3.47646117e-01 3.79373908e-01 -2.29648650e-01
      -3.67052823e-01 -4.50167030e-01 -8.34508002e-01 2.64473289e-01
      2.14584336e-01 6.32716835e-01 -3.89798395e-02 7.16044784e-01
      -5.66308871e-02 5.26380539e-02 -1.16884954e-01 2.18985394e-01
      2.59905338e-01 -2.16945440e-01 -9.23409536e-02 1.65859699e-01
      1.26510337e-01 1.72657147e-01 1.73134819e-01 1.30746827e-01
      3.79019380e-01 -2.02289581e-01 3.31589937e-01 1.15840828e+00
      4.27333236e-01 6.21960402e-01 1.02265827e-01 -1.70678981e-02
      -4.70162570e-01 -2.22149298e-01 1.60196826e-01 -2.19474733e-02
      2.94538110e-01 -9.13215578e-02 -1.04129863e+00 1.04040746e-02
      -9.24118310e-02 -2.99886689e-02 1.58877864e-01 -9.12366286e-02
      -7.69320846e-01 -2.42141113e-01 -4.14933145e-01 -5.54027617e-01
      7.31583405e-03 7.33269393e-01 -9.87470597e-02 -9.12366286e-02</_>
    <_>
      4.27452803e-01 1.29992947e-01 3.47282499e-01 -3.91462564e-01
      -2.04608649e-01 -4.67687756e-01 -1.04199815e+00 -5.29121697e-01
      4.98753041e-01 1.24254569e-01 -4.97546852e-01 -9.22489405e-01
      -2.29000263e-02 1.41939029e-01 -1.77477345e-01 -3.63494337e-01
      -1.24006324e-01 1.27127722e-01 -1.38346041e-02 4.97704297e-01
      7.60653138e-01 -2.50145942e-01 9.77147818e-02 -3.39269578e-01
      8.11027437e-02 -1.48739010e-01 6.86315522e-02 -2.99301296e-01
      3.50883722e-01 1.10955822e+00 1.48281276e-01 1.28680274e-01
      -2.10210532e-01 4.03427333e-02 -4.19657767e-01 -2.33106077e-01
      1.75147206e-01 -1.73844486e-01 -9.69787985e-02 3.37234815e-03
      8.58943045e-01 -2.00660210e-02 5.90247154e-01 1.38062254e-01
      3.10978681e-01 -1.01869866e-01 -3.77730548e-01 -4.86851841e-01
      -8.74957219e-02 1.56565353e-01 1.04951104e-02 1.79827526e-01
      -4.29250151e-02 -2.48496737e-02 -1.32288241e+00 -5.06844856e-02
      8.31159294e-01 9.27186850e-03 6.09300673e-01 1.62782799e-02
      8.34568977e-01 -1.49318755e-01 -1.27909184e+00 -8.48853663e-02
      -8.72011423e-01 -6.03514850e-01 -1.27654314e-01 1.66470096e-01
      -5.90133928e-02 3.84259403e-01 -2.69166499e-01 -1.61210269e-01
      5.07022679e-01 -5.00165582e-01 -9.97683585e-01 -1.22059852e-01
      -6.01122260e-01 -5.74526787e-02 -3.42526913e-01 -2.97627836e-01
      5.39725065e-01 6.90983534e-01 2.18935430e-01 3.78205299e-01
      -1.50752902e-01 5.66929206e-02 -2.46667907e-01 -3.33520800e-01
      -3.89433146e-01 6.59164906e-01 3.51472199e-01 -5.87155581e-01
      -8.84021997e-01 -2.17092916e-01 -2.41939831e+00 -2.92613715e-01
      -5.16123891e-01 -3.82321894e-01 3.45973879e-01 4.90459442e-01
      1.47937238e-01 1.44464495e-02 -2.78386295e-01 -7.54276752e-01
      -3.32627475e-01 2.03173429e-01 -6.13849275e-02 4.98002201e-01</_>
    <_>
      -4.46785718e-01 4.38127257e-02 1.04488969e+00 3.50323439e-01
      1.46897590e+00 -8.15388560e-02 -1.84833273e-01 -3.98186713e-01
      -4.40732598e-01 1.14192568e-01 -5.20956457e-01 -6.35029554e-01
      -1.01678390e-02 -2.14052424e-01 -4.19344455e-01 -9.00170207e-01
      -3.76436234e-01 1.55295178e-01 -5.37154913e-01 -1.69649556e-01
      2.21219674e-01 2.25105628e-01 2.31973743e+00 3.97318453e-01
      1.14869285e+00 -1.32608324e-01 -4.02961195e-01 -3.30104858e-01
      -2.89276123e-01 -2.82027692e-01 1.67588681e-01 1.91313997e-02
      -1.86444595e-01 -3.64279412e-02 -2.90838778e-01 -2.52147943e-01
      -8.48877132e-02 -6.60251141e-01 -6.02827013e-01 -1.07214443e-01
      2.53794134e-01 -2.42187589e-01 -4.39006835e-01 -5.04400969e-01
      -3.74175198e-02 3.00830364e-01 -6.53441310e-01 -9.57129538e-01
      -9.48039889e-02 -6.69067875e-02 -1.09813839e-01 2.99012631e-01
      6.78217262e-02 2.91331798e-01 -1.70113826e+00 -6.42535865e-01
      -4.80652079e-02 -4.11654264e-02 6.90788746e-01 -2.27849316e-02
      8.37220728e-01 1.26464948e-01 -1.59687448e+00 2.39741132e-01
      -2.33693898e-01 5.17980635e-01 -1.01221107e-01 7.65941679e-01
      -2.40336388e-01 3.56475204e-01 -2.20831916e-01 1.99509829e-01
      2.13579044e-01 -2.45791331e-01 -3.33301276e-01 2.22618446e-01
      9.18962359e-02 -1.07914358e-01 -4.02584635e-02 -1.75524488e-01
      2.15190485e-01 4.27733511e-01 1.10751975e+00 1.48839045e+00
      1.33226976e-01 3.45099062e-01 -4.76881742e-01 -1.15450299e+00
      -8.49828005e-01 4.28115100e-01 1.98670966e-03 -5.40128767e-01
      -4.75071341e-01 -9.17553529e-03 -1.36286771e+00 -1.72605753e-01
      -1.47633553e-01 -2.92271674e-01 1.98670966e-03 1.98670966e-03
      -1.41522199e-01 -6.13404112e-03 -3.10379446e-01 -7.82235861e-01
      -3.44214350e-01 -6.35244548e-02 -2.25146804e-02 1.98670966e-03</_>
    <_>
      4.59724158e-01 3.72083373e-02 -1.60437658e-01 -4.21789557e-01
      -8.63917321e-02 -4.30420637e-01 -3.89426619e-01 6.07825331e-02
      5.81384957e-01 -2.34964162e-01 -1.78995878e-01 5.43868951e-02
      8.55306685e-02 1.97816283e-01 -1.84589878e-01 3.46999496e-01
      1.91329241e-01 -2.17189297e-01 -1.88768879e-01 3.58167440e-01
      6.83626354e-01 -5.57121672e-02 1.01807192e-01 -1.45455375e-01
      -2.53655463e-01 -1.89361393e-01 -8.69404897e-02 -2.44971067e-01
      -1.72789916e-02 7.53012538e-01 1.75061539e-01 3.02312791e-01
      7.49845803e-02 5.86575031e-01 5.72335571e-02 -1.85616702e-01
      -1.15342125e-01 -2.90624082e-01 -1.54428765e-01 -9.89864171e-02
      -1.75298192e-02 -1.48055822e-01 -2.38859002e-02 -1.77670538e-01
      -1.12653837e-01 5.04829466e-01 -8.21389481e-02 -5.08887358e-02
      -1.22527577e-01 -9.19832513e-02 -1.74754038e-01 -1.62039533e-01
      -4.93392609e-02 3.96853119e-01 -6.72374189e-01 -3.74755859e-01
      3.17982733e-01 -2.45022867e-02 2.34987035e-01 4.60141292e-03
      9.70624447e-01 9.85688120e-02 -6.38417900e-01 2.89540976e-01
      -2.62986183e-01 2.80332305e-02 -2.60770559e-01 2.36680388e-01
      -1.80281520e-01 3.60685974e-01 -2.05998063e-01 2.19799578e-01
      1.28357935e+00 2.21359566e-01 3.79096359e-01 1.36358559e-01
      -6.92100644e-01 -2.03236923e-01 -5.71614265e-01 -2.87818432e-01
      9.94168758e-01 9.85628664e-01 6.24518692e-01 8.59377027e-01
      1.62242532e-01 -2.14686379e-01 -4.53076243e-01 -9.38584685e-01
      -5.80006778e-01 7.36649275e-01 5.80818236e-01 -2.73319960e-01
      -1.82541400e-01 -2.68827796e-01 -1.46578860e+00 -1.95738286e-01
      2.19404679e-02 -8.47059414e-02 4.96608168e-01 6.75608665e-02
      -8.51964831e-01 -5.62329471e-01 -4.69133645e-01 -7.20378816e-01
      -1.33189082e-01 5.38815498e-01 2.41889700e-01 1.84138775e-01</_>
    <_>
      -2.96043158e-01 -1.89023907e-03 4.78973329e-01 -1.68692559e-01
      9.35896277e-01 -1.32219316e-02 -4.78259236e-01 -2.24785998e-01
      -2.44516179e-01 -2.47995276e-02 -7.91961670e-01 -6.80689573e-01
      -2.54624456e-01 4.07490969e-01 -1.57361418e-01 -5.64246178e-01
      -3.12211394e-01 -2.82086711e-02 -2.53493071e-01 -3.67782712e-01
      -1.82955205e-01 -1.66722476e-01 1.33191812e+00 1.91064849e-01
      5.12714908e-02 -1.32328913e-01 -1.55467153e-01 2.85963714e-02
      -5.13405979e-01 -1.94189712e-01 -4.10544649e-02 5.69892287e-01
      -1.04838602e-01 -1.75653353e-01 -4.14129943e-01 6.81703165e-02
      1.99435949e-01 -6.37255073e-01 -5.19597709e-01 -4.52258438e-02
      5.23488700e-01 -2.70282716e-01 -1.64256021e-01 -2.07314759e-01
      2.89975256e-01 2.79780656e-01 -5.32213569e-01 -6.53458595e-01
      -9.57935005e-02 1.66743517e-01 -1.97417051e-01 2.35439762e-02
      6.89488798e-02 2.86227703e-01 -6.74111247e-01 -3.52469802e-01
      -1.34263828e-01 -1.32405803e-01 3.56224447e-01 -3.18488300e-01
      -2.29160190e-01 -2.84323364e-01 -7.26631999e-01 1.21398866e-01
      -3.87524724e-01 -2.89556980e-01 -2.47982681e-01 4.46428806e-01
      -1.88355163e-01 -2.85236984e-01 -4.21462834e-01 1.09754845e-01
      5.33038154e-02 -2.08977729e-01 -2.77956337e-01 1.27210662e-01
      6.04888380e-01 3.12997960e-02 -2.87773848e-01 -2.26846129e-01
      5.58433607e-02 -1.17861396e-02 4.96272534e-01 9.98097956e-01
      3.28033417e-01 1.32429683e+00 -2.02848744e-02 -4.48685616e-01
      -4.64356780e-01 -3.89385745e-02 5.58433607e-02 -4.28927630e-01
      -8.97161305e-01 -1.49226487e-01 -3.13375145e-01 2.30548158e-02
      -7.82878220e-01 -4.79987383e-01 5.58433607e-02 5.58433607e-02
      1.28191888e-01 -1.08783625e-01 -2.25333601e-01 -3.64123911e-01
      -1.43309325e-01 -4.56471831e-01 -1.55454814e-01 6.11763075e-02</_>
    <_>
      7.60221660e-01 1.32141516e-01 -3.37564707e-01 -1.22083753e-01
      -4.82021213e-01 -2.62266845e-01 -5.96545875e-01 1.05214305e-01
      7.37945974e-01 3.50988120e-01 2.45464072e-01 1.86059505e-01
      1.30128622e-01 4.57816243e-01 -6.29300952e-01 -4.76017952e-01
      -1.38467342e-01 9.57386941e-02 -1.08068727e-01 4.59083170e-01
      5.47263265e-01 1.39218792e-01 -3.19544412e-02 -2.49695070e-02
      -2.71573663e-01 -2.30839595e-01 -1.83765680e-01 -1.93860978e-01
      -2.33839244e-01 1.33060634e-01 -2.95561373e-01 5.52808642e-01
      -5.48188165e-02 6.36086464e-01 1.60837799e-01 -1.36416927e-01
      1.37367451e+00 -2.10183099e-01 -2.94718176e-01 -7.83093448e-04
      2.89839488e-02 -2.00746492e-01 1.43373460e-01 1.94283664e-01
      1.46401668e+00 -6.34266436e-02 -8.63864958e-01 -8.27419877e-01
      -1.34086758e-01 -3.50060046e-01 1.65018573e-01 4.77456778e-01
      1.38682455e-01 8.51921830e-03 2.19337955e-01 -3.73588830e-01
      3.96259010e-01 -2.55696088e-01 1.68251276e-01 -2.69262284e-01
      6.05486691e-01 1.71120150e-03 2.81803042e-01 1.26338199e-01
      -2.44024903e-01 7.16729164e-01 -1.58540830e-01 -2.05502257e-01
      -2.25884452e-01 1.40998110e-01 -7.94577003e-01 1.73203610e-02
      1.62220716e-01 -4.90154624e-01 -6.21293306e-01 1.35628194e-01
      2.50205785e-01 -4.20623571e-02 -2.69203316e-02 -1.65229306e-01
      1.34002671e-01 7.88932383e-01 -3.95078540e-01 -8.23015213e-01
      -2.37209052e-01 8.16469729e-01 -1.16082862e-01 -6.13572657e-01
      -3.22379738e-01 1.01239622e+00 3.26369882e-01 -2.65667826e-01
      -3.12094819e-02 -8.27371255e-02 -1.28701448e+00 -1.98682651e-01
      -2.65417457e-01 -4.70288038e-01 3.41175258e-01 3.67533505e-01
      2.66070552e-02 -3.00616443e-01 -2.52582580e-01 1.54774496e-02
      -1.74740449e-01 -1.27969325e+00 -9.99402583e-01 3.35785687e-01</_>
    <_>
      6.82971776e-01 4.66258645e-01 7.99255669e-01 -8.39277133e-02
      -6.93605125e-01 -6.17269456e-01 -5.56930006e-01 -2.89466027e-02
      8.42286646e-01 -5.02668440e-01 -5.96871197e-01 -4.96723801e-01
      -1.54785424e-01 -4.12424088e-01 -3.32144767e-01 3.46764833e-01
      1.13902994e-01 -4.86690521e-01 4.55432117e-01 4.61741090e-01
      7.27878034e-01 -7.64529407e-02 -1.62310138e-01 -3.26954424e-01
      -1.45043535e-02 -1.90747380e-01 6.84836030e-01 3.54210883e-02
      1.96385831e-01 6.52241051e-01 -6.55812100e-02 -3.40109736e-01
      -3.46564829e-01 4.32067096e-01 -5.26867732e-02 2.68997010e-02
      -1.63579598e-01 -7.54149377e-01 -4.08456564e-01 -8.82974118e-02
      1.26105797e+00 3.49862990e-03 3.33506018e-01 -4.86733206e-02
      -7.00955987e-02 8.49187523e-02 -5.06021559e-01 -3.09099317e-01
      1.20405043e-02 7.07483530e-01 -1.48221239e-01 -9.71976042e-01
      -9.24231291e-01 1.06618829e-01 -1.36807013e+00 -4.50456619e-01
      3.69065195e-01 -2.25197654e-02 4.91288841e-01 -7.59141669e-02
      4.18607682e-01 -2.33833656e-01 -1.34833932e+00 1.63654968e-01
      -9.10633564e-01 -3.25087517e-01 -2.68065989e-01 9.16127741e-01
      -1.12259589e-01 1.86382577e-01 -3.87945831e-01 1.20176986e-01
      4.21142578e-01 -4.51819211e-01 -9.19111729e-01 5.25498874e-02
      -5.40986717e-01 -2.32217655e-01 -6.61042094e-01 -7.89601982e-01
      3.65653962e-01 3.48300248e-01 1.90745622e-01 1.04575410e-01
      -1.43443570e-02 6.91101074e-01 -3.47344577e-01 -6.41708016e-01
      -7.25385904e-01 1.62160441e-01 4.31554049e-01 -4.37306911e-01
      -3.88918996e-01 -2.70207226e-01 -1.78621030e+00 -2.50473440e-01
      -3.44090313e-01 -5.54140687e-01 3.81598622e-01 3.92803878e-01
      -9.98462737e-02 -5.23781776e-02 -4.24593151e-01 -4.05027717e-02
      -1.00183070e-01 3.96773666e-01 -5.01424409e-02 3.89587909e-01</_>
    <_>
      1.87090978e-01 1.63673863e-01 3.62037152e-01 -2.17778623e-01
      -1.09303631e-01 -4.44557220e-01 -3.18360567e-01 -3.42530668e-01
      1.18458934e-01 2.91436583e-01 -5.23076952e-01 -5.62410355e-01
      -5.18258326e-02 1.35665849e-01 -5.25698423e-01 -2.29384586e-01
      -1.47365630e-01 2.35280514e-01 -7.98778087e-02 5.25410697e-02
      7.82724991e-02 -2.79140413e-01 2.03933477e-01 -5.67286074e-01
      3.17601234e-01 -1.20301560e-01 -6.06669001e-02 8.77276585e-02
      1.61781341e-01 6.38137162e-01 -5.36388345e-02 1.79205522e-01
      -3.40770841e-01 -1.25184329e-02 -2.81696111e-01 1.68098081e-02
      6.58199489e-02 -5.83064497e-01 -5.66773057e-01 -4.79469858e-02
      4.65362132e-01 -1.04756020e-01 2.52202302e-01 1.96250841e-01
      8.88514742e-02 1.21607743e-02 -4.49428618e-01 -4.11311328e-01
      -1.34075403e-01 7.08563745e-01 2.01769441e-01 -2.92727619e-01
      -3.02043378e-01 -4.23274143e-03 -1.23804903e+00 -1.50324419e-01
      6.54526711e-01 3.12406551e-02 6.18276536e-01 -3.75906527e-02
      6.32986069e-01 -9.48908255e-02 -1.24421108e+00 2.39358749e-02
      -1.08743238e+00 -2.29152963e-01 -7.76689127e-02 9.43569660e-01
      -9.69235133e-03 4.43071723e-01 -4.76185568e-02 -4.39225100e-02
      8.60674262e-01 -1.77151963e-01 -2.84946561e-01 -7.13952333e-02
      -6.79647744e-01 1.69855393e-02 -1.77386656e-01 -3.82003218e-01
      9.06706631e-01 8.16450179e-01 9.71795842e-02 -1.86395824e-01
      -3.13420773e-01 -1.86239079e-01 -3.87274414e-01 -5.04843056e-01
      -5.50776601e-01 9.58954453e-01 5.35622895e-01 -6.64553940e-01
      -1.83281377e-01 -3.10255051e-01 -2.26372337e+00 -3.26306283e-01
      -1.67565212e-01 -4.92533803e-01 5.70648730e-01 7.92857349e-01
      3.31839293e-01 5.16390443e-01 -6.19860291e-01 -9.20149744e-01
      -8.43045771e-01 -8.34399164e-01 -8.96221697e-01 7.36390054e-01</_>
    <_>
      -4.36090268e-02 6.81021214e-02 2.41655439e-01 -4.16798949e-01
      -1.35489285e-01 -3.13522279e-01 2.28498042e-01 1.89394474e-01
      1.41544580e-01 -2.76895881e-01 4.13117371e-02 2.81302303e-01
      1.31934404e-01 5.53361237e-01 -1.76002905e-01 -4.75816727e-02
      -1.13082759e-01 -3.10142457e-01 -9.34899151e-02 2.11322337e-01
      6.35234118e-01 -3.01884860e-02 -7.94356614e-02 -2.58317232e-01
      8.00954849e-02 -8.49239454e-02 9.67043862e-02 -3.03388804e-01
      -1.65331721e-01 1.82963789e-01 2.11673677e-01 6.64903939e-01
      1.62075803e-01 8.42255712e-01 2.17270225e-01 -2.30567262e-01
      2.10078016e-01 -1.06029741e-01 -1.51065201e-01 -1.74788330e-02
      3.39008242e-01 -1.47023320e-01 -2.77375489e-01 -2.93391854e-01
      9.30708200e-02 4.35291767e-01 -6.04533792e-01 -7.76940584e-01
      -2.61405379e-01 4.99150634e-01 -2.90693134e-01 -8.36100504e-02
      4.06544320e-02 4.06186968e-01 -6.24930978e-01 -6.00989699e-01
      -1.73285067e-01 1.70391306e-01 4.12495613e-01 1.07380480e-01
      8.34726810e-01 2.59617895e-01 -4.93549049e-01 5.98310888e-01
      -4.94095445e-01 -2.06111610e-01 2.76097935e-02 5.97432435e-01
      -2.49540552e-01 -2.99380481e-01 -5.82347870e-01 5.76668561e-01
      9.18339491e-01 -3.50776076e-01 -3.35597396e-01 -1.42047569e-01
      -3.93964380e-01 -2.38960549e-01 6.62163571e-02 -1.30771287e-02
      9.60502863e-01 3.78106236e-01 1.71732128e-01 6.74640417e-01
      1.05168493e-02 -3.45337600e-01 -4.03721750e-01 -7.16432035e-01
      -7.41623104e-01 3.96457106e-01 1.01128137e+00 -2.10478336e-01
      -1.61387607e-01 -3.55931781e-02 -1.38459671e+00 -3.39089066e-01
      -2.15518594e-01 -4.00302529e-01 1.01634586e+00 4.20777559e-01
      2.93183386e-01 3.04478198e-01 -3.20370167e-01 -6.81255639e-01
      -5.51825464e-01 -6.93918318e-02 -6.32068872e-01 1.33659229e-01</_>
    <_>
      8.43715854e-03 -4.02610004e-02 -2.98441112e-01 -2.14927811e-02
      -2.54964530e-01 -1.11784182e-01 -1.01777506e+00 -2.41816148e-01
      3.43192592e-02 1.85418993e-01 -1.14914574e-01 -5.23940697e-02
      -5.24404496e-02 1.93596378e-01 -1.85411051e-02 -6.71078861e-01
      -2.95719922e-01 2.17467591e-01 -1.79840460e-01 2.35037684e-01
      2.73559272e-01 1.95182517e-01 6.30165160e-01 1.54067233e-01
      -4.92022008e-01 -6.61705017e-01 -1.87317878e-01 9.73188505e-02
      1.25720710e-01 3.97570521e-01 5.45038022e-02 8.26086998e-01
      1.67819127e-01 3.03929895e-01 -1.93739623e-01 1.39323294e-01
      4.21316661e-02 -5.56063056e-01 -8.74343634e-01 -1.38774380e-01
      5.34925163e-01 -9.42105427e-02 -4.55538854e-02 1.08637728e-01
      1.22882791e-01 9.12506357e-02 -1.11606884e+00 -1.64849639e+00
      -9.76304337e-02 8.17037940e-01 5.54706641e-02 1.28142089e-01
      -1.13953210e-01 1.06700212e-01 -6.83236361e-01 -6.91636920e-01
      -6.25147223e-01 -1.31092235e-01 7.89496660e-01 9.89652723e-02
      7.18184829e-01 2.75643736e-01 -4.68855172e-01 1.15107849e-01
      -6.90017521e-01 -5.05407870e-01 -1.26249835e-01 1.16657794e+00
      7.38849714e-02 4.22617197e-01 -1.53680488e-01 7.97164291e-02
      2.85533875e-01 -6.66075349e-01 -1.13948143e+00 5.84274381e-02
      4.27727461e-01 2.06731960e-01 -5.63620441e-02 -2.94852346e-01
      2.47870103e-01 3.73608619e-01 -1.64761007e-01 3.42701152e-02
      -2.95574591e-02 2.77088821e-01 -1.28087223e-01 -6.31688952e-01
      -7.06703842e-01 2.70380199e-01 4.65141654e-01 -2.70412385e-01
      -7.00213253e-01 -1.54441878e-01 -8.42394173e-01 5.54670170e-02
      1.15428366e-01 -3.47132653e-01 5.03564358e-01 4.66132522e-01
      -5.26436269e-01 -6.06418312e-01 -4.73673224e-01 -7.12724924e-01
      -8.91036019e-02 4.64164883e-01 -4.50815372e-02 5.16456962e-01</_>
    <_>
      3.13271880e-01 6.69863760e-01 8.07840347e-01 -1.54948920e-01
      -8.62635672e-02 -4.05161083e-01 1.01022080e-01 1.32551014e-01
      3.06811094e-01 7.89295584e-02 -1.62650764e-01 -4.34739321e-01
      -3.30043614e-01 -2.18668967e-01 -5.44959307e-01 -1.87746242e-01
      -1.70331016e-01 2.36038845e-02 -2.74623394e-01 2.91892827e-01
      2.49896035e-01 -3.83148760e-01 3.04993749e-01 7.66609516e-03
      7.82232583e-01 4.15579498e-01 -1.39566019e-01 -4.78028476e-01
      5.41067533e-02 2.94283569e-01 -1.06370725e-01 6.64919019e-01
      1.38041805e-02 9.23584580e-01 1.11245081e-01 -4.11930650e-01
      1.08502400e+00 -4.27407801e-01 -4.49727416e-01 -1.78187072e-01
      1.97849020e-01 -1.60984695e-01 2.87974298e-01 1.18412234e-01
      1.34209418e+00 5.70432246e-01 -2.62248874e-01 -3.19238633e-01
      -1.76049516e-01 -5.52697003e-01 -5.23362279e-01 -8.10361445e-01
      -3.18276852e-01 4.96805400e-01 -1.80479062e+00 -3.15918684e-01
      4.37778533e-01 -7.94285610e-02 7.49851525e-01 3.05150375e-02
      1.19150007e+00 -1.07442878e-01 -1.75176501e+00 -1.20130472e-01
      -1.21273719e-01 7.77525663e-01 -2.20863834e-01 5.75382888e-01
      -1.13781437e-01 1.15555994e-01 -4.12452668e-01 -1.63040727e-01
      2.83980370e-01 -2.39486005e-02 9.15328860e-02 1.15148611e-01
      -9.24764276e-01 -7.13754654e-01 -1.09147096e+00 -6.21355295e-01
      1.74056336e-01 1.44214153e-01 -3.07090878e-01 1.68846413e-01
      -1.28518557e-02 1.40763056e+00 -9.49531347e-02 1.66630462e-01
      -3.43604326e-01 6.78197667e-02 2.48144493e-01 -3.88357341e-01
      -4.03904974e-01 -1.78648993e-01 -1.01194346e+00 -1.05043158e-01
      -2.90839583e-01 -2.86183387e-01 1.88349605e-01 1.73275471e-01
      -8.56754601e-01 -1.05390179e+00 -4.53420728e-01 3.81446958e-01
      7.93802664e-02 1.18391943e+00 4.78065878e-01 1.73275471e-01</_>
    <_>
      -2.17217147e-01 -1.36745080e-01 8.12142566e-02 8.57396945e-02
      2.14167938e-01 -1.54093027e-01 -4.53601629e-01 -6.45016730e-02
      -2.49696031e-01 -1.20842047e-01 -2.96171546e-01 -3.36389273e-01
      1.94817141e-01 5.56748509e-01 -1.51709348e-01 -1.61174023e+00
      -4.37715292e-01 -1.26700044e-01 -2.69944698e-01 -3.21764618e-01
      -3.50873947e-01 -1.39682323e-01 2.85711259e-01 1.10398896e-01
      1.32436752e+00 5.58264256e-01 -1.28011391e-01 -1.39217481e-01
      1.33171290e-01 7.63831556e-01 3.00656687e-02 2.12388337e-01
      -8.89992341e-02 7.94767976e-01 1.82502225e-01 -1.05997659e-01
      -4.63497639e-01 -3.63956451e-01 -6.64995193e-01 1.39931008e-01
      1.75778675e+00 2.54966989e-02 -4.40904081e-01 -1.08407021e-01
      -2.99214005e-01 -6.59841299e-02 -5.35113871e-01 -1.37228978e+00
      -6.45466819e-02 4.04528081e-01 4.61139902e-02 3.63935351e-01
      4.25721496e-01 -5.93495257e-02 -1.82258511e+00 1.83934689e-01
      7.84989834e-01 1.64373189e-01 1.20178115e+00 6.43255338e-02
      6.93499327e-01 -7.38468021e-02 -1.82217157e+00 4.51421142e-02
      1.37314489e-02 4.55756843e-01 -4.33426239e-02 8.24870050e-01
      -1.84517145e-01 -2.35253647e-01 -5.49429178e-01 5.78902364e-02
      -1.32218570e-01 -1.22634344e-01 -6.15758419e-01 4.53222953e-02
      -3.57202590e-02 1.97345410e-02 1.10277630e-01 1.32412136e-01
      -1.26232564e-01 -1.74551681e-01 8.36927772e-01 9.33217645e-01
      3.72570395e-01 1.63698947e+00 5.83067462e-02 -2.30689213e-01
      -3.36073399e-01 -1.91780195e-01 -8.87938514e-02 -2.51243889e-01
      -2.74724960e-01 -1.67885423e-01 -1.48614514e+00 -1.72874138e-01
      -4.39283311e-01 -4.09882277e-01 -8.94521326e-02 -1.40349820e-01
      5.96134841e-01 9.12240088e-01 -9.03984159e-02 -4.24255639e-01
      -9.42816064e-02 1.00106671e-01 -1.63221553e-01 -1.56178758e-01</_>
    <_>
      7.33330429e-01 4.25096512e-01 2.92607486e-01 2.79677473e-03
      -5.70947647e-01 -4.90654320e-01 -5.73886871e-01 -1.89814329e-01
      5.43670416e-01 2.48294234e-01 -3.37435246e-01 -9.84865606e-01
      -1.00943983e-01 -2.97120929e-01 -6.74377918e-01 -9.81118858e-01
      -5.15578687e-01 1.17552258e-01 5.58710814e-01 -7.86152780e-02
      -2.89487928e-01 -2.89026648e-01 -1.10339280e-03 -3.25087458e-01
      4.74137902e-01 1.81020036e-01 5.37379444e-01 5.25191985e-02
      3.05274814e-01 3.48816007e-01 -1.32018430e-02 -1.93915203e-01
      -5.31226277e-01 -4.13045892e-03 -1.89046621e-01 -3.37863900e-03
      7.43381619e-01 -5.45752287e-01 -1.04889977e+00 -1.32917181e-01
      2.90591680e-02 -3.95808905e-01 -5.11932075e-01 -1.49102896e-01
      5.84976435e-01 1.82281762e-01 -5.87291002e-01 -1.16724026e+00
      -1.54347509e-01 1.42069951e-01 -2.47400075e-01 7.88001940e-02
      1.87428847e-01 1.60174310e-01 -1.36961961e+00 5.83620489e-01
      1.32856488e+00 2.56203234e-01 2.02420160e-01 -4.95639145e-01
      -5.03301084e-01 -5.14920115e-01 -1.44334614e+00 1.47776231e-01
      3.59404802e-01 1.08469725e+00 5.48329204e-02 9.62059677e-01
      -5.38513124e-01 -9.51712787e-01 -7.37830102e-01 1.13506056e-01
      8.37522671e-02 -6.49088979e-01 -1.14166307e+00 5.90502955e-02
      4.58756059e-01 -7.76594728e-02 2.43415639e-01 1.62645504e-01
      1.05191454e-01 -1.10582754e-01 -5.42484760e-01 -3.25646520e-01
      8.83834660e-02 1.36875415e+00 -2.53833979e-02 2.58662760e-01
      -1.27416134e-01 -1.41624108e-01 9.91682112e-02 -3.80746335e-01
      -4.30142432e-01 -3.24924678e-01 -1.43153691e+00 -1.97760567e-01
      -3.32853645e-01 -1.53356254e-01 8.96037593e-02 4.69835959e-02
      -1.06823735e-01 -2.23000497e-01 -5.43530405e-01 2.48370960e-01
      1.87799454e-01 1.30698311e+00 7.43120849e-01 4.69835959e-02</_>
    <_>
      3.10999006e-01 1.22799002e-01 4.05360758e-01 1.22522586e-03
      -4.08485867e-02 -4.25910652e-01 -1.17006028e+00 -2.39148870e-01
      4.33980882e-01 4.16571617e-01 -2.07288742e-01 -1.96877196e-01
      -9.11122486e-02 -1.86415389e-02 -2.06877738e-01 -6.83364153e-01
      -3.78462106e-01 3.35082680e-01 3.63662660e-01 -3.84227842e-01
      -6.90655470e-01 3.92499007e-02 1.85472608e-01 -1.88839659e-01
      -8.32454637e-02 2.65971363e-01 4.96073514e-01 1.49994403e-01
      -3.43400359e-01 -5.14276206e-01 7.19702542e-02 4.94929343e-01
      -3.02394927e-01 -3.58551621e-01 -4.65431988e-01 1.33713633e-01
      4.71975327e-01 -3.97200853e-01 -6.21255040e-01 -1.50641024e-01
      -3.48787270e-02 -3.76975276e-02 -3.88777852e-01 -4.60216820e-01
      3.40265930e-01 2.75902212e-01 -3.97981495e-01 -1.02935362e+00
      -5.23335151e-02 -8.97554681e-02 2.02234596e-01 -1.06711745e-01
      4.43689153e-02 2.05173865e-01 -4.31785762e-01 -4.19953346e-01
      -2.35915661e-01 -3.55894640e-02 5.54898024e-01 -1.49832487e-01
      -2.16604948e-01 -6.02889180e-01 -5.55335879e-01 4.48330790e-01
      -2.57010758e-01 1.22173652e-01 -2.47664854e-01 2.50397503e-01
      -3.46953720e-02 -1.00751922e-01 -3.39470625e-01 3.62725765e-01
      6.95422292e-01 -2.22104952e-01 -9.49275553e-01 4.47886884e-02
      -4.48166579e-01 5.20294765e-03 -5.77264786e-01 -2.82422215e-01
      7.06542671e-01 4.10252631e-01 -3.16929072e-01 -3.48895758e-01
      2.66882628e-01 9.02005494e-01 -2.97377370e-02 -8.21641445e-01
      -7.00046420e-01 4.35674608e-01 5.61236560e-01 -4.48842466e-01
      -6.48379266e-01 -3.61868829e-01 -1.93667018e+00 -1.83502540e-01
      5.59637584e-02 -1.07031368e-01 6.08636975e-01 5.05776823e-01
      -1.04961836e+00 -9.10246253e-01 -4.24751520e-01 -4.16167676e-01
      -3.08043569e-01 -1.34429514e-01 -2.77803451e-01 6.14788055e-01</_>
    <_>
      4.50532287e-01 -1.25454903e-01 3.03728193e-01 -2.85135031e-01
      -2.38657236e-01 -3.07940930e-01 -2.20465198e-01 -1.82921365e-01
      3.53856206e-01 8.23274348e-03 -3.09705645e-01 -4.20255840e-01
      -2.54974782e-01 -6.67257011e-02 -4.52559710e-01 -3.94879311e-01
      -5.00474796e-02 8.47939327e-02 8.76825154e-01 1.55288458e-01
      3.87912065e-01 -1.45529762e-01 -6.39112145e-02 -5.07226348e-01
      1.84755921e-01 -3.52490783e-01 6.28742576e-01 1.22782208e-01
      -2.00129151e-02 5.86701818e-02 -4.58916694e-01 -1.61383063e-01
      -6.24139011e-01 4.27500904e-02 -1.70941837e-02 2.71753430e-01
      7.54547477e-01 -5.42209923e-01 -7.72828758e-01 -4.70635682e-01
      -2.54853040e-01 -7.52648190e-02 3.52596939e-01 2.70428509e-01
      8.36334765e-01 9.39460039e-01 -5.71567416e-01 -8.94538224e-01
      -4.13892597e-01 -4.46760952e-01 1.15711312e-03 2.49155790e-01
      3.58957022e-01 9.44474995e-01 1.28954917e-01 4.00670171e-02
      4.27717298e-01 -2.93766409e-01 -2.29730949e-01 -4.21211094e-01
      -3.58229056e-02 -1.04247563e-01 1.58492610e-01 8.39047372e-01
      2.43138760e-01 3.80151093e-01 -1.47636086e-01 -3.36928815e-01
      -4.13364857e-01 -5.42669296e-01 -7.64138281e-01 6.46708310e-01
      1.02605805e-01 -2.68755257e-01 -3.58032525e-01 -6.83175102e-02
      -5.52580655e-01 -9.54265222e-02 -5.06993458e-02 -1.11728631e-01
      1.14894666e-01 4.33522046e-01 6.20828032e-01 9.58457530e-01
      9.75324810e-02 -7.00820908e-02 -2.58452445e-01 -3.89421165e-01
      -6.07881129e-01 2.49127567e-01 2.13551834e-01 -1.01581896e-02
      4.38652784e-02 -4.32632007e-02 -1.66524494e+00 -3.03607583e-01
      -4.73541498e-01 -5.82504630e-01 1.75553456e-01 2.19989866e-01
      -1.57810360e-01 -1.91878080e-02 -2.68517911e-01 -5.08023918e-01
      -2.94501781e-01 5.61816096e-01 1.75992653e-01 2.80869782e-01</_>
    <_>
      2.57505447e-01 1.46308586e-01 1.84430003e-01 -4.09096181e-02
      -7.56520629e-02 1.46683883e-02 -3.81141931e-01 -1.35131285e-01
      2.26208687e-01 -1.97821200e-01 -1.28967479e-01 -6.68756142e-02
      -3.34208943e-02 -1.15016282e-01 -7.04838708e-02 -5.06450534e-01
      -2.95081526e-01 -2.28744000e-01 1.90202713e-01 -7.20853582e-02
      -3.63914743e-02 7.81516954e-02 2.76047364e-02 6.01089466e-03
      3.37095767e-01 1.27358899e-01 3.17368418e-01 -1.50032610e-01
      -2.93507904e-01 -1.35194585e-01 1.52182207e-01 7.41470218e-01
      7.27589950e-02 2.64651507e-01 2.43144706e-02 -1.39713749e-01
      -3.67867500e-01 -8.93938765e-02 8.31618458e-02 4.69879359e-02
      7.12672234e-01 -1.64258610e-02 -2.10979208e-01 -2.23168284e-01
      -4.17439699e-01 -1.37494311e-01 2.88391821e-02 1.48965701e-01
      6.95053190e-02 1.04564869e+00 5.53464964e-02 1.51765317e-01
      -5.95855862e-02 -1.37494311e-01 -5.10348141e-01 -5.40605411e-02
      2.58004308e-01 9.84432623e-02 1.14534020e+00 1.60149589e-01
      3.47083330e-01 3.93061899e-02 -4.90590543e-01 -1.48547843e-01
      3.40508074e-02 2.84413189e-01 5.08990698e-02 1.07429969e+00
      1.24803089e-01 2.64095813e-01 -3.66857760e-02 -1.47284299e-01
      -4.94922064e-02 -6.99290931e-02 5.56033803e-03 3.79414223e-02
      5.26888788e-01 -1.83800943e-02 5.88154830e-02 -5.71187809e-02
      -4.94922064e-02 5.12447469e-02 5.66696599e-02 4.71144557e-01
      5.56294024e-02 1.06676348e-01 -5.85572682e-02 -3.00611645e-01
      -1.02535345e-01 5.99372312e-02 -4.94922064e-02 -2.67006367e-01
      -3.68486732e-01 -3.18276733e-02 -6.42435700e-02 -3.69306244e-02
      -9.92313609e-04 -7.03260228e-02 -4.94922064e-02 2.34315664e-01
      1.87913177e-03 5.19802235e-02 -8.50154757e-02 -4.64750201e-01
      -1.57590479e-01 -1.77907586e-01 6.44807592e-02 3.08626473e-01</_>
    <_>
      1.20688760e+00 3.29832226e-01 3.55831891e-01 -2.38175884e-01
      -1.68881118e-01 -4.04829621e-01 -2.04851866e-01 1.59007400e-01
      1.15478861e+00 3.90582979e-01 -1.81809947e-01 -5.97490191e-01
      -5.58139496e-02 -1.50318176e-01 -6.83247298e-02 -1.08778216e-02
      7.08423480e-02 3.10645521e-01 3.50357711e-01 5.43348677e-02
      -7.20213875e-02 -2.30612770e-01 -1.55191198e-02 -2.45840222e-01
      -4.77773309e-01 -1.76549599e-01 3.96544158e-01 -7.43411947e-03
      -1.26446053e-01 3.89555953e-02 1.29037082e-01 -1.59133822e-01
      -1.93784311e-01 -3.11260611e-01 -4.57490057e-01 -3.72200087e-03
      7.83201635e-01 -3.79207194e-01 -1.10569358e+00 -9.09328014e-02
      3.47091585e-01 1.30959079e-01 5.58270574e-01 2.25676611e-01
      7.79619336e-01 3.79699290e-01 -4.09537941e-01 -8.38225305e-01
      -1.14817120e-01 3.95741314e-01 -5.94891310e-02 -2.19340801e-01
      -4.55985963e-02 3.52757663e-01 -2.37927943e-01 -1.39115736e-01
      1.10683426e-01 -1.35322735e-01 -5.64313531e-02 -1.98861092e-01
      -1.66876525e-01 -3.98638815e-01 -2.30272904e-01 8.69523063e-02
      -5.51548600e-01 -4.82184798e-01 -4.13472354e-01 -3.52086611e-02
      -6.64815381e-02 -3.33689481e-01 -5.75457156e-01 5.17758578e-02
      7.81648636e-01 -3.38604659e-01 -7.25811362e-01 8.86151791e-02
      4.69147302e-02 -1.52223855e-02 -5.82317486e-02 1.31315039e-02
      8.05517495e-01 5.84958434e-01 -2.59489387e-01 -1.60698727e-01
      -1.57748893e-01 1.10751107e-01 -4.69261892e-02 -1.38089955e-01
      -2.87818044e-01 7.88134217e-01 2.30279148e-01 -1.11216761e-01
      -3.59902740e-01 -2.66982019e-02 -1.21961474e+00 2.69600376e-02
      -3.72717679e-01 -4.22206968e-01 2.09318206e-01 2.66275018e-01
      -9.17309225e-01 -6.50167048e-01 -3.56007695e-01 -2.13254139e-01
      -2.75530845e-01 1.22757129e-01 -2.85824239e-01 3.81404459e-01</_>
    <_>
      5.92690170e-01 6.65482581e-02 -1.48898348e-01 -4.39122438e-01
      -5.63266277e-01 -1.99629679e-01 5.93562089e-02 -3.90646644e-02
      4.41945076e-01 8.57640445e-01 1.23481480e-02 -3.58968377e-02
      -1.98381752e-01 -4.67356294e-01 -4.94356640e-02 5.31465530e-01
      3.33172500e-01 1.05178654e+00 7.37930119e-01 4.47452992e-01
      7.04457462e-01 -7.56225288e-02 -4.35580127e-02 -3.37350875e-01
      -4.60674703e-01 -5.08980691e-01 3.29503208e-01 3.83633554e-01
      4.45909381e-01 9.40771580e-01 -1.15791652e-02 -5.86544201e-02
      -1.34184644e-01 -3.92713130e-01 -2.34756157e-01 2.02206776e-01
      1.19708145e+00 9.11154971e-02 -1.88042447e-01 -2.84584373e-01
      -4.02334571e-01 -1.70893706e-02 5.52096903e-01 3.28924119e-01
      1.26385951e+00 1.49662107e-01 2.30144337e-02 -1.36720270e-01
      -1.31094798e-01 -5.22028506e-01 -1.31293148e-01 3.13593657e-03
      6.09588362e-02 3.99699286e-02 4.40755785e-01 2.56577581e-01
      2.39873126e-01 -3.61616462e-01 1.38207870e-02 -3.27824801e-02
      2.75855094e-01 1.48524448e-01 4.05500233e-01 3.31305534e-01
      -1.53029442e-01 -2.32607797e-01 -2.99340665e-01 2.01016665e-03
      5.88883683e-02 3.33168447e-01 1.01153888e-01 2.95235902e-01
      -1.96633443e-01 2.54114401e-02 3.38744164e-01 1.27694875e-01
      2.79402971e-01 2.24987213e-02 1.50026590e-01 -1.70804098e-01
      -1.97014883e-01 -1.40095472e-01 -1.87661305e-01 3.32616448e-01
      2.26049930e-01 1.14899695e+00 -3.73532400e-02 2.08011925e-01
      -4.20435965e-01 -1.40095472e-01 1.81776211e-01 -1.28891706e-01
      2.77122706e-02 6.30743429e-02 -3.22004199e-01 9.89316404e-02
      3.05839241e-01 -4.91334349e-02 1.81776211e-01 1.49598777e-01
      -7.77972341e-02 1.77411824e-01 1.44167349e-01 7.36646712e-01
      1.66552082e-01 7.27281749e-01 1.43096700e-01 1.49598777e-01</_>
    <_>
      1.22366726e+00 7.44477808e-02 -8.38234067e-01 -8.51904511e-01
      -9.35089231e-01 -5.55821061e-01 -6.85153842e-01 1.82718355e-02
      1.27665162e+00 6.38703227e-01 -2.09536720e-02 -3.46162505e-02
      -7.30604026e-03 4.21523571e-01 -3.80890042e-01 1.09877452e-01
      2.12427139e-01 6.06915355e-01 6.49344742e-01 4.64128494e-01
      2.54278213e-01 -3.07966352e-01 -5.62305868e-01 -6.51702821e-01
      -6.94518983e-01 -1.75602451e-01 6.92218363e-01 9.20708701e-02
      2.11466417e-01 6.65911138e-01 -1.71531916e-01 3.37026864e-01
      -1.40257880e-01 3.00691426e-01 -2.02668384e-01 1.78833470e-01
      1.17269552e+00 -3.18421632e-01 -2.92969823e-01 -2.95155287e-01
      5.50847054e-01 -2.92251669e-02 5.43133557e-01 3.06589812e-01
      1.24420893e+00 1.12425692e-01 -2.10897937e-01 -1.85913906e-01
      -1.02301322e-01 4.21688139e-01 2.40580905e-02 4.90714788e-01
      3.10624301e-01 1.97888538e-01 -7.93583244e-02 -2.42665112e-01
      3.16845298e-01 -1.29394323e-01 5.33951163e-01 -1.56576615e-02
      6.30935073e-01 -4.86416042e-01 -4.73128296e-02 -1.21258914e-01
      1.58144221e-01 7.64051080e-01 6.35484233e-02 4.97642368e-01
      -5.22441454e-02 5.68578303e-01 -4.32552278e-01 -1.92860499e-01
      7.16972589e-01 2.45958775e-01 7.50444904e-02 -7.63063356e-02
      -4.38815922e-01 -1.20906092e-01 3.00574422e-01 1.58552676e-01
      7.68324375e-01 3.10265630e-01 -1.13826558e-01 6.38358891e-01
      5.31632639e-02 1.57633483e-01 -6.09699637e-02 -1.01427622e-01
      -6.22962594e-01 3.66577655e-01 2.90974855e-01 1.89313442e-01
      2.81697333e-01 -2.18739301e-01 -2.09109020e+00 -3.25273871e-01
      1.71232790e-01 -2.10505947e-01 2.20404848e-01 1.38772741e-01
      -5.33126175e-01 -9.75659266e-02 -4.73950118e-01 -7.00815976e-01
      -4.14190710e-01 -1.20331332e-01 -7.35470712e-01 1.85225204e-01</_>
    <_>
      7.47166097e-01 -1.14469445e+00 -1.09117317e+00 1.09914839e-01
      1.96666038e-03 -3.89866233e-01 -6.06449425e-01 -9.02350023e-02
      9.03161526e-01 1.18728101e-01 -1.08150989e-01 -5.85719049e-02
      1.83998942e-01 7.27562249e-01 -1.24278098e-01 4.24316674e-02
      -3.20233285e-01 -1.33749461e-02 -7.53049850e-02 4.47378725e-01
      7.88625717e-01 2.91751415e-01 2.73835242e-01 -1.31095544e-01
      -2.28438839e-01 -7.57440507e-01 -2.65788525e-01 -2.25216016e-01
      4.86478120e-01 1.17071414e+00 2.53196836e-01 7.66136825e-01
      4.87331972e-02 3.65193427e-01 -1.71427175e-01 -1.02505006e-01
      1.53205425e-01 -9.73230377e-02 4.24214080e-02 -5.70988208e-02
      2.94754267e-01 2.84172893e-02 1.81206644e-01 -2.62357086e-01
      2.48044133e-01 8.65319848e-01 -3.30698848e-01 -7.88619101e-01
      -2.06395313e-01 3.33312064e-01 6.82867225e-03 -4.11981553e-01
      -2.15075016e-01 9.45639372e-01 -9.16155338e-01 -5.90702221e-02
      4.85497862e-01 -1.46059860e-02 2.64451087e-01 2.32510179e-01
      1.24431002e+00 2.03218386e-01 -7.42703438e-01 8.02875757e-01
      -2.60744721e-01 -2.63051748e-01 -3.40581626e-01 1.11634836e-01
      1.22408874e-01 3.57730478e-01 -3.50993186e-01 7.79579520e-01
      6.06089950e-01 -2.92952657e-01 -1.78728819e-01 1.43697821e-02
      -2.34976396e-01 6.70043677e-02 -1.08786225e-02 -1.05962582e-01
      6.83295310e-01 3.93681288e-01 7.05799162e-01 1.25894272e+00
      -7.03025907e-02 -1.41917706e-01 2.04006918e-02 -4.06913012e-01
      -6.16235316e-01 3.60126495e-01 4.27000195e-01 -1.86963707e-01
      5.59975915e-02 -2.28308365e-01 -2.15561914e+00 1.05588891e-01
      1.07697174e-01 -1.69435218e-01 3.20550233e-01 1.28524616e-01
      2.72337615e-01 4.42298770e-01 -3.49582672e-01 -9.70778286e-01
      -7.79815093e-02 2.66014755e-01 3.06609809e-01 1.28849044e-01</_>
    <_>
      2.21194834e-01 3.47576529e-01 1.22528183e+00 -1.75965488e-01
      -5.70714176e-01 -1.86435595e-01 -2.24972963e-01 -1.76643729e-01
      3.08670104e-01 -9.50177684e-02 2.34584063e-02 4.76418406e-01
      1.38158128e-01 6.56005979e-01 -1.63161550e-02 -4.06644270e-02
      -1.26178026e-01 -1.00661077e-01 1.67376827e-02 -1.29549861e-01
      -9.77737829e-02 -1.86556920e-01 -2.01732516e-01 -2.18416005e-01
      9.80594873e-01 -2.37807352e-02 6.35736361e-02 -3.43156338e-01
      -2.15309933e-01 2.37062976e-01 9.63696688e-02 6.96816742e-01
      -3.84345949e-02 7.28778601e-01 -4.36988831e-01 -4.42276895e-01
      1.32706702e+00 -3.85896027e-01 -5.02134301e-02 -1.59413695e-01
      3.71599734e-01 8.91625136e-02 4.94493544e-01 2.44424164e-01
      1.34906924e+00 3.21031183e-01 -8.30941856e-01 -5.28375685e-01
      -3.28082860e-01 -3.99588585e-01 -1.55717745e-01 1.27071783e-01
      3.41076136e-01 4.68495697e-01 3.45037617e-02 -2.99747884e-01
      3.48895907e-01 -1.34908795e-01 2.48705551e-01 6.47451058e-02
      3.66078585e-01 -5.23672581e-01 6.12453632e-02 1.36914134e-01
      -2.01102197e-01 1.67841479e-01 -2.16226518e-01 -1.24223821e-01
      -2.09861174e-01 -4.98015702e-01 -8.46135676e-01 1.14866711e-01
      4.02410239e-01 -8.86990875e-02 -1.93182752e-01 -2.99414136e-02
      -1.06321168e+00 -2.40898758e-01 -1.01716541e-01 6.25755936e-02
      3.78508300e-01 6.23287797e-01 9.86274779e-01 1.12045705e+00
      -1.27184317e-01 -2.81991690e-01 -6.49448931e-01 -7.90977597e-01
      -6.50898099e-01 5.70307136e-01 2.16975048e-01 -6.18320927e-02
      -2.67955393e-01 -1.10358253e-01 -2.30073667e+00 -2.78616518e-01
      -3.11572134e-01 -1.17015645e-01 2.05465689e-01 2.68576264e-01
      -2.94776987e-02 -5.54825701e-02 -3.91110957e-01 -8.64690006e-01
      -6.74778044e-01 3.25253636e-01 3.58402967e-01 3.03323090e-01</_>
    <_>
      8.51606205e-02 7.86518514e-01 8.92542899e-01 -4.45848703e-02
      -3.77293944e-01 -2.21183956e-01 -6.71429992e-01 -1.15644410e-01
      6.97455481e-02 -1.82431236e-01 -9.27525610e-02 -2.91445047e-01
      -3.24861616e-01 -1.04868576e-01 -4.67845440e-01 -5.39883435e-01
      -3.10832173e-01 -1.59574911e-01 -2.49125957e-02 3.98298293e-01
      4.06504512e-01 -8.71608555e-02 2.65203983e-01 8.20515528e-02
      2.75436878e-01 2.78446048e-01 1.13502130e-01 -1.20436609e-01
      -1.60052523e-01 6.12450168e-02 -4.81343508e-01 5.73250977e-03
      -3.56282592e-01 5.87893836e-02 -9.93632376e-02 9.39932931e-03
      9.28402171e-02 -2.32704327e-01 -8.67734179e-02 -7.08683729e-02
      5.96897662e-01 -2.33610064e-01 -4.91960049e-02 -1.04274869e-01
      2.16744974e-01 9.91793275e-02 -6.78801417e-01 -8.31610084e-01
      -1.83597535e-01 6.83786124e-02 -7.40860254e-02 -1.54777333e-01
      7.12751746e-02 1.22960925e-01 -1.28860867e+00 -3.27743024e-01
      4.82623398e-01 -4.18774277e-01 6.06895685e-01 -2.28012800e-01
      4.01432931e-01 -1.34796426e-01 -1.23142028e+00 2.11032972e-01
      -6.52699232e-01 -4.88833100e-01 -6.40402913e-01 2.04382569e-01
      -2.61855781e-01 -2.09484950e-01 -5.31623662e-01 1.74413934e-01
      5.82666814e-01 -6.27647758e-01 -1.41323066e+00 -6.38274327e-02
      1.18866235e-01 1.71691421e-02 3.40041555e-02 1.51050627e-01
      6.03042185e-01 4.97423321e-01 -8.49530518e-01 -7.23575473e-01
      -1.34422705e-01 1.10204637e+00 3.33061963e-02 -7.89804682e-02
      1.31193092e-02 4.75517362e-01 6.32329464e-01 -4.64198023e-01
      -8.81461143e-01 -4.20254380e-01 -2.66238976e+00 -1.15171909e-01
      -9.79660273e-01 -5.88654935e-01 6.26880825e-01 6.69523180e-01
      7.45658204e-02 -4.85463440e-01 -4.02175963e-01 1.24062203e-01
      -2.12817132e-01 -1.50270689e+00 -1.02985036e+00 6.76699638e-01</_>
    <_>
      -1.70998141e-01 1.01680897e-01 3.75523478e-01 -7.18525052e-02
      3.36292118e-01 -1.09924167e-01 2.87786186e-01 -7.36548156e-02
      -7.96575099e-02 -4.44627702e-01 1.96705479e-02 -2.60083992e-02
      -6.33029044e-02 8.42456102e-01 -3.62326019e-02 1.48783118e-01
      -1.91703856e-01 -4.43860263e-01 -3.12459409e-01 7.77768567e-02
      3.90270829e-01 -6.25212714e-02 4.74152386e-01 -2.11579099e-01
      2.45777979e-01 1.15874372e-02 -2.84917861e-01 -3.60515982e-01
      2.11261362e-01 5.68580985e-01 4.69370075e-02 8.06245267e-01
      -8.11233968e-02 1.54731303e-01 -2.18383417e-01 -3.33617657e-01
      -4.28818583e-01 4.39695269e-02 7.55380914e-02 -6.98465854e-02
      8.04792404e-01 2.86178757e-02 1.57973513e-01 -2.33603697e-02
      -4.05727744e-01 -7.30503872e-02 -7.50404075e-02 4.36125807e-02
      -1.96078904e-02 7.13007689e-01 -9.40146670e-03 2.83209711e-01
      1.20368764e-01 -7.30503872e-02 -6.33574069e-01 1.50062636e-01
      4.58261430e-01 -3.04947495e-02 8.60976815e-01 1.02218829e-01
      4.72464472e-01 7.04634562e-02 -6.49655819e-01 -2.11905852e-01
      5.76610230e-02 2.47421563e-01 -7.87596181e-02 6.86181426e-01
      8.21297243e-02 3.73067319e-01 1.03941724e-01 -2.11704776e-01
      1.09613650e-01 -2.40777135e-01 -1.34643242e-01 -7.63977692e-02
      3.23099732e-01 -4.42515276e-02 9.61857140e-02 -2.82483492e-02
      1.16902262e-01 9.26482379e-02 -4.41894755e-02 2.95325190e-01
      -2.82442808e-01 2.03372955e-01 -1.30416691e-01 -8.14307183e-02
      -1.78086340e-01 7.02318624e-02 -6.98021725e-02 -1.34691834e-01
      -6.99402392e-02 -1.18434161e-01 -1.42891690e-01 -5.83533756e-02
      -6.42433912e-02 -1.48875982e-01 -6.98021725e-02 -6.98021725e-02
      1.38544030e-02 3.75185251e-01 -2.68410474e-01 -8.19095150e-02
      -2.06967413e-01 -1.01564310e-01 -3.03863734e-01 -6.98021725e-02</_>
    <_>
      4.46270257e-01 -1.52340099e-01 -1.41715333e-01 -9.40767899e-02
      2.22075805e-01 -2.71746278e-01 -1.13496006e+00 -4.87772822e-01
      4.05098975e-01 1.39284015e-01 -2.81585336e-01 -7.32262731e-01
      2.09919605e-02 8.33699033e-02 -3.60748410e-01 -9.30663466e-01
      -2.68033266e-01 8.59722942e-02 2.14179859e-01 8.94045830e-02
      2.28794023e-01 -6.43644901e-03 3.29099327e-01 -2.73678154e-01
      -3.30328017e-01 -3.72195363e-01 2.40498468e-01 -4.19820212e-02
      1.39090702e-01 3.21569830e-01 8.45847279e-02 4.25281614e-01
      2.59945039e-02 2.08500862e-01 1.24261929e-02 -2.67236233e-02
      9.31728557e-02 -4.20231998e-01 -6.82179749e-01 -1.31795406e-01
      1.57210112e-01 -2.78928548e-01 -6.14296257e-01 -2.89942026e-01
      1.68689951e-01 1.86207086e-01 -7.27406085e-01 -8.93155158e-01
      -2.19890252e-01 3.23190123e-01 -6.16268329e-02 -5.14777422e-01
      -1.88979715e-01 2.14763045e-01 -5.17989278e-01 -8.43766630e-02
      -5.41915148e-02 -1.21888921e-01 5.51336944e-01 7.49609396e-02
      6.60919368e-01 2.17726842e-01 -4.64565426e-01 1.46742970e-01
      -1.73082530e-01 -2.72595316e-01 -4.38395560e-01 5.15026927e-01
      -2.38057360e-01 -1.03646878e-03 2.22388748e-02 1.53830782e-01
      1.76812485e-01 -4.80705917e-01 -6.04640305e-01 -1.75565124e-01
      -3.32315117e-01 -6.98315874e-02 -1.29400253e-01 -5.42362928e-02
      2.20656589e-01 1.18831165e-01 2.84200072e-01 4.44647729e-01
      -8.55667070e-02 4.06932645e-02 -1.57601207e-01 -2.82252282e-01
      -5.96441448e-01 1.26607269e-01 5.82660377e-01 -1.11466013e-01
      -3.39065135e-01 -4.58318412e-01 -1.45440841e+00 -2.45063141e-01
      -3.54060560e-01 -1.10438727e-01 7.30171561e-01 3.09033185e-01
      7.60263801e-02 -1.14320084e-01 -4.91985589e-01 -5.13353884e-01
      -1.24899834e-01 1.50929630e-01 -3.89563769e-01 3.43373448e-01</_>
    <_>
      6.88846588e-01 4.54868376e-01 4.03167099e-01 3.28959571e-03
      -6.30678475e-01 -2.74815559e-01 -8.56744766e-01 -1.59631625e-01
      5.91964602e-01 -2.79907249e-02 -3.71114075e-01 -5.90488017e-01
      -1.81718767e-01 -1.66569740e-01 -2.56675512e-01 -4.01091576e-01
      -1.52788818e-01 -1.86259270e-01 -2.39859506e-01 -3.90661120e-01
      -1.42899954e+00 -5.46098769e-01 6.07131660e-01 2.42199868e-01
      1.53261030e+00 9.69278812e-01 -9.25889909e-02 -2.88875014e-01
      4.47761744e-01 1.03554916e+00 2.22732946e-01 -8.01229998e-02
      -1.89283177e-01 3.76708776e-01 3.61404747e-01 -3.36246341e-01
      3.11984658e-01 -6.72553122e-01 -9.37071979e-01 -4.95239526e-01
      1.24379553e-01 -2.60129929e-01 -1.97743416e-01 -1.55184880e-01
      4.79757637e-01 2.78960258e-01 -7.51490295e-01 -1.48333657e+00
      -3.53588700e-01 -1.13398373e-01 -2.52751768e-01 -8.63834739e-01
      -2.69061059e-01 3.34529638e-01 -1.68187261e+00 8.77776518e-02
      7.33420074e-01 -3.28761525e-02 2.25048795e-01 -1.86303213e-01
      4.91685688e-01 3.48315053e-02 -1.63061094e+00 1.69947058e-01
      -3.32687981e-03 8.02189648e-01 -5.22969151e-03 1.48705137e+00
      -2.78258711e-01 -1.79826915e-02 -2.73030996e-01 1.73745662e-01
      5.08167446e-01 -2.54238099e-01 -5.43232799e-01 -2.18314100e-02
      -1.10945797e+00 -1.67379662e-01 -4.84906822e-01 -5.08922972e-02
      5.41006863e-01 -1.89762395e-02 2.35166863e-01 5.15281558e-01
      3.24051648e-01 9.72855151e-01 -2.92683959e-01 -5.67695200e-01
      -2.47586757e-01 -9.55966190e-02 -3.47372182e-02 -2.82035500e-01
      -1.79348379e-01 -1.16913006e-01 -1.52682090e+00 -1.72760502e-01
      -2.18140721e-01 -5.44560663e-02 -3.47372182e-02 -3.47372182e-02
      -2.50763535e-01 -2.51851082e-01 -3.84935111e-01 3.05506170e-01
      -9.51049253e-02 1.11007464e+00 5.13948560e-01 -3.47372182e-02</_>
    <_>
      4.11789238e-01 1.71825126e-01 3.30696523e-01 -2.24620365e-02
      -4.93034512e-01 -9.97538194e-02 -2.66926110e-01 -1.82820652e-02
      4.17328209e-01 6.42782509e-01 1.48755133e-01 2.27327287e-01
      -6.70866147e-02 -4.70522791e-01 -2.65508860e-01 -8.08179229e-02
      9.82830450e-02 6.51633978e-01 5.26594937e-01 2.32851543e-02
      6.86875656e-02 -2.55264677e-02 -4.51709837e-01 -7.91529641e-02
      1.91908166e-01 1.81689978e-01 5.63113809e-01 6.36266053e-01
      1.10782057e-01 2.61834174e-01 -1.19015507e-01 -4.69099313e-01
      -1.40576512e-01 1.77854866e-01 1.84097573e-01 7.06138313e-01
      3.35386246e-01 -5.19105382e-02 -1.65119126e-01 -6.27890676e-02
      -6.83645625e-03 -1.85582772e-01 -1.31241471e-01 8.36089477e-02
      4.26142842e-01 2.40720306e-02 -5.22643089e-01 -7.15145111e-01
      1.44521100e-02 3.64396930e-01 4.96845134e-02 -3.69701325e-03
      7.35607073e-02 9.14482996e-02 1.02303319e-01 -3.66638862e-02
      -1.35834917e-01 -2.07446799e-01 5.72388433e-03 -8.74728486e-02
      1.17089994e-01 1.23568341e-01 2.00379997e-01 1.88797146e-01
      -1.73529148e-01 -4.03107345e-01 -4.75477166e-02 1.35367781e-01
      -2.21826555e-03 -9.20105502e-02 -5.00910841e-02 1.73114672e-01
      9.27570835e-02 -5.22127986e-01 -5.08257031e-01 -2.55864877e-02
      2.51550406e-01 9.88019351e-03 1.27394184e-01 6.33100793e-02
      1.03500418e-01 1.40575722e-01 -1.96033195e-01 -4.25800420e-02
      -9.40467641e-02 -2.95837875e-02 -6.87425211e-02 3.53270620e-02
      3.11895143e-02 2.34666929e-01 1.43874094e-01 -1.22016706e-01
      -1.50381386e-01 2.25882865e-02 -1.63338080e-01 -6.02991506e-02
      -1.68495134e-01 -1.59703717e-01 1.22695737e-01 2.26825565e-01
      -4.00634669e-02 1.72573309e-02 -1.14760570e-01 -1.04962818e-01
      -1.06462009e-01 4.92725074e-02 -1.52344584e-01 1.88852951e-01</_>
    <_>
      5.19738384e-02 -1.96735293e-01 -1.24999225e-01 -5.47151864e-02
      4.84428018e-01 -3.71770620e-01 -8.76757860e-01 -5.62045574e-01
      2.88624782e-02 1.12299591e-01 -4.63912576e-01 -4.68277276e-01
      -6.66222572e-02 4.36857671e-01 -3.24575961e-01 -9.66962159e-01
      -5.62161744e-01 1.12912782e-01 -7.91424438e-02 -1.20971417e+00
      -1.45215535e+00 -1.53168425e-01 1.01097202e+00 2.53640354e-01
      8.99725199e-01 2.34383598e-01 3.58827598e-02 -6.52492270e-02
      1.85439885e-01 8.19477856e-01 3.74079317e-01 3.62219483e-01
      7.91207477e-02 2.56491937e-02 -1.94198519e-01 -4.64148866e-03
      -3.24272573e-01 -5.82589984e-01 -6.13535464e-01 -1.53577715e-01
      3.39173704e-01 -8.41678157e-02 -5.99695325e-01 -1.70581490e-01
      -1.78703964e-01 1.68924063e-01 -9.37716126e-01 -1.15759075e+00
      -1.78292274e-01 -4.75749463e-01 2.10350007e-01 4.12605703e-01
      3.30072075e-01 1.72514960e-01 -1.55385053e+00 9.86872539e-02
      1.06472611e+00 4.31932241e-01 9.35771585e-01 3.02073359e-01
      7.74003565e-01 1.20079309e-01 -1.50510383e+00 2.06356063e-01
      1.42653257e-01 7.95688927e-01 2.92261094e-01 1.23350930e+00
      2.97596723e-01 8.63886535e-01 1.39692843e-01 2.14782059e-01
      -6.83885217e-02 -6.12781584e-01 -8.88695940e-02 2.10467055e-01
      2.66753942e-01 2.57903129e-01 9.30112004e-02 -6.88325837e-02
      -6.83885217e-02 -1.72614068e-01 -3.96390170e-01 6.49755001e-01
      2.80246943e-01 1.19197333e+00 2.31422991e-01 2.68221386e-02
      -1.50649250e-01 -2.30801597e-01 -6.83885217e-02 -7.94720799e-02
      3.51889879e-01 1.07581086e-01 -5.39835095e-01 9.11165029e-02
      3.81529450e-01 -1.79745816e-02 -6.83885217e-02 4.02584672e-03
      6.17818125e-02 3.73026401e-01 -1.41544431e-01 -5.97138524e-01
      1.28145412e-01 8.73606622e-01 4.28151429e-01 2.52732802e-02</_>
    <_>
      -9.42606866e-01 -6.85896933e-01 1.55110791e-01 6.10327661e-01
      1.28114247e+00 3.12807739e-01 1.29760087e-01 -8.49767551e-02
      -9.66665626e-01 -4.05752100e-02 -4.81759310e-01 -3.95677835e-01
      1.73731118e-01 1.16559245e-01 -3.54932658e-02 -5.19866824e-01
      -2.91014284e-01 -3.60753268e-01 -5.63511670e-01 -5.01157701e-01
      -4.69857156e-01 4.34200943e-01 1.27572823e+00 7.88122714e-01
      -7.57180096e-05 -5.95827281e-01 -7.49151409e-01 2.32571319e-01
      -4.42078054e-01 -8.50945890e-01 -4.66708168e-02 8.21421966e-02
      7.78531507e-02 -7.34513700e-02 -3.91442358e-01 1.89449504e-01
      2.37085000e-01 2.37808138e-01 -9.69178451e-04 -9.96147841e-03
      -3.34103227e-01 -4.43684272e-02 -1.88903689e-01 -1.42520919e-01
      1.53172716e-01 5.69035038e-02 -4.23006415e-01 -4.94308054e-01
      -1.14155911e-01 -1.72194809e-01 1.29732177e-01 5.75610042e-01
      5.17713964e-01 2.05568790e-01 -1.26698753e-02 -1.88636050e-01
      -5.69153607e-01 -3.99062306e-01 -6.44236326e-01 -2.57899016e-01
      -3.76715779e-01 -2.78360307e-01 9.99797974e-03 -1.84690170e-02
      4.55406398e-01 3.75059009e-01 -1.09706290e-01 -2.38658920e-01
      -9.21303779e-02 -1.07205570e-01 5.54645108e-03 -4.48226742e-02
      -1.22100867e-01 -1.98758528e-01 -1.74333662e-01 -8.22914541e-02
      -3.88958752e-01 6.97039068e-02 -2.50821356e-02 -2.13629194e-03
      -2.35610247e-01 -9.92325842e-02 9.04567614e-02 -1.66650996e-01
      -8.17189738e-02 -8.72769132e-02 1.91209063e-01 3.78208905e-01
      -2.19368070e-01 -2.90242940e-01 -2.53547460e-01 -1.77254170e-01
      6.86289072e-02 -3.85363307e-03 3.45530033e-01 5.33807762e-02
      7.56844938e-01 6.92676306e-01 -1.78284630e-01 -1.97161689e-01
      -1.68487445e-01 -3.87918979e-01 -8.70750248e-02 -2.61777788e-01
      -1.29235193e-01 8.62076879e-01 6.74378633e-01 -1.97161689e-01</_>
    <_>
      -8.21348369e-01 -2.07116693e-01 4.45888460e-01 2.13797212e-01
      7.22597361e-01 -3.17037106e-01 -6.10599756e-01 -5.24989247e-01
      -7.72877336e-01 -3.87466177e-02 -1.47337168e-01 -4.94068116e-01
      -6.13325462e-02 4.89201188e-01 -3.39716822e-01 -5.88144004e-01
      -4.53137875e-01 -3.04994255e-01 -9.27725554e-01 1.83316499e-01
      -6.13602847e-02 -1.22216463e-01 6.93292320e-01 1.98391348e-01
      5.13435565e-02 -5.13038158e-01 -1.05049682e+00 -3.09810251e-01
      3.15604120e-01 3.20097566e-01 -7.27295950e-02 6.32331908e-01
      -1.70754954e-01 -2.67062247e-01 -3.65496755e-01 -3.10033113e-01
      3.93599719e-01 7.06848264e-01 8.50360870e-01 -3.07615544e-03
      4.47990924e-01 -3.21551715e-03 9.89340603e-01 4.95082676e-01
      3.61870646e-01 -3.58444780e-01 -1.58374205e-01 -2.78337151e-01
      -2.74385422e-01 -3.07242632e-01 1.83715150e-01 6.66151345e-01
      3.02081287e-01 -2.08846867e-01 -4.32153642e-01 3.58339638e-01
      6.08944654e-01 -6.77518249e-02 -7.75440782e-02 -1.12619326e-01
      4.42259550e-01 5.71675040e-02 -4.22552437e-01 -5.12846291e-01
      -4.77169231e-02 -2.36544479e-02 -4.94149253e-02 -4.50049669e-01
      -1.10504553e-01 1.87438086e-01 -4.14839983e-01 -5.31161845e-01
      1.54153602e-02 -2.51409680e-01 -9.86528695e-01 -3.34954292e-01
      -9.91792083e-01 -8.43476281e-02 -5.24924397e-01 -4.23743039e-01
      -2.43171751e-01 3.06592286e-01 2.38345891e-01 -3.06838512e-01
      3.99921462e-02 -8.79591465e-01 1.52295232e-01 -4.31804545e-02
      1.21365085e-01 2.11773917e-01 -1.05439574e-01 -3.58797431e-01
      -5.45982540e-01 -1.75314710e-01 -6.20654702e-01 -2.91345268e-01
      5.62905908e-01 6.69801652e-01 7.47060776e-02 1.18953064e-01
      4.56917793e-01 -5.46081848e-02 1.79382488e-01 -8.66692007e-01
      -9.45104957e-02 5.68467915e-01 1.04360855e+00 1.34106427e-01</_>
    <_>
      -9.67880964e-01 -3.25069070e-01 7.46727765e-01 5.75364113e-01
      9.18652356e-01 1.54636398e-01 -7.55975023e-02 -4.63982314e-01
      -9.90804553e-01 6.25589043e-02 -6.97589219e-02 -1.14251427e-01
      4.75683138e-02 2.10044771e-01 -2.51503617e-01 -6.29032135e-01
      -4.85411406e-01 -1.90387875e-01 -1.11879528e+00 -4.72865522e-01
      -2.79634476e-01 1.96289271e-01 1.02210259e+00 8.22046340e-01
      5.80564260e-01 -3.63870561e-01 -1.13845038e+00 -4.89788242e-02
      -2.49518469e-01 -4.12571728e-01 -1.19926520e-02 2.60312080e-01
      6.27878979e-02 2.08209172e-01 -9.76743400e-02 7.52712116e-02
      1.63206086e-01 3.80065888e-01 3.29710275e-01 -8.49129647e-05
      -1.66566879e-01 -1.87482744e-01 -1.16671570e-01 -1.18133545e-01
      4.53325920e-02 -4.89016920e-02 -1.22062385e-01 -1.08394228e-01
      -6.95807040e-02 -2.10896716e-01 -8.40665624e-02 2.10351229e-01
      2.21162558e-01 -9.23623797e-03 -2.08297387e-01 -1.40077412e-01
      -2.67159551e-01 -2.93920431e-02 -2.47181118e-01 -8.29291120e-02
      2.65433043e-01 2.15171114e-01 -1.54127553e-01 -2.45629773e-01
      4.65506792e-01 3.86773348e-01 5.96880391e-02 -2.57586420e-01
      -2.26736605e-01 2.06890106e-02 1.26013737e-02 -2.45629773e-01
      -1.77278101e-01 -5.91582358e-02 -1.98871166e-01 -1.01843156e-01
      -8.58292803e-02 -1.04316786e-01 -2.74833381e-01 -3.95091146e-01
      -3.82066965e-01 1.92754790e-01 4.28715110e-01 2.66929090e-01
      1.92850623e-02 -1.59709379e-01 1.54819302e-02 -3.16491604e-01
      -3.53883237e-01 3.82448137e-02 -3.45873058e-01 -2.37281337e-01
      -1.90918222e-01 -5.20695783e-02 2.51566648e-01 -1.33156449e-01
      7.53822386e-01 4.13255572e-01 -2.88453102e-01 -1.14285290e-01
      8.24829414e-02 -3.10440123e-01 -1.50793688e-02 -1.47882164e-01
      -1.21172607e-01 6.22356713e-01 7.02926993e-01 -1.15422226e-01</_>
    <_>
      -3.48867208e-01 -1.97293833e-01 1.87823966e-01 -1.77328169e-01
      4.23576862e-01 -2.66581863e-01 -2.85618991e-01 -1.24516480e-01
      -2.00206667e-01 -2.00219024e-02 -2.79232442e-01 -1.03915028e-01
      -9.06243175e-02 6.80632472e-01 -6.91354349e-02 -6.67607412e-02
      -1.79344311e-01 -1.58250451e-01 -6.97710276e-01 4.02675986e-01
      5.17611027e-01 -3.01979445e-02 3.72437567e-01 1.80711836e-01
      -7.36883730e-02 -2.33057186e-01 -7.69650698e-01 -3.35465342e-01
      5.72513975e-02 2.87977397e-01 4.77355719e-02 6.46750450e-01
      3.64054263e-01 2.23223418e-01 -8.41667876e-02 -2.29510650e-01
      3.01246673e-01 4.27585691e-01 8.28287959e-01 7.90677872e-03
      3.90666723e-01 1.12954162e-01 2.32569471e-01 1.68743193e-01
      2.82068700e-01 3.83558303e-01 4.39821452e-01 2.07279220e-01
      7.21351523e-03 -3.13838691e-01 -1.53243933e-02 -5.90439960e-02
      2.51881421e-01 4.65299755e-01 -1.68859139e-01 -3.55838269e-01
      -7.61770159e-02 -4.03260998e-02 2.97886819e-01 1.85133860e-01
      7.44671583e-01 3.50864351e-01 -1.01618811e-01 -2.24479958e-01
      1.61522746e-01 9.42634344e-02 -5.55914082e-02 -3.73975128e-01
      -1.02987662e-01 1.79683909e-01 6.74960464e-02 -9.45389420e-02
      9.83657777e-01 6.32893562e-01 3.86122972e-01 8.67957398e-02
      -9.92557466e-01 -3.14965934e-01 -9.99748468e-01 -5.82992494e-01
      5.51211774e-01 1.00563836e+00 6.69222176e-01 5.78561723e-01
      2.95669436e-01 -3.53582978e-01 -4.77148712e-01 -7.28966117e-01
      -7.77912974e-01 4.54587549e-01 3.44450563e-01 -1.42576993e-01
      -2.99969316e-01 -1.20236382e-01 -6.14351332e-01 -1.58262238e-01
      1.02173817e+00 5.95000982e-01 3.54932338e-01 2.67379552e-01
      -3.70781571e-01 -5.61567008e-01 -1.25738397e-01 -1.86942488e-01
      7.22039640e-02 1.32495117e+00 1.14164805e+00 1.44409284e-01</_>
    <_>
      -1.13556445e+00 -1.94067433e-02 6.99550688e-01 4.30810064e-01
      1.14931941e+00 2.48168156e-01 -1.14340544e-01 -1.87215224e-01
      -1.15865076e+00 -3.01709712e-01 -2.91523576e-01 -3.39083284e-01
      4.91054654e-02 3.37291896e-01 -4.12546210e-02 -5.16442776e-01
      -2.94392824e-01 -4.53429252e-01 -8.76968145e-01 -2.61390716e-01
      -4.52890098e-01 1.39983848e-01 1.05813813e+00 7.25806415e-01
      3.15325201e-01 -8.41652974e-02 -9.54070330e-01 -3.76389548e-02
      -2.64188170e-01 -5.54574907e-01 -1.68896019e-02 4.06257451e-01
      1.18521087e-01 6.21873513e-02 8.23823735e-03 1.15604915e-01
      1.98417708e-01 8.44866037e-02 1.59437612e-01 4.27701361e-02
      1.64123908e-01 -8.80880579e-02 6.29702359e-02 -5.26661985e-03
      2.02151686e-01 -5.32196052e-02 -1.86649144e-01 -1.12458900e-01
      -1.09862208e-01 -1.76813006e-01 4.24351655e-02 1.35204330e-01
      1.16629004e-01 7.50156073e-03 1.07701898e-01 -2.31804669e-01
      -5.74078739e-01 -2.02654645e-01 -4.05489117e-01 -2.06201687e-01
      -2.37467941e-02 2.44716275e-02 4.62529100e-02 -1.94384027e-02
      9.32337418e-02 -9.26462710e-02 -1.57745555e-01 -4.48372662e-01
      -1.90266550e-01 -4.24625456e-01 -3.56233358e-01 -1.94384027e-02
      -3.56085092e-01 -7.73469806e-02 -2.28026822e-01 -5.74904494e-02
      1.26519889e-01 7.98463076e-02 -3.85078371e-01 -3.86256069e-01
      -5.20369709e-01 -1.00770712e-01 4.08959001e-01 3.34756017e-01
      1.50745586e-01 2.45379254e-01 2.51581162e-01 -2.36642763e-01
      -3.55257928e-01 -2.08045676e-01 -1.67140052e-01 -2.54504204e-01
      -5.88517606e-01 -6.22414872e-02 4.02605861e-01 6.76884949e-02
      9.41044837e-02 1.61845431e-01 -1.30774036e-01 -2.86145806e-02
      2.80502200e-01 -2.12554649e-01 -8.66502430e-03 -1.40448615e-01
      7.68686160e-02 2.76459366e-01 7.32411265e-01 -2.49784086e-02</_>
    <_>
      -6.62768722e-01 -2.73605019e-01 1.77435949e-01 2.62038022e-01
      4.84313935e-01 1.62708536e-01 -1.31268412e-01 -1.36144221e-01
      -5.66787004e-01 -2.42571607e-01 2.54025787e-01 3.89031023e-01
      1.36048242e-01 6.39810145e-01 -3.58527333e-01 -5.72717249e-01
      -4.26419169e-01 -6.82284892e-01 -9.55327153e-01 1.66645959e-01
      1.94734767e-01 3.73152308e-02 5.12833416e-01 6.80388927e-01
      4.79200389e-03 -4.33117777e-01 -1.06568074e+00 -2.82239854e-01
      -1.72724202e-01 -2.32911915e-01 -4.26105380e-01 6.82332635e-01
      1.38762027e-01 5.24265230e-01 2.27208465e-01 -2.06169009e-01
      7.17698693e-01 6.17944717e-01 7.28582799e-01 1.41964480e-01
      -3.22098553e-01 -1.00791328e-01 3.48904908e-01 2.08227172e-01
      6.64956331e-01 -2.19350204e-01 -3.30577999e-01 4.80213203e-02
      -2.15260789e-01 -6.19076371e-01 4.23628278e-02 3.84675443e-01
      4.60210711e-01 -7.36822411e-02 4.44692671e-01 -7.55181983e-02
      -1.34220287e-01 -1.89502835e-01 -5.63748240e-01 -1.93167612e-01
      2.80808717e-01 1.89485013e-01 5.78331292e-01 -2.62947053e-01
      5.14181674e-01 8.04151177e-01 1.37066431e-02 -8.05541575e-01
      -2.67580032e-01 5.54673048e-03 -3.01245779e-01 -3.24913085e-01
      -2.02880621e-01 -1.32282555e-01 -4.08484817e-01 -1.44873023e-01
      -2.91051596e-01 -1.95443466e-01 -6.05020344e-01 -1.74309105e-01
      -4.26588386e-01 4.79995251e-01 -3.79012257e-01 -1.13239574e+00
      -2.94278026e-01 -1.10844232e-01 1.75318047e-01 -1.73912540e-01
      -1.40237436e-01 5.12431145e-01 -1.78314149e-01 1.42321125e-01
      -8.75044838e-02 -5.35946041e-02 -1.03738524e-01 -8.56803656e-02
      6.98331177e-01 5.36738276e-01 -1.02050073e-01 2.13198259e-01
      2.22812667e-01 -6.62815928e-01 4.94736508e-02 -1.54185534e-01
      -1.52381267e-02 -1.54080287e-01 1.90937653e-01 1.61835000e-01</_>
    <_>
      -1.01612425e+00 -1.27552152e-01 9.97411132e-01 7.17786074e-01
      4.54672515e-01 -6.15138896e-02 7.47554228e-02 -2.30089605e-01
      -9.51962769e-01 -1.49069226e+00 -5.80588698e-01 -4.41906691e-01
      -1.60323814e-01 -3.39613892e-02 -4.36487198e-02 -1.03862107e-01
      -4.28691477e-01 -1.85888362e+00 -6.03206813e-01 -3.77980620e-02
      -7.64035732e-02 2.32722595e-01 4.58383828e-01 5.43663740e-01
      1.16100043e-01 -7.29544342e-01 -6.99127913e-01 -6.97685778e-02
      1.35595351e-01 -4.49142516e-01 -4.07919049e-01 7.20956102e-02
      -1.98167622e-01 3.56287956e-01 1.86213031e-01 6.62458688e-02
      -8.55386034e-02 1.58628315e-01 6.02072358e-01 2.18861196e-02
      2.29556426e-01 1.80959627e-01 3.81767839e-01 -3.78303453e-02
      -2.20305443e-01 -2.88472921e-01 -5.06200977e-02 4.09919918e-01
      1.06775180e-01 1.46704480e-01 6.31541908e-02 -3.45911205e-01
      -5.19988954e-01 -1.64285064e-01 -3.06021661e-01 1.17882453e-02
      -2.56112516e-01 -2.12885350e-01 -5.86349607e-01 -1.69282869e-01
      -3.26399435e-03 5.11920825e-02 -2.66045421e-01 -2.37574369e-01
      1.95105553e-01 1.50505200e-01 1.30920634e-01 -3.76242369e-01
      -2.97525764e-01 -5.83556950e-01 -4.54668939e-01 -2.40115538e-01
      -1.55070558e-01 -1.49267718e-01 -8.39712441e-01 -2.33130425e-01
      -1.22891855e+00 -3.72995406e-01 -1.39037287e+00 -9.55026209e-01
      -4.16853786e-01 1.99271679e-01 2.13302046e-01 -6.51942432e-01
      -7.04404414e-02 -8.07048559e-01 2.98845582e-02 -4.21816468e-01
      -4.26371127e-01 6.55356273e-02 -1.13882005e-01 -1.65131480e-01
      -3.03537250e-01 -1.61591619e-01 -5.48793793e-01 -2.14512169e-01
      6.79675519e-01 6.25996470e-01 4.20457348e-02 3.22558105e-01
      -1.15040503e-01 -6.43340886e-01 -2.04393759e-01 -4.61762369e-01
      1.84784964e-01 1.31949270e+00 1.54719675e+00 2.65102863e-01</_>
    <_>
      -1.01945150e+00 4.23546806e-02 9.59412873e-01 2.53578693e-01
      5.44071913e-01 3.95877697e-02 8.97688568e-02 -3.19271982e-01
      -1.18947804e+00 -4.19275522e-01 -7.88650066e-02 -7.56324381e-02
      -2.33238205e-01 2.21467897e-01 -4.14340347e-01 -4.86002266e-01
      -8.32522869e-01 -7.83192456e-01 -9.35029030e-01 -3.67450044e-02
      -4.36170727e-01 -1.13329761e-01 5.03948510e-01 3.75293523e-01
      7.48119771e-01 7.65927285e-02 -1.02305162e+00 -1.62683949e-01
      2.65011877e-01 -3.16326916e-01 -7.95984939e-02 2.49478757e-01
      -1.36194125e-01 2.52317805e-02 -2.59492874e-01 -3.05969387e-01
      -1.66307464e-01 4.51196253e-01 7.46196628e-01 -1.99282005e-01
      -1.91795811e-01 -1.09129049e-01 6.05347753e-01 1.82659298e-01
      -2.10490629e-01 -2.22048566e-01 2.07540780e-01 2.84770489e-01
      -5.60360178e-02 4.24395591e-01 6.88853785e-02 2.54758596e-01
      -9.03944019e-03 -1.88694477e-01 -3.25659066e-01 2.91031688e-01
      2.02746242e-01 -4.95402142e-02 -3.90074790e-01 -1.77349731e-01
      3.10688049e-01 -8.96800086e-02 -3.88624132e-01 -5.19240856e-01
      -8.29626173e-02 8.04952323e-01 1.23966426e-01 2.63260424e-01
      -4.79247198e-02 4.40305352e-01 2.15875238e-01 -5.01976907e-01
      5.22895515e-01 9.44639146e-02 -3.31274092e-01 -2.96450019e-01
      -5.35209417e-01 -1.71459273e-01 -7.37497211e-01 -4.99162138e-01
      1.66227147e-01 7.32539654e-01 -2.44495735e-01 -1.29622769e+00
      -6.75815225e-01 -8.07023466e-01 -2.88897991e-01 -3.83252323e-01
      -3.56649041e-01 5.80495656e-01 -1.37518272e-01 -4.37527329e-01
      -2.70206984e-02 -1.37647465e-01 -1.58179373e-01 -2.25388244e-01
      8.96659136e-01 8.36904764e-01 1.94888279e-01 2.84173489e-01
      6.44426465e-01 -5.81600703e-02 -1.83302820e-01 -6.35378599e-01
      -9.51502681e-01 -2.99138725e-01 1.20823726e-01 2.13392749e-01</_>
    <_>
      -8.27705741e-01 1.23244710e-02 6.89533651e-01 1.89504057e-01
      2.26354405e-01 -3.33413519e-02 3.48940015e-01 9.12762582e-02
      -7.11702704e-01 -3.26831907e-01 4.40115958e-01 3.35477710e-01
      1.76686451e-01 4.61898029e-01 -7.71089224e-03 -1.57677770e-01
      -3.61281872e-01 -6.67911649e-01 -1.08701944e+00 1.02338061e-01
      3.67050737e-01 3.63437682e-02 2.76015192e-01 4.04170841e-01
      4.33504522e-01 -4.20837492e-01 -1.06806731e+00 -3.53812128e-01
      -2.55931824e-01 -1.43641323e-01 1.98425502e-02 5.58209002e-01
      3.64782840e-01 8.34341049e-01 7.74225593e-02 -2.56879658e-01
      4.04880404e-01 8.99116218e-01 9.06477571e-01 1.13639615e-01
      -5.26048169e-02 1.43905923e-01 8.09189752e-02 -2.00883776e-01
      6.94576278e-02 2.75721908e-01 -1.04377799e-01 -1.53477550e-01
      -1.77627549e-01 -1.65712252e-01 -9.01510790e-02 1.45422369e-01
      1.36108384e-01 2.54905671e-01 -1.75885528e-01 -3.52778792e-01
      -4.15788829e-01 -1.73695758e-02 -3.31319451e-01 1.33894622e-01
      5.60936391e-01 3.52110654e-01 -1.26987085e-01 1.71937197e-01
      1.74248010e-01 1.16425037e-01 -1.34930968e-01 -2.97451168e-01
      -3.87399346e-01 -5.92709363e-01 -4.13524449e-01 1.44436389e-01
      3.24866980e-01 -5.55059388e-02 -3.00812453e-01 -2.57550269e-01
      -7.67265618e-01 -2.62146026e-01 -3.56862187e-01 -2.66005099e-01
      1.94048896e-01 2.15632215e-01 8.60821679e-02 2.18927339e-01
      -1.19461261e-01 -7.23542631e-01 -1.86239835e-02 -2.78941900e-01
      -4.21021312e-01 -5.05669229e-03 3.97338867e-01 6.02426194e-02
      4.98536602e-02 -2.37254933e-01 -2.73650885e-01 -4.51024771e-01
      3.00698847e-01 2.53470957e-01 3.69622499e-01 1.28984720e-01
      6.74299896e-01 4.66743708e-01 -1.28939956e-01 -6.32401288e-01
      -3.31191540e-01 4.71635699e-01 3.15065295e-01 -1.67918652e-01</_>
    <_>
      -1.05282056e+00 -1.47407994e-01 3.70869577e-01 4.23699766e-01
      5.48718452e-01 4.68964092e-02 -3.19014698e-01 -1.31050363e-01
      -1.01329064e+00 -2.27465138e-01 1.91108108e-01 3.15704912e-01
      1.80174947e-01 2.35408112e-01 -2.71282569e-02 -3.63106579e-01
      -3.54183525e-01 -4.71564263e-01 -7.13948011e-01 -9.52238142e-02
      -2.33432025e-01 9.81150642e-02 6.70870841e-01 9.02597606e-01
      9.75108668e-02 -8.74082506e-01 -9.64414716e-01 -8.85059163e-02
      -1.64731503e-01 -1.54183552e-01 -9.16798115e-02 7.46259034e-01
      3.20791870e-01 4.65099037e-01 -3.29162121e-01 1.30983721e-02
      1.00957096e-01 4.23778087e-01 8.09673220e-05 7.86612630e-02
      1.06953897e-01 1.32475346e-01 2.63876468e-01 1.19589791e-01
      1.19190942e-02 -2.48692989e-01 -5.44225037e-01 -9.60642993e-01
      -2.94592734e-02 7.95363337e-02 1.37248307e-01 1.29104340e-02
      -1.24096982e-02 -1.30381137e-01 4.70170286e-03 -2.37270102e-01
      -7.70553172e-01 -1.45815387e-01 -6.44820929e-02 6.80203736e-02
      5.92465639e-01 2.61655360e-01 1.43004477e-01 -2.23648906e-01
      1.39305949e-01 -1.45399734e-01 1.43835414e-02 -9.62874591e-02
      -4.52084243e-02 9.26317051e-02 -1.65083140e-01 -2.23938018e-01
      -2.22644880e-01 -3.66390258e-01 -7.45283842e-01 -8.79398584e-02
      -2.62025654e-01 2.40801498e-02 -6.13687456e-01 -4.16176498e-01
      -3.94882470e-01 1.56793758e-01 -1.69653520e-01 -3.10071230e-01
      -3.30677554e-02 -7.26602152e-02 2.94416249e-01 -2.96440542e-01
      -6.36940897e-01 1.11718401e-01 -1.48599237e-01 -9.00635421e-02
      -2.77086109e-01 -4.69458029e-02 1.41104400e-01 9.28466674e-03
      9.66420352e-01 5.56392670e-01 -3.77159864e-02 1.89844891e-01
      -3.80162150e-01 -4.24282074e-01 -1.91131771e-01 -2.64343113e-01
      -6.74216449e-02 7.47696996e-01 8.92808855e-01 1.55255869e-01</_>
    <_>
      -6.31668746e-01 -9.63481739e-02 6.04092419e-01 2.08498612e-01
      4.89964992e-01 4.97799404e-02 4.19704989e-02 -2.14141443e-01
      -5.95861316e-01 -4.49767113e-01 1.67420477e-01 -1.17322141e-02
      -1.43087074e-01 2.81974733e-01 -1.47857398e-01 -3.28548878e-01
      -4.39373076e-01 -7.04955816e-01 -1.39319491e+00 -6.92353323e-02
      1.31305039e-01 -7.21133202e-02 5.30734122e-01 4.73825306e-01
      5.48456669e-01 -4.11986783e-02 -1.24856913e+00 -6.11939311e-01
      9.85027105e-02 1.47132541e-03 3.75151099e-03 6.11897945e-01
      1.64576009e-01 5.67838371e-01 3.62578267e-03 -4.71823275e-01
      4.92608339e-01 4.39396948e-01 3.07598263e-01 -7.67633319e-02
      -1.89752012e-01 -8.32611322e-02 2.60059774e-01 1.63193911e-01
      4.54288274e-01 2.49659181e-01 1.79051340e-01 3.28418687e-02
      -2.63904762e-02 -3.92820805e-01 -3.10809433e-01 -2.56651491e-01
      -4.91016284e-02 3.26885492e-01 -3.07904869e-01 9.34584364e-02
      -4.16860334e-04 -6.02198206e-03 -2.48121530e-01 -1.04396686e-01
      2.05472603e-01 -2.30172779e-02 -3.10834825e-01 -3.45550418e-01
      5.29090405e-01 6.60215676e-01 1.23450443e-01 -3.13301086e-01
      -2.48884797e-01 -2.81790912e-01 -2.06194356e-01 -3.54547352e-01
      2.95109395e-03 2.15813681e-01 1.02935046e-01 -8.28100890e-02
      -6.45042419e-01 -4.27563757e-01 -8.58445168e-01 -7.43358135e-01
      -1.19537942e-01 7.08762035e-02 -3.03902268e-01 -1.62657455e-01
      -1.57934517e-01 -3.68459783e-02 3.48300226e-02 6.07413836e-02
      -2.20946535e-01 -1.00374348e-01 -2.04390734e-02 -1.39805630e-01
      -1.01035848e-01 -1.08789936e-01 2.25043520e-01 -5.48478290e-02
      6.47148252e-01 5.19480288e-01 -7.38889277e-02 4.22913842e-02
      -5.10874987e-01 -8.94700348e-01 -2.55291194e-01 -3.60395685e-02
      2.87889838e-02 1.03833771e+00 1.05431986e+00 4.07354161e-02</_>
    <_>
      -1.07241714e+00 9.01719034e-02 5.08224785e-01 4.15854603e-01
      8.14932406e-01 5.94754145e-02 -3.77297252e-01 -3.67990404e-01
      -1.11312151e+00 -3.34471136e-01 1.24673426e-01 4.54673320e-02
      2.08301485e-01 3.92368883e-01 -2.70105824e-02 -1.20397568e+00
      -6.64786637e-01 -5.61150014e-01 -1.10101426e+00 -1.96012259e-01
      -2.64877707e-01 1.48018837e-01 6.82684839e-01 5.54274619e-01
      5.22236705e-01 1.07610062e-01 -1.05530643e+00 -1.85043305e-01
      2.18238812e-02 1.31488040e-01 -4.79386896e-02 3.20628852e-01
      -4.55680490e-02 1.01188987e-01 3.85199226e-02 -5.18902317e-02
      -1.80789724e-01 4.08975035e-01 4.52851862e-01 1.28732577e-01
      2.85989374e-01 1.07225247e-01 -2.85007656e-01 -1.60050392e-01
      -2.22343951e-01 -1.77649647e-01 -1.08994298e-01 -2.90299743e-01
      -8.80118012e-02 4.03035209e-02 2.58075058e-01 4.39150780e-01
      3.25162232e-01 -1.24804519e-01 -1.53003007e-01 1.01497211e-01
      3.16989541e-01 -3.04600280e-02 -3.29970047e-02 -4.70286943e-02
      1.21923104e-01 9.24321711e-02 -1.71922192e-01 -3.23635459e-01
      3.03983152e-01 3.00299168e-01 4.57350016e-02 -1.97975188e-01
      -1.80657640e-01 -3.79332423e-01 -1.66114539e-01 -3.18297207e-01
      -3.18698823e-01 1.69047862e-02 -4.18108940e-01 -1.66060701e-01
      -1.57505870e-01 5.83341643e-02 -9.39453542e-02 -2.23237667e-02
      -4.77347553e-01 -2.27464482e-01 4.65538740e-01 1.62771001e-01
      2.90344246e-02 2.16236189e-02 2.69427210e-01 -1.23305812e-01
      -1.84936434e-01 -3.37288737e-01 -3.39695811e-01 -1.20395936e-01
      -1.13002539e-01 -2.47924943e-02 1.30235121e-01 -1.56948641e-01
      3.56033355e-01 3.74388337e-01 -3.03427100e-01 -1.84582427e-01
      3.05193335e-01 3.68845791e-01 1.83688119e-01 -3.99103500e-02
      6.28071800e-02 5.12547553e-01 5.53246498e-01 -1.96124971e-01</_>
    <_>
      -6.48654699e-01 -1.16127059e-01 8.15991998e-01 4.90427524e-01
      5.54321826e-01 -8.49238932e-02 -1.33611992e-01 -5.08119404e-01
      -6.47235215e-01 -9.63025615e-02 -1.98389307e-01 -1.41551092e-01
      -6.56729266e-02 7.33414292e-02 -4.08901304e-01 -9.43288386e-01
      -7.85661638e-01 -4.37295586e-01 -7.43518233e-01 -4.22917575e-01
      -5.35514414e-01 -7.68247396e-02 5.58922112e-01 3.85692149e-01
      5.20430863e-01 -2.46696934e-01 -7.00881839e-01 1.29216045e-01
      -3.45255017e-01 -6.53647959e-01 -1.62600160e-01 9.82595235e-02
      -7.98786506e-02 7.81974643e-02 -2.29557365e-01 1.74726173e-01
      4.90833402e-01 4.05340463e-01 8.32761079e-02 -1.59231156e-01
      -3.96282464e-01 -1.33372173e-01 -3.22930515e-01 2.08783932e-02
      3.63896400e-01 -8.82957950e-02 -2.90765733e-01 -5.92995405e-01
      -2.56190717e-01 -2.06001565e-01 -5.10838479e-02 5.53558707e-01
      4.46294814e-01 -1.21248737e-02 1.55031011e-01 5.08986413e-01
      5.07656276e-01 1.18836373e-01 -7.01035798e-01 -2.15101823e-01
      -5.35155773e-01 -1.33155778e-01 -8.86304211e-03 -1.67634681e-01
      7.96062410e-01 1.07966197e+00 2.46018991e-01 -1.56427309e-01
      -5.30080020e-01 -1.00052142e+00 -6.05840147e-01 -3.26279700e-01
      -9.83753428e-02 -6.50328547e-02 -5.84565938e-01 -3.02694827e-01
      -8.31283256e-02 -1.43169805e-01 1.42140180e-01 6.28817603e-02
      -2.29298398e-01 -1.91987425e-01 -9.56880972e-02 -2.82806635e-01
      -4.10102695e-01 -1.32317886e-01 1.07671775e-01 6.82568133e-01
      6.24513216e-02 -3.13637108e-01 -2.76354551e-01 -1.66091964e-01
      -2.92621225e-01 -3.04249793e-01 1.15919329e-01 -3.24694395e-01
      6.36890769e-01 6.06625617e-01 -2.88171202e-01 -1.54116675e-01
      -1.74344450e-01 -4.95436281e-01 -4.70622122e-01 -1.70256011e-02
      8.59227180e-02 1.66671324e+00 1.64521253e+00 -1.54116675e-01</_>
    <_>
      -8.17184091e-01 -4.25715894e-01 7.65955508e-01 5.29987812e-01
      6.67469263e-01 -4.65677716e-02 -4.07401204e-01 -4.40447092e-01
      -7.39675641e-01 -1.88365966e-01 4.08269726e-02 4.02198017e-01
      -1.32982805e-02 3.01694661e-01 -5.78646250e-02 -4.60449785e-01
      -6.67606592e-01 -5.85787416e-01 -8.12260985e-01 -6.68482900e-01
      -8.92623305e-01 1.97550833e-01 6.67469263e-01 5.93519568e-01
      4.32406038e-01 -1.14072673e-02 -7.58470297e-01 -2.12942183e-01
      -4.48064417e-01 -8.83883953e-01 -1.43796012e-01 5.60496867e-01
      1.46677956e-01 1.40532747e-01 -3.88972700e-01 -1.97044268e-01
      2.63269037e-01 4.60880518e-01 4.89139885e-01 -7.89009556e-02
      -3.23043257e-01 2.24692225e-01 6.01439476e-02 -1.97442159e-01
      -7.39619285e-02 -4.03467268e-02 -8.49820748e-02 -1.33022100e-01
      -1.81954920e-01 -4.39304441e-01 3.11597258e-01 5.64257622e-01
      4.95948374e-01 3.56010012e-02 1.03184916e-01 -6.46895543e-02
      -5.13619483e-01 -1.65758178e-01 -3.72642130e-01 2.72946451e-02
      -4.02721852e-01 -5.28378725e-01 7.74574652e-02 -4.73512076e-02
      4.97469604e-01 6.48218334e-01 -2.03388274e-01 -4.61235315e-01
      -6.65593669e-02 -2.04926267e-01 -2.71863610e-01 -1.54592365e-03
      2.07243025e-01 -2.13869393e-01 -6.78286195e-01 -1.90615401e-01
      -5.43171525e-01 -9.51284245e-02 -6.65476680e-01 -4.68697578e-01
      -2.12526061e-02 1.26113772e-01 -5.03864169e-01 -7.49718845e-01
      2.18542740e-01 1.35347590e-01 2.11617753e-01 -1.29445612e-01
      -4.63457853e-01 -1.04319826e-02 4.25353013e-02 -3.59323233e-01
      -3.90712172e-01 -4.60997730e-01 -4.58440125e-01 -1.14787415e-01
      9.85357881e-01 7.92021215e-01 2.78399438e-01 2.39616975e-01
      -4.75600213e-01 -8.64220679e-01 -2.86249429e-01 -3.93616736e-01
      -5.71123399e-02 3.66104037e-01 9.42618132e-01 2.94946015e-01</_>
    <_>
      -6.27275050e-01 -4.12453622e-01 4.65095758e-01 2.76081502e-01
      5.75772285e-01 1.16383322e-01 2.36120269e-01 -5.02403438e-01
      -7.34912276e-01 -8.27081576e-02 2.48659439e-02 -2.81409770e-01
      -2.17609003e-01 1.85720146e-01 -4.81014729e-01 -6.31031394e-01
      -5.04227817e-01 -4.39153552e-01 -3.06018084e-01 -8.03659633e-02
      -2.19045386e-01 1.14110917e-01 6.41642928e-01 3.66119176e-01
      2.36659914e-01 -9.48711812e-01 -6.00630820e-01 1.06815480e-01
      -2.37690523e-01 -6.55386865e-01 -4.42364573e-01 3.49363804e-01
      -2.37995535e-01 2.12893765e-02 -2.12596700e-01 1.40203521e-01
      7.58677363e-01 2.68433541e-01 5.66838346e-02 -3.93109471e-01
      -1.32177427e-01 -7.24436492e-02 4.95125055e-01 3.76160592e-01
      6.28188550e-01 2.13472471e-01 -6.72131956e-01 -4.80184376e-01
      -3.96907419e-01 -7.44597495e-01 -1.58878788e-02 5.66935599e-01
      5.94594181e-01 3.55316281e-01 4.38649088e-01 1.57183930e-01
      1.02293871e-01 -2.75424331e-01 -3.07534665e-01 -4.21607465e-01
      -3.63653034e-01 -1.60921752e-01 3.66250098e-01 -1.93481743e-02
      7.64934540e-01 7.60069788e-01 -1.19552733e-02 -7.13947415e-01
      -5.22451162e-01 -6.99606538e-01 -8.42687607e-01 -7.91333914e-02
      -2.22416013e-01 -2.77184367e-01 -4.60866094e-01 -2.09705412e-01
      -5.94382107e-01 -1.93238974e-01 -6.93562567e-01 -5.04605174e-01
      -4.20569628e-01 4.43083167e-01 7.25463152e-01 2.36465454e-01
      5.27448058e-02 -4.01885182e-01 -1.24053087e-03 -5.09826481e-01
      -5.43145180e-01 8.72904807e-02 -3.70418757e-01 -1.16126761e-01
      -8.81030262e-02 -3.57534029e-02 -4.09283459e-01 -2.90741891e-01
      2.55722672e-01 -9.89968702e-03 -2.36877799e-01 3.57825006e-03
      2.46191382e-01 -2.03741446e-01 -7.19812512e-02 -3.21273208e-01
      2.45012939e-02 1.22866881e+00 1.26700544e+00 8.42796490e-02</_>
    <_>
      1.13670819e-01 1.61795523e-02 3.41338336e-01 2.20148072e-01
      1.07142843e-01 3.55537683e-02 -3.31815392e-01 -2.27934495e-01
      1.28658459e-01 -1.00090444e-01 1.53111080e-02 -4.31556702e-02
      -3.62516381e-02 -7.79007301e-02 -9.43063200e-02 -5.87056100e-01
      -4.13920343e-01 -2.73783892e-01 -1.70877427e-01 -2.87110895e-01
      -3.21183801e-01 1.25227183e-01 1.67292744e-01 5.05797625e-01
      4.72076416e-01 2.64084280e-01 -2.19748495e-03 -2.93596953e-01
      -4.60353822e-01 -4.18478161e-01 9.82722193e-02 5.78398108e-01
      1.52901024e-01 3.49586219e-01 2.14352012e-01 -2.39732370e-01
      -1.61363930e-01 3.91167969e-01 5.03462255e-01 1.07019916e-01
      5.94420791e-01 1.14504904e-01 -4.29399423e-02 -1.42143667e-01
      -2.58991718e-01 -2.80126333e-01 2.64315605e-02 2.45043814e-01
      8.20110217e-02 7.31022716e-01 1.36425838e-01 2.65953332e-01
      8.57371017e-02 -2.40215093e-01 -4.52741742e-01 -8.74415264e-02
      2.45723687e-02 1.24227062e-01 8.01610291e-01 1.33953378e-01
      3.15031409e-01 1.66078925e-01 -4.52741742e-01 -5.07305920e-01
      1.25211906e-02 2.80235112e-01 7.73013011e-02 6.35785460e-01
      9.40583125e-02 2.46391758e-01 1.36506790e-02 -5.07305920e-01
      -2.59304315e-01 -9.72372591e-02 -4.10713963e-02 -3.55189182e-02
      1.52412087e-01 -8.03752020e-02 -2.58141696e-01 -2.04240665e-01
      -2.99308091e-01 1.75049171e-01 1.73194513e-01 1.93442494e-01
      8.06464702e-02 -2.11436599e-01 -3.75697389e-03 -1.84543118e-01
      -1.01623617e-01 1.12276748e-01 -3.66482824e-01 -5.38217962e-01
      -2.84744769e-01 -4.17097881e-02 1.80169374e-01 -3.88146490e-02
      4.30432349e-01 2.07519442e-01 -3.60774279e-01 1.53809816e-01
      2.90457189e-01 8.06642249e-02 4.17341255e-02 -2.45572716e-01
      -1.71761602e-01 5.96603006e-02 5.38100064e-01 1.71432018e-01</_>
    <_>
      -2.82824636e-01 -1.39373884e-01 5.91468155e-01 2.45806485e-01
      4.32924300e-01 -1.32785156e-01 8.71371105e-02 -4.25394922e-02
      -3.78893703e-01 -1.56708524e-01 -1.28084168e-01 -1.76083557e-02
      1.52375907e-01 6.39926672e-01 1.22433282e-01 3.45675290e-01
      -1.13388352e-01 -2.88017005e-01 -1.02411437e+00 3.85709703e-02
      -4.69190896e-01 -9.97213945e-02 4.25896615e-01 2.64033318e-01
      -5.02004862e-01 -6.87404215e-01 -1.21117735e+00 -2.07427174e-01
      -3.87511938e-03 -3.96353930e-01 5.65608561e-01 4.33050185e-01
      1.90412719e-02 5.47946207e-02 -5.81403494e-01 -1.73226833e-01
      1.30229497e+00 5.45444310e-01 -2.92450991e-02 1.32259235e-01
      3.45968574e-01 3.41768533e-01 1.31174517e+00 6.81855798e-01
      1.23445952e+00 1.56566128e-01 -1.75311323e-02 -6.33078516e-01
      -2.57157147e-01 -1.43557400e-01 3.12269926e-01 3.29212397e-01
      3.14254701e-01 2.87452102e-01 4.17037338e-01 1.63626984e-01
      -1.18600518e-01 2.11896282e-02 -6.57100737e-01 -5.62189996e-01
      -1.65165320e-01 -2.81523496e-01 5.26969790e-01 -2.52167851e-01
      2.64262050e-01 -2.60567456e-01 -1.83750868e-01 -8.75110328e-01
      -4.19970036e-01 -6.17996633e-01 -6.12406552e-01 -1.82846621e-01
      4.29907143e-01 -1.22833736e-01 -9.66366708e-01 -2.44896516e-01
      -3.93734872e-01 1.07840141e-02 -4.06216651e-01 -1.67642891e-01
      4.14755225e-01 4.08232182e-01 -3.12454581e-01 -7.23161936e-01
      -3.14322829e-01 -3.75554234e-01 3.77602689e-02 3.89193952e-01
      -2.61934429e-01 7.01811314e-01 -6.23813123e-02 1.80780962e-01
      -1.56798974e-01 2.93594971e-02 -2.91893512e-01 -8.81323069e-02
      5.28053761e-01 5.87849915e-01 1.21147133e-01 4.16700654e-02
      -8.64035010e-01 -1.18791008e+00 -3.87505144e-02 -5.98990917e-01
      8.59328359e-02 3.94457519e-01 7.95777023e-01 1.82636172e-01</_>
    <_>
      -4.22716320e-01 1.53205525e-02 -1.79230906e-02 -8.90552253e-02
      6.23123646e-01 -2.21756613e-03 1.52359307e-01 -2.39478961e-01
      -6.22584164e-01 -3.12053766e-02 1.92963239e-02 -1.49538815e-01
      -2.92142038e-03 2.14906067e-01 -3.38577181e-02 -1.71614885e-02
      -1.52493313e-01 -8.80511478e-02 -3.97165984e-01 1.47861868e-01
      3.75746459e-01 4.88830246e-02 1.03501225e+00 -2.39209875e-01
      -2.46415645e-01 -7.01939940e-01 -7.82707393e-01 1.01710506e-01
      -7.91269541e-02 -1.86773062e-01 4.77800146e-02 6.14390373e-01
      -1.89371780e-01 -9.73455086e-02 -4.22142118e-01 -1.66713502e-02
      8.81102145e-01 5.47084808e-01 9.71316025e-02 -1.15531720e-01
      -8.12855184e-01 -5.61179221e-02 3.57523620e-01 4.03580934e-01
      9.84629989e-01 1.05742127e-01 1.16612032e-01 2.87192464e-02
      -1.48047850e-01 -7.98498869e-01 7.59105682e-02 4.78649974e-01
      4.51292604e-01 1.69180587e-01 1.50593722e+00 1.75316215e-01
      -2.83106536e-01 -2.83613265e-01 -3.65154415e-01 -1.82614252e-01
      -4.75545563e-02 1.82119802e-01 1.45418942e+00 2.59071648e-01
      2.81670094e-02 -1.09293737e-01 -3.44292998e-01 -4.65756238e-01
      -4.92824391e-02 -4.08150144e-02 2.25748587e-02 1.05653360e-01
      -2.79399961e-01 2.07369119e-01 2.66151071e-01 1.50643494e-02
      8.30238834e-02 1.70611367e-01 9.88527685e-02 -1.80806741e-01
      -3.37934852e-01 -1.75717354e-01 2.34661505e-01 1.13736220e-01
      -6.98863640e-02 1.41870961e-01 1.51065895e-02 2.49837548e-01
      -4.19690639e-01 -2.62241781e-01 -1.50653213e-01 -1.75939471e-01
      8.27577990e-03 -6.51489869e-02 6.68743253e-01 8.07063952e-02
      7.06463516e-01 2.70534694e-01 -3.14392969e-02 1.24775423e-02
      -6.58725947e-02 9.81107727e-02 7.58971646e-03 3.70633572e-01
      3.98062766e-02 1.17554784e+00 8.81768227e-01 1.24775423e-02</_>
    <_>
      -7.02562213e-01 -4.62379336e-01 -2.63696283e-01 -4.94878627e-02
      2.27543116e-01 4.59884144e-02 3.11846007e-02 -5.43060526e-02
      -6.50934279e-01 -3.24598610e-01 2.32440874e-01 3.96979570e-01
      4.32461407e-03 7.95017421e-01 1.21658458e-03 1.80861205e-02
      -5.63532896e-02 -5.00945568e-01 -8.32133412e-01 -1.70239210e-02
      -4.20392781e-01 2.53478345e-02 2.27543116e-01 7.54867643e-02
      -2.52967685e-01 -3.24465394e-01 -1.12992871e+00 -1.90514520e-01
      4.80029136e-02 -9.72594395e-02 -1.93428710e-01 7.20329642e-01
      1.43962115e-01 1.95093215e-01 7.75165781e-02 -2.76011318e-01
      7.38118947e-01 5.83437800e-01 1.06075442e+00 -9.99852791e-02
      2.32926067e-02 1.80759057e-02 7.99556553e-01 4.88008648e-01
      8.28354180e-01 -1.29524350e-01 -5.38355298e-02 2.27460325e-01
      -1.32823020e-01 -1.79004490e-01 1.04164183e-01 1.00652623e+00
      7.77485013e-01 -2.52786949e-02 5.95156252e-01 -1.29285932e-01
      -4.72049415e-02 -2.14505002e-01 -4.35618728e-01 -2.63489991e-01
      2.68312972e-02 -8.29456970e-02 4.32795733e-01 -4.45307046e-01
      6.00892186e-01 8.25657070e-01 4.02045250e-02 -2.75580227e-01
      -2.30982542e-01 8.09536278e-02 -2.01327741e-01 -5.92376769e-01
      2.98529416e-01 3.50088060e-01 -3.01977098e-01 -3.89455795e-01
      -6.85381353e-01 -1.26248777e-01 5.04343119e-03 -1.69392340e-02
      1.73978917e-02 3.57153080e-02 -6.95423037e-02 -3.84300351e-01
      -1.51571214e-01 -8.62680852e-01 2.26510257e-01 2.93217987e-01
      -3.80510181e-01 -1.11856475e-01 -1.01852581e-01 2.65575618e-01
      1.83784872e-01 -2.17706114e-01 -3.73011410e-01 -2.82642305e-01
      1.02122164e+00 7.78566837e-01 -1.61738664e-01 -1.19979948e-01
      6.02445826e-02 -9.83517841e-02 -1.37325659e-01 -1.11520755e+00
      -7.08781034e-02 8.91229153e-01 5.13324916e-01 -1.15984797e-01</_>
    <_>
      -6.17837429e-01 -9.81771529e-01 -1.94572389e-01 6.02514565e-01
      5.34624219e-01 -2.22853776e-02 3.00325751e-02 -1.25241637e-01
      -4.19635147e-01 -5.10630496e-02 2.45762140e-01 3.06634367e-01
      3.19796465e-02 7.82882452e-01 1.92453377e-02 4.60236222e-02
      -4.39471006e-01 -3.87952983e-01 -8.87384236e-01 3.12495708e-01
      5.13951480e-01 3.39051425e-01 5.09386122e-01 4.49549645e-01
      1.68020561e-01 -8.26195598e-01 -1.30878854e+00 -3.44797641e-01
      4.07145798e-01 3.41275185e-01 -2.80787628e-02 9.17558432e-01
      1.93413720e-01 -1.41709074e-01 -1.38635412e-01 -3.16938013e-01
      1.75011113e-01 8.88720751e-01 1.01887059e+00 8.88399184e-02
      6.78595752e-02 2.17033908e-01 3.59799236e-01 7.09254071e-02
      1.44224335e-02 3.30141127e-01 8.12563822e-02 7.47769848e-02
      -1.15806714e-01 -1.25597015e-01 1.35665596e-01 3.54247721e-04
      1.69009030e-01 4.28121686e-01 -1.36553571e-01 2.12924466e-01
      7.11184517e-02 -4.39271480e-02 -1.79728881e-01 1.45858601e-01
      4.52458471e-01 2.78422982e-01 -1.41896203e-01 2.59266704e-01
      1.94125921e-01 1.00608906e-02 -2.12866679e-01 -2.80957222e-01
      -2.36488372e-01 -3.32020551e-01 -3.57514918e-01 2.86756366e-01
      2.50639409e-01 1.49110809e-01 -1.51086703e-01 -1.62397668e-01
      -5.00554740e-01 -1.40277222e-01 -4.75386590e-01 -3.51100117e-01
      1.40511179e-02 1.06591664e-01 6.92697108e-01 3.75328183e-01
      7.52435178e-02 -7.55554318e-01 1.41788796e-01 1.79525942e-01
      -7.53497556e-02 -1.70627877e-01 1.10469021e-01 -1.53860956e-01
      -5.80421835e-03 -2.02424288e-01 -2.16083154e-01 -2.34767988e-01
      6.29077733e-01 4.66727138e-01 1.98790431e-01 -1.57188565e-01
      6.16997421e-01 2.67414719e-01 3.14401835e-02 -7.31588244e-01
      6.19593896e-02 8.93163204e-01 1.27896297e+00 -1.50264353e-01</_>
    <_>
      -7.35455334e-01 -4.60921489e-02 6.44397140e-01 1.88115582e-01
      1.45641223e-01 2.82524526e-01 2.92124689e-01 -2.61777401e-01
      -6.86817050e-01 -1.15493454e-01 2.85865128e-01 3.02701503e-01
      -6.74535939e-03 4.31632251e-01 1.63686767e-01 -4.91096787e-02
      -3.04431319e-01 -3.87585014e-01 -9.28658664e-01 -3.64260167e-01
      -2.19775632e-01 1.77638352e-01 1.45641223e-01 4.19451892e-01
      6.01296723e-01 -7.49380141e-02 -9.85522032e-01 -3.69746894e-01
      -1.86997995e-01 -4.62177157e-01 -1.10114366e-01 5.47051907e-01
      2.70447403e-01 3.31408560e-01 -8.13389644e-02 -2.61559188e-01
      8.22253108e-01 4.46547002e-01 7.00653732e-01 1.32173985e-01
      1.28504843e-01 1.29904568e-01 3.52635860e-01 2.88491577e-01
      7.25888789e-01 -2.35919565e-01 -4.44880605e-01 -3.42918038e-02
      -9.87711027e-02 -5.89489222e-01 -2.31074154e-01 8.32133144e-02
      4.52938288e-01 -1.22838177e-01 3.89676571e-01 -2.13748170e-03
      -1.53432384e-01 -2.13821411e-01 -9.14095715e-02 2.53156591e-02
      1.90521151e-01 -2.38963112e-01 3.65121663e-01 -3.31822246e-01
      1.88667059e-01 4.68336403e-01 -1.98451027e-01 -6.51234090e-01
      -3.80727947e-01 -3.51219088e-01 -6.53807282e-01 -3.48836631e-01
      -6.88323528e-02 4.11350094e-02 -2.51529783e-01 -1.94825128e-01
      -7.58798957e-01 -3.13365906e-01 -4.38534349e-01 -1.68031484e-01
      -2.24548012e-01 1.99051276e-01 4.96238232e-01 1.13854736e-01
      -3.72596860e-01 -6.85942590e-01 -5.39330959e-01 -1.00824639e-01
      -2.12454036e-01 1.76463515e-01 -2.56173819e-01 -7.03058392e-02
      9.25064087e-02 -1.32253185e-01 -4.09020007e-01 -2.64328331e-01
      6.32678032e-01 4.62266684e-01 -1.83577687e-01 -6.44680634e-02
      -6.04515010e-03 -1.11219399e-01 -2.87562132e-01 -6.19905770e-01
      -5.47040880e-01 1.02156520e+00 1.09561014e+00 -5.64515917e-03</_>
    <_>
      -1.22969449e+00 -6.58813678e-03 5.41082621e-01 4.62130666e-01
      7.98244834e-01 1.95002407e-01 -1.95154741e-01 -4.16079670e-01
      -1.28417146e+00 -7.55433261e-01 1.61616340e-01 2.01260522e-01
      -9.36362892e-02 4.74963576e-01 -3.40696424e-01 -8.17071080e-01
      -5.32101750e-01 -1.00245714e+00 -1.14597034e+00 -1.89721048e-01
      -5.22070706e-01 8.45271945e-02 7.90176272e-01 7.24635065e-01
      4.12053347e-01 -1.21390544e-01 -1.11299324e+00 -3.47279757e-01
      -5.13164662e-02 -5.65222859e-01 -5.00326335e-01 4.67203617e-01
      -5.97248264e-02 1.60820723e-01 2.26603389e-01 -1.47874355e-01
      1.56506449e-01 6.07376516e-01 8.79473865e-01 -5.81981905e-04
      -1.01681203e-01 -1.89319640e-01 1.39371291e-01 5.20241372e-02
      9.74095718e-04 -1.81227997e-01 -6.60788640e-02 -5.65449372e-02
      -7.12308735e-02 -4.23929393e-01 -5.33986352e-02 3.86239320e-01
      1.50816649e-01 -1.65484533e-01 -1.21415429e-01 3.09733804e-02
      -3.55646126e-02 -3.81180406e-01 -3.97981167e-01 -3.44868660e-01
      1.70823127e-01 2.51821309e-01 -1.19897082e-01 -1.62901029e-01
      2.03393444e-01 1.29594684e-01 -2.35456228e-01 -4.39349383e-01
      -3.46114010e-01 -7.25492612e-02 -2.38069400e-01 -1.76319882e-01
      -1.37084365e-01 -3.40790182e-01 -8.59759986e-01 -2.32519776e-01
      -2.92379677e-01 -1.09490581e-01 -1.45544782e-01 -1.25823349e-01
      -3.47894043e-01 9.61453021e-02 -4.83735770e-01 -9.62812901e-01
      -1.69278756e-01 -2.05852866e-01 2.65807778e-01 1.42606854e-01
      1.65808126e-01 5.84023818e-02 6.69180835e-03 -1.05200976e-01
      -4.22031879e-01 -2.48027042e-01 -1.10887915e-01 -3.75497863e-02
      4.94808376e-01 4.25318718e-01 1.34821966e-01 2.13822067e-01
      1.77867636e-01 -6.99837744e-01 -1.01513617e-01 -1.15974545e-01
      -1.24400295e-02 -8.91016871e-02 2.49870241e-01 1.95925698e-01</_>
    <_>
      -5.02349377e-01 1.68301076e-01 4.83305544e-01 1.06786825e-01
      5.08138657e-01 -2.69563273e-02 1.35083199e-01 -1.10502079e-01
      -4.34939444e-01 -3.12207401e-01 2.24095285e-01 3.80080044e-02
      6.76112324e-02 5.52661777e-01 -1.84075460e-02 5.89463487e-02
      -1.09899305e-01 -4.54289705e-01 -6.56554103e-01 4.45296662e-03
      5.46866506e-02 9.98696312e-03 4.20280367e-01 1.57653525e-01
      4.23865616e-01 1.12441368e-01 -6.43866122e-01 -3.66059542e-01
      2.17869356e-01 2.78188467e-01 1.81779508e-02 4.92852181e-01
      -2.43792795e-02 2.38605514e-01 -6.29683360e-02 -3.41044724e-01
      -1.40460551e-01 4.67697859e-01 3.46872300e-01 5.11497706e-02
      3.46817851e-01 9.32270363e-02 2.55631059e-01 1.10649645e-01
      -1.92819193e-01 -1.85053766e-01 1.08900882e-01 1.16806887e-01
      -3.38930674e-02 2.12808192e-01 4.24188040e-02 2.17169181e-01
      2.83549070e-01 -1.55559078e-01 -3.32146794e-01 2.73546547e-01
      2.83719867e-01 -1.48697169e-02 3.03474218e-01 8.18904117e-02
      3.77122879e-01 1.21519968e-01 -3.32146794e-01 -3.67895126e-01
      3.12009990e-01 3.09733152e-01 -1.12133801e-01 8.25108588e-03
      6.21876903e-02 1.17070086e-01 5.01923673e-02 -3.66647959e-01
      -5.42257428e-02 -2.61694137e-02 -1.49069265e-01 -1.04168348e-01
      -4.68056202e-02 -3.65447253e-02 -8.66625980e-02 8.96757934e-03
      -1.61129445e-01 6.72205538e-02 1.05302133e-01 -1.47384748e-01
      -2.67923832e-01 -1.45274267e-01 2.83498634e-02 -1.71436351e-02
      -1.24061957e-01 -2.91548856e-02 -2.76878238e-01 7.47189345e-03
      -3.10237985e-02 -1.00879274e-01 1.62486538e-01 -2.12896820e-02
      2.93699533e-01 2.38992885e-01 -2.23376527e-01 -1.32920533e-01
      2.33078837e-01 7.86946192e-02 -7.70583674e-02 7.84392133e-02
      -7.05060139e-02 2.15243235e-01 1.04435407e-01 -1.32920533e-01</_>
    <_>
      -5.73226392e-01 -3.07967454e-01 2.23734409e-01 1.47774711e-01
      5.66817224e-01 -2.11697742e-01 -7.31261611e-01 -7.27135181e-01
      -7.55465090e-01 -9.65881497e-02 -1.85404330e-01 -6.51814163e-01
      -3.36938351e-01 1.16585186e-02 -4.88099635e-01 -1.14148581e+00
      -8.05680990e-01 -4.58233744e-01 -6.70584083e-01 1.06529944e-01
      -1.38651311e-01 2.02275336e-01 5.94999969e-01 3.38988066e-01
      2.25255415e-01 -5.20402312e-01 -9.58277106e-01 1.70862786e-02
      3.38887721e-01 8.46162215e-02 1.66683048e-01 8.33694041e-01
      4.73254889e-01 8.18958282e-01 2.15791047e-01 -2.95792352e-02
      3.39284986e-01 3.58811826e-01 5.78038394e-02 -3.60007346e-01
      -3.54017973e-01 -2.54118055e-01 -3.31979245e-01 -1.70846984e-01
      2.60358006e-01 -2.01498076e-01 -5.77701449e-01 -6.11005783e-01
      -3.73783231e-01 -4.92537975e-01 1.22552834e-01 -8.80616605e-02
      1.17220841e-01 5.63150756e-02 3.70448716e-02 5.26361577e-02
      -1.57726958e-01 -1.61586285e-01 6.19855113e-02 2.22621277e-01
      9.22769845e-01 5.57670355e-01 1.47401363e-01 -9.03708488e-02
      1.77548870e-01 -1.16217390e-01 -4.08108413e-01 -3.20571721e-01
      -3.55682313e-01 -4.77191389e-01 -2.25507561e-02 -4.69190367e-02
      -2.91680545e-01 -2.25325763e-01 -2.11149469e-01 -2.81903714e-01
      -6.88704371e-01 2.55653244e-02 -5.15071929e-01 -3.35861593e-01
      -3.37688178e-01 1.04773477e-01 4.06359971e-01 -1.91770241e-01
      -1.05492137e-01 -5.36897421e-01 1.66159987e-01 -2.30591312e-01
      -7.61063933e-01 -5.78192025e-02 1.37759462e-01 -1.39441177e-01
      -5.03472209e-01 -4.70429540e-01 -5.62652886e-01 -2.30843663e-01
      1.73016816e-01 5.17529368e-01 5.51881850e-01 2.82342106e-01
      2.97163725e-01 -5.07191002e-01 -3.73223931e-01 -4.89476532e-01
      2.23746642e-01 9.00819600e-01 6.75229728e-01 3.46850604e-01</_>
    <_>
      -7.00763106e-01 8.05428252e-02 6.61087751e-01 4.79540825e-01
      6.58277333e-01 6.05246574e-02 -4.99732792e-01 -2.33264640e-01
      -7.44522393e-01 -6.43720686e-01 -9.41646472e-02 -4.40664515e-02
      -1.20840389e-02 1.49838701e-01 -2.08989069e-01 -6.55468881e-01
      -4.74878997e-01 -9.20160532e-01 -1.24808800e+00 -6.01442456e-01
      -9.40572202e-01 1.09412288e-02 6.80720568e-01 6.58592880e-01
      9.97657061e-01 4.85033095e-01 -1.19005597e+00 -4.31257039e-01
      -1.29672021e-01 2.16716006e-01 2.02443805e-02 2.68122464e-01
      -1.11787558e-01 2.60424197e-01 2.20927775e-01 -2.73927569e-01
      1.87974408e-01 3.62660974e-01 9.22019780e-02 -8.33859518e-02
      -4.28108215e-01 -1.10955209e-01 -1.42940834e-01 -8.18839297e-04
      1.34418398e-01 -4.23938110e-02 -9.85490382e-02 -3.66389513e-01
      -1.16669215e-01 -2.64561057e-01 4.18521874e-02 -2.92630464e-01
      1.51399195e-01 3.40442732e-02 -2.14783207e-01 9.05387327e-02
      1.13497481e-01 -6.28508627e-02 -6.30733073e-01 -2.02258021e-01
      2.06179485e-01 1.79690272e-01 -1.91505671e-01 -3.54314357e-01
      5.84016621e-01 6.71473384e-01 1.58352941e-01 8.44957307e-02
      -1.97636098e-01 -3.72165352e-01 -6.21546917e-02 -3.54478419e-01
      -4.92724068e-02 -3.87542211e-02 -3.90423596e-01 -1.63827494e-01
      -8.47787499e-01 -9.15040672e-02 -6.88448548e-01 -1.11552030e-01
      -1.74466237e-01 7.24476529e-04 1.86480969e-01 -1.74648449e-01
      -6.80366978e-02 -5.06028891e-01 -1.70307737e-02 -1.49672806e-01
      -1.02145024e-01 -1.72969088e-01 -3.44120413e-01 7.66961426e-02
      1.49423733e-01 -3.32172439e-02 8.47005099e-02 -1.70678228e-01
      2.71605611e-01 6.51603043e-01 -3.08944017e-01 -1.24521710e-01
      -5.14054112e-02 -1.64646596e-01 -8.68651457e-03 1.30304500e-01
      -1.00450821e-01 9.87651646e-01 1.00535727e+00 -1.24521710e-01</_>
    <_>
      -4.27530371e-02 2.86303729e-01 7.07190275e-01 1.64013311e-01
      -1.68768704e-01 -1.54981509e-01 -5.42364597e-01 -1.17733203e-01
      -1.11229040e-01 7.85164177e-01 4.83501285e-01 6.81853831e-01
      -1.38242990e-02 -3.80343378e-01 -1.63700387e-01 -3.66160303e-01
      -8.93503614e-03 5.81001580e-01 -1.16015531e-01 -3.07997912e-01
      -5.62631905e-01 9.65560898e-02 -1.68768704e-01 2.01186359e-01
      4.74640280e-01 1.24757841e-01 -1.11851737e-01 6.84574723e-01
      -2.26335935e-02 -4.43869829e-01 -1.59984156e-01 -3.11327517e-01
      1.75915480e-01 5.90180993e-01 5.08317530e-01 8.25271904e-01
      6.11475706e-01 2.86744446e-01 2.14606583e-01 2.71814298e-02
      -3.41462016e-01 -9.27616581e-02 -1.39191132e-02 5.89907430e-02
      6.80390000e-01 -4.39655930e-01 -9.34877813e-01 -9.09378707e-01
      8.56916085e-02 7.22649693e-01 3.91341329e-01 7.24780262e-01
      2.36408725e-01 -3.72945487e-01 7.45634496e-01 5.48493899e-02
      -3.77431214e-01 -3.69371802e-01 -2.88398147e-01 6.94386363e-02
      4.49753255e-01 4.09468174e-01 1.01872277e+00 -2.78178215e-01
